tree
version=v4
num_class=3
num_tree_per_iteration=3
label_index=0
max_feature_idx=11
objective=multiclass num_class:3
feature_names=true_prob_home true_prob_draw true_prob_away log_odds_home_away log_odds_home_draw log_odds_draw_away prob_ratio_home_away prob_ratio_home_draw prob_ratio_draw_away market_efficiency uncertainty_index odds_variance
feature_infos=[0.22086767090986351:0.58614329505897012] [0.25342910583467554:0.34469839787900008] [0.16042759910635424:0.43443393121113644] [-1.2957215456164437:0.67648012807473357] [-0.83848016798455927:0.44510607762400833] [-0.45724137763188433:0.23137405045072515] [0.5084033613445379:3.6536312849162003] [0.64075630252100846:2.3128491620111729] [0.79344262295081969:1.5797101449275364] [0.90343297045738769:0.90619145412276647] [0.95455576438661249:1.0978572688955026] [0.015555555555555536:3.7605555555555554]
tree_sizes=2350 2563 2460 2450 2552 2548 2329 2644 2449 2333 2768 2514 2439 2340 2553 2458 2538 2462

Tree=0
num_leaves=22
num_cat=0
split_feature=2 3 0 7 3 11 2 9 9 5 0 3 2 9 9 9 0 9 9 0 2
split_gain=13.5689 2.37917 2.2501 2.15462 2.1646 1.61772 1.60288 1.66505 2.43118 1.48888 1.84112 2.38869 1.58265 1.17289 0.9852 2.32738 0.87127 0.588537 0.5517 0.26403 0.2123
threshold=0.25020658610614516 -0.060623358042882887 0.46037899380419273 1.6839814928050225 -0.72959787431161061 0.023088888888888864 0.27383788892389244 0.90463742370512523 0.90509907267173439 -0.043782724439004085 0.39840179011640137 -0.18924087576142215 0.28735871791455075 0.90523621830030954 0.90442159836722957 0.90513495291559998 0.42004908820743952 0.90483745470470922 0.9043205990087686 0.38492518239580414 0.36473430519002353
decision_type=2 2 2 2 2 2 2 2 2 2 2 2 2 2 2 2 2 2 2 2 2
left_child=3 2 6 -1 13 -3 7 -2 -9 -8 11 19 16 18 -13 -16 -12 -14 -5 -11 -7
right_child=1 5 -4 4 -6 20 9 8 -10 10 12 14 17 -15 15 -17 -18 -19 -20 -21 -22
leaf_value=-1.0447676224660261 -1.1068942500736645 -1.1069658688554453 -1.130048330073244 -1.0676067331400863 -1.0992462156576195 -1.138499287573693 -1.1214449217544014 -1.0604665916975464 -1.0994017124497701 -1.1121518833525941 -1.1196541847229013 -1.1116553276969363 -1.095258361057823 -1.0507642454179353 -1.0716719867989433 -1.1110494293132724 -1.095258361057823 -1.0755875669729718 -1.0892860814395711 -1.1259327599222431 -1.1235285092770633
leaf_weight=5.6353309750556937 11.609213367104532 13.397179678082468 8.1756196022033674 6.3200106620788592 9.6235561221838015 7.7103775441646603 13.680902272462843 7.0697145015001324 9.6581166237592679 7.2192919403314582 6.543545141816141 9.1109397560358101 7.5214035660028484 5.9840777218341819 7.6209882199764234 7.0087871998548508 7.5214035660028458 9.55517430603504 7.3879975974559784 14.719164744019507 8.9896084070205671
leaf_count=20 34 39 22 21 29 20 38 24 29 21 18 26 23 21 25 20 23 31 23 40 25
internal_value=-1.10152 -1.10781 -1.10476 -1.07342 -1.07927 -1.12049 -1.10295 -1.09268 -1.08253 -1.10623 -1.10343 -1.10984 -1.09417 -1.0698 -1.09905 -1.09083 -1.10632 -1.08389 -1.07877 -1.1217 -1.13093
internal_weight=192.062 157.111 127.014 34.951 29.3156 30.0972 118.839 28.337 16.7278 90.5016 76.8207 45.6792 31.1415 19.6921 23.7407 14.6298 14.0649 17.0766 13.708 21.9385 16.7
internal_count=572 458 374 114 94 84 352 87 53 265 227 132 95 65 71 45 41 54 44 61 45
is_linear=0
shrinkage=1


Tree=1
num_leaves=24
num_cat=0
split_feature=2 2 9 9 9 9 1 9 9 1 2 10 11 9 1 9 9 9 9 3 3 9 6
split_gain=4.35714 5.33504 4.54859 3.16541 3.6898 3.01263 3.25516 2.09832 5.45761 1.82831 1.54261 1.17881 0.918446 2.24566 1.95116 0.674691 1.50892 0.471139 0.511573 0.467578 0.442685 0.373828 0.343304
threshold=0.24377661863369962 0.24549962891618513 0.90374086929197339 0.90413558212453393 0.90535998791751404 0.90548819544701775 0.2995218638722445 0.90494550874763291 0.90460644466413942 0.29484294741314349 0.23009185474019833 1.093779068970524 0.29801111111111106 0.90480847910954576 0.28841890017927491 0.90438673693096849 0.90450395737167888 0.90522853304633066 0.90503633563358254 -0.71254247252095715 -0.87077396117269712 0.9042595244619932 1.1613475177304966
decision_type=2 2 2 2 2 2 2 2 2 2 2 2 2 2 2 2 2 2 2 2 2 2 2
left_child=10 -2 -3 11 7 -6 -7 8 15 -9 20 -4 13 -10 -14 21 -17 18 -11 -12 -1 -5 -23
right_child=1 2 3 4 5 6 -8 9 12 17 19 -13 14 -15 -16 16 -18 -19 -20 -21 -22 22 -24
leaf_value=-1.1120907850890254 -1.0206651281030457 -1.0436348938444042 -1.1286962099551738 -1.0864525965352578 -1.1342266561111143 -1.0817848209594836 -1.1238512490253498 -1.099151782723083 -1.0830036420607871 -1.0792179137669522 -1.1383350715122631 -1.1003333981947969 -1.0978365064783315 -1.1165644180705021 -1.1339450640537942 -1.1036456233841225 -1.0742140587058875 -1.0853583189632674 -1.0603669416460166 -1.1162747446099928 -1.0956184501756976 -1.0636282233625849 -1.0811443206094729
leaf_weight=8.6214613318443281 2.339475452899932 4.0584937930107108 9.5689515471458453 9.8954609632492083 8.9518523216247576 11.063889384269716 7.7198716998100272 9.9259277582168561 8.4271083474159258 8.8619304895401054 6.6003009676933289 6.5224550366401663 6.0056897997856131 11.739704370498655 8.7846082448959333 9.7579444050788897 7.4274025559425345 7.7592720985412589 9.7837903499603254 5.9196495413780195 6.9234524965286282 7.2289524078369132 8.194094240665434
leaf_count=29 6 11 32 27 27 33 23 29 25 25 22 19 18 36 29 29 21 23 26 19 21 19 23
internal_value=-1.09731 -1.09417 -1.09531 -1.09671 -1.09429 -1.11053 -1.0992 -1.09028 -1.09502 -1.08034 -1.11544 -1.11759 -1.10955 -1.10228 -1.11904 -1.08295 -1.09114 -1.07348 -1.06891 -1.12852 -1.10446 -1.07765 -1.07244
internal_weight=192.082 164.017 161.677 157.619 141.527 27.7356 18.7838 113.792 77.461 36.3309 28.0649 16.0914 34.9571 20.1668 14.7903 42.5039 17.1853 26.405 18.6457 12.52 15.5449 25.3185 15.423
internal_count=572 481 475 464 413 83 56 330 227 103 91 51 108 61 47 119 50 74 51 41 50 69 42
is_linear=0
shrinkage=1


Tree=2
num_leaves=23
num_cat=0
split_feature=1 0 4 0 2 0 0 0 0 1 0 1 8 0 1 1 1 9 4 9 9 0
split_gain=8.36019 2.67811 3.22316 3.2618 3.66012 2.41261 2.83702 1.82866 4.42529 2.56224 4.11788 2.27704 3.85063 1.91168 1.82779 1.38068 1.00395 1.06609 1.00005 0.661832 0.650352 0.258569
threshold=0.31906527967222459 0.4646562138350378 -0.48009416215028838 0.44906911147995082 0.26553775482096315 0.47486754419129645 0.50026602165564737 0.38024070605993909 0.38379912630597329 0.30241945824469241 0.39840179011640137 0.29407557502828313 1.0502093026874777 0.44099634007092076 0.30707774969678087 0.29742668432135261 0.31060194332527352 0.90453945259589075 -0.40269406140086311 0.90500211421200449 0.90485766929060318 0.5187087385141157
decision_type=2 2 2 2 2 2 2 2 2 2 2 2 2 2 2 2 2 2 2 2 2 2
left_child=1 2 -1 4 -4 -3 19 14 -9 10 -10 12 -12 18 -6 20 -16 -18 -14 -7 -13 -8
right_child=-2 5 3 -5 7 6 21 8 9 -11 11 15 13 -15 16 -17 17 -19 -20 -21 -22 -23
leaf_value=-1.0606640342966367 -1.0567282239681093 -1.1338303839086852 -1.0496156216291497 -1.1247437310582629 -1.1242022305014845 -1.0787984786082432 -1.128639980962528 -1.0545896857816759 -1.0543909030866043 -1.1212952036696229 -1.0545896857816759 -1.1262542493599033 -1.0739458570264704 -1.1199290115857548 -1.0883862063940866 -1.0945554258285337 -1.0937881245535714 -1.1166387457992799 -1.0983192320048698 -1.0993457619088471 -1.105495986138874 -1.1120196478690847
leaf_weight=5.8772977888584128 11.970169544219969 9.2035696506500226 4.0230406820774069 10.557482957839964 10.307311058044432 7.4603527188301104 6.6116245090961439 6.7267659902572623 6.0928717553615561 9.1425763964652997 6.7267659902572658 8.5866043865680748 6.9600089192390433 6.5770265758037558 11.621785134077074 11.902453660964964 8.5038408637046832 11.493075996637343 9.5045284628868156 7.3098733127117157 8.4007870554923993 6.7105770111083984
leaf_count=16 33 29 11 32 31 23 22 19 17 25 19 26 21 22 34 37 23 34 27 24 25 22
internal_value=-1.09704 -1.09971 -1.09663 -1.09816 -1.09596 -1.11163 -1.10407 -1.09748 -1.09312 -1.09674 -1.09317 -1.09724 -1.08757 -1.09724 -1.10597 -1.10724 -1.09981 -1.1067 -1.08824 -1.08925 -1.11639 -1.12081
internal_weight=192.27 180.3 143.004 137.127 126.569 37.296 28.0924 122.546 80.6204 73.8936 64.751 58.6582 29.7683 23.0416 41.926 28.8898 31.6187 19.9969 16.4645 14.7702 16.9874 13.3222
internal_count=572 539 419 403 371 120 91 360 238 219 194 177 89 70 122 88 91 57 48 47 51 44
is_linear=0
shrinkage=1


Tree=3
num_leaves=22
num_cat=0
split_feature=2 3 0 7 3 1 1 2 1 10 0 3 0 9 9 9 5 9 9 9 10
split_gain=12.2733 2.1682 2.10127 1.92123 1.93703 1.52714 2.5501 1.50231 2.71195 1.40395 1.33721 2.18934 1.82799 1.03523 0.905606 2.17082 0.672269 0.543933 0.501225 0.266038 0.117967
threshold=0.25020658610614516 -0.060623358042882887 0.46037899380419273 1.6839814928050225 -0.72959787431161061 0.29090856102064094 0.29226307199120188 0.26553775482096315 0.28697283095937759 1.0974866130543062 0.39840179011640137 -0.18924087576142215 0.4167836163761689 0.90523621830030954 0.90442159836722957 0.90513495291559998 -0.038519277807017881 0.90483745470470922 0.9043205990087686 0.90504257801323118 1.0964114249491304
decision_type=2 2 2 2 2 2 2 2 2 2 2 2 2 2 2 2 2 2 2 2 2
left_child=3 2 5 -1 13 7 -7 8 -2 20 11 19 17 18 -13 -16 -14 -12 -5 -8 -3
right_child=1 9 -4 4 -6 6 10 -9 -10 -11 12 14 16 -15 15 -17 -18 -19 -20 -21 -22
leaf_value=0.051290829197670855 0.018471863586797598 -0.022876954622865375 -0.02975485117433372 0.029949065262485253 3.3061437566019653e-05 -0.036667373519838363 -0.025695444194938896 0.019948375596356271 -0.024262567457607461 -0.006706388235137673 0.0038603573581501073 -0.011831332681373019 0.00072989016417752332 0.045555203443633424 0.026521885351498055 -0.011440856689481952 -0.016134172383472752 0.022748419582840001 0.0093575006241157933 -0.011904374097218758 -0.035224453579836688
leaf_weight=5.7579674124717704 6.9713058024644869 8.8351115584373527 8.0658925920724851 6.4092246890068072 9.6351282000541705 6.4465312808752051 14.523627027869223 12.18533982336521 7.6301758736371994 12.325070962309836 7.5418382138013866 9.0656375586986595 12.537936776876451 6.109119474887847 7.6934084594249708 6.9914796501398087 10.242558166384695 9.6376211345195753 7.4391377866268158 7.1655790954828253 8.6008591055870038
leaf_count=20 22 25 22 21 29 17 40 39 21 36 23 26 38 21 25 20 29 31 23 21 23
internal_value=-0.00201514 -0.00805352 -0.00513916 0.0245167 0.0189836 -0.00339977 -0.00649079 0.00699744 -0.00353255 -0.0202343 -0.00411416 -0.00999416 0.0024556 0.0278375 0.000298592 0.00815449 -0.00667137 0.0148162 0.0193924 -0.0214442 -0.029419
internal_weight=191.811 156.46 126.699 35.3506 29.5926 118.633 91.8462 26.7868 14.6015 29.761 85.3997 45.4397 39.96 19.9575 23.7505 14.6849 22.7805 17.1795 13.8484 21.6892 17.436
internal_count=572 458 374 114 94 352 270 82 43 84 253 132 121 65 71 45 67 54 44 61 48
is_linear=0
shrinkage=0.05


Tree=4
num_leaves=23
num_cat=0
split_feature=9 0 3 9 9 9 9 9 9 3 10 9 0 0 3 10 11 0 11 3 10 0
split_gain=4.17271 3.88333 4.65992 3.8854 3.43573 2.87137 1.94644 2.95274 4.86846 3.06371 2.55728 2.47121 3.13589 1.2773 1.20173 0.920839 0.558939 0.453369 0.4371 0.41893 0.184003 0.856959
threshold=0.90582111204164162 0.47486754419129645 -0.65527622253293105 0.90374086929197339 0.90414317103200192 0.90438673693096849 0.90492130273248406 0.90535998791751404 0.90548819544701775 -0.36238886222327549 1.0806173364668121 0.90480847910954576 0.37628106457914073 0.42135020020538644 -0.76448412179476966 1.093779068970524 0.073355555555555632 0.44676941439690571 0.14571111111111112 -0.87077396117269712 1.0961149327879596 0.42693477301961896
decision_type=2 2 2 2 2 2 2 2 2 2 2 2 2 2 2 2 2 2 2 2 2 2
left_child=1 2 -1 -4 15 20 10 13 -9 -10 17 12 -12 16 19 -5 -8 -7 -18 -3 21 -6
right_child=-2 14 3 4 5 6 7 8 9 -11 11 -13 -14 -15 -16 -17 18 -19 -20 -21 -22 -23
leaf_value=0.073937908631622279 -0.038169588822005954 -0.013189638356735936 0.05224510799676349 -0.025966657439238768 0.0035262181043592394 -0.028367620472882146 0.014505776411130196 -0.034250175435255339 0.038895183965754081 -0.0063280625270116493 -0.0091040063140327733 -0.015702147604371514 0.028145015024879913 0.0030207140699625131 -0.026873759221356593 -0.001404450458155782 0.039395943345355081 -0.0093267202348145308 0.019405578517592035 0.0036444608971462067 0.029629050868395568 0.027633391049180847
leaf_weight=2.4017928540706626 6.1966819614171973 7.0350258499383926 4.1464272737503043 10.921244934201242 6.8696710467338624 9.329651862382887 12.415886402130129 8.8404543697834033 6.2166896164417258 8.7866538465023023 9.3328306972980517 11.277032285928724 13.500407949090002 11.752534359693525 11.487863838672636 6.5404519140720359 7.5723327100276929 6.3272696733474723 7.0851376056671143 6.9190786182880419 7.7108270525932303 9.5420650839805585
leaf_count=6 20 24 11 36 20 31 35 27 17 27 29 35 37 34 38 19 21 20 19 21 20 25
internal_value=0.00180231 0.00318057 0.00608005 0.00497196 0.0036338 0.00633367 0.00291557 0.00879864 -0.00487636 0.0122128 -0.00439525 0.00316464 0.0127286 0.0173161 -0.014875 -0.0171117 0.0233038 -0.0210982 0.0302688 -0.00452022 0.0219814 0.0179278
internal_weight=192.208 186.011 160.569 158.168 154.021 136.559 112.437 62.6697 23.8438 15.0033 49.7672 34.1103 22.8332 38.8259 25.442 17.4617 27.0734 15.6569 14.6575 13.9541 24.1226 16.4117
internal_count=572 552 469 463 452 397 332 180 71 44 152 101 66 109 83 55 75 51 40 45 65 45
is_linear=0
shrinkage=0.05


Tree=5
num_leaves=23
num_cat=0
split_feature=1 0 3 0 2 0 0 0 0 1 0 1 0 3 1 1 1 9 4 9 9 0
split_gain=7.55163 2.43045 2.8679 3.04223 3.42464 2.21895 2.5917 1.65646 4.01144 2.41124 3.73171 2.02074 3.49858 1.86545 1.75701 1.30952 0.993649 1.50976 0.849976 0.618872 0.61133 0.243255
threshold=0.31906527967222459 0.4646562138350378 -0.59288984220083873 0.44906911147995082 0.26553775482096315 0.47486754419129645 0.50026602165564737 0.38024070605993909 0.38379912630597329 0.30241945824469241 0.39840179011640137 0.29407557502828313 0.42693477301961896 -0.48921223081695364 0.30707774969678087 0.29742668432135261 0.30959751114054473 0.90453945259589075 -0.40269406140086311 0.90485766929060318 0.90500211421200449 0.5187087385141157
decision_type=2 2 2 2 2 2 2 2 2 2 2 2 2 2 2 2 2 2 2 2 2 2
left_child=1 2 -1 4 -4 -3 20 14 -9 10 -10 12 -12 -14 -6 19 -16 -18 -15 -13 -7 -8
right_child=-2 5 3 -5 7 6 21 8 9 -11 11 15 13 18 16 -17 17 -19 -20 -21 -22 -23
leaf_value=0.03416989304804071 0.038162660972073943 -0.035350541966066788 0.045743110944913165 -0.02673504400781191 -0.02634631437102284 0.017497804669245894 -0.030393380565644085 0.040211671670088649 0.040416868849346969 -0.023532101675411442 0.042663455400477508 -0.028205041612316753 -0.02222511292971795 0.022203809325958019 0.013763752205608278 0.0027962923650211736 0.0058587628895818604 -0.018747763662190213 0 -0.0078620901771475783 -0.0021966610090120445 -0.014138200324942682
leaf_weight=5.9810180664062491 12.168963909149168 9.0124493986368162 4.0750383734703055 10.441585898399351 10.217575073242186 7.5197061896324175 6.5101539343595487 6.8419577181339255 6.1968449652194968 9.0776505768299085 6.0380753278732326 8.4850503802299553 6.5361180156469301 7.0216023027896872 7.0981945395469692 11.888546764850615 11.230294942855837 13.214626744389532 10.350514188408861 8.3637342005968076 7.3162305653095245 6.6585209667682648
leaf_count=16 33 29 11 32 31 23 22 19 17 25 17 26 22 21 20 37 31 40 29 25 24 22
internal_value=0.000182631 -0.00237595 0.000548084 -0.000906308 0.00120333 -0.0137821 -0.00656195 -0.000272903 0.00386303 0.000383101 0.00383717 -2.68167e-06 0.00898624 0.000130444 -0.00838481 -0.00954183 -0.00234376 -0.0072617 0.00890677 -0.0185078 0.00750118 -0.0227195
internal_weight=192.244 180.075 143.058 137.077 126.636 37.0171 28.0046 122.561 80.8001 73.9581 64.8805 58.6836 29.9463 23.9082 41.7607 28.7373 31.5431 24.4449 17.3721 16.8488 14.8359 13.1687
internal_count=572 539 419 403 371 120 91 360 238 219 194 177 89 72 122 88 91 71 50 51 47 44
is_linear=0
shrinkage=0.05


Tree=6
num_leaves=21
num_cat=0
split_feature=2 3 3 7 3 11 1 1 2 1 9 9 1 3 9 6 9 9 1 10
split_gain=11.0963 2.0005 1.95364 1.72733 1.74468 1.40914 1.36687 2.42069 1.36671 2.4077 1.28026 1.35948 1.34934 1.67513 0.928569 0.868296 0.717532 0.534701 0.489129 0.245669
threshold=0.25020658610614516 -0.060623358042882887 -0.59288984220083873 1.6839814928050225 -0.72959787431161061 0.023088888888888864 0.29090856102064094 0.29226307199120188 0.26553775482096315 0.28697283095937759 0.9054919488323756 0.9048731617302278 0.30086103033418077 -0.17931565897750071 0.90500211421200449 1.240371148459384 0.90462347803890253 0.9050042300544342 0.29585766570928046 1.0964114249491304
decision_type=2 2 2 2 2 2 2 2 2 2 2 2 2 2 2 2 2 2 2 2
left_child=3 2 -2 -1 14 -3 8 -8 9 -4 11 12 16 -14 -5 -13 18 -17 -9 -7
right_child=1 5 6 4 -6 19 7 10 -10 -11 -12 15 13 -15 -16 17 -18 -19 -20 -21
leaf_value=0.0483089700729337 -0.028834460477374254 -0.0068480377940704469 0.016950992679390344 0.016508329969575252 0 -0.021746726715383743 -0.035811409120207742 -0.0088410812949301122 0.01884010283897497 -0.023305457490969614 0.011974876397967163 -0.00082074624715985532 -0.022611613603242878 0.0033079178028686514 0.039761542471803413 -0.03217234193654496 0.019344592254975007 -0.013612540156365489 0.010136501372073616 -0.037361484541906097
leaf_weight=5.8634584844112387 7.9467506706714621 13.289523079991342 7.0581626892089862 12.110557675361635 9.6502311825752276 8.6885645836591738 6.3504628837108603 6.5776607692241686 12.294722795486448 7.5267064571380615 10.809967949986456 8.453780949115755 11.705013573169706 12.566333189606668 8.0839327871799451 7.0497678816318539 8.4808013439178449 12.756167247891424 6.7416324764490128 7.4711084961891165
leaf_count=20 22 39 22 38 29 25 17 19 39 21 34 25 33 38 27 19 27 37 21 20
internal_value=-0.00192063 -0.00770994 -0.00491262 0.023145 0.0178894 -0.0194822 -0.00324146 -0.00618104 0.00656466 -0.0035006 -0.00387291 -0.00625782 -0.000838757 -0.00902827 0.0262131 -0.014882 0.0080504 -0.0205984 0.000395883 -0.0294588
internal_weight=191.475 155.767 126.318 35.7082 29.8447 29.4492 118.371 91.4916 26.8796 14.5849 85.1411 74.3312 46.0714 24.2713 20.1945 28.2597 21.8001 19.8059 13.3193 16.1597
internal_count=572 458 374 114 94 84 352 270 82 43 253 219 138 71 65 81 67 56 40 45
is_linear=0
shrinkage=0.05


Tree=7
num_leaves=24
num_cat=0
split_feature=2 2 9 9 9 9 1 9 9 1 2 9 11 9 11 9 9 9 9 3 3 9 6
split_gain=3.61345 4.42327 3.70253 2.83754 3.21643 2.65597 2.853 1.74835 4.61094 1.43549 1.39123 1.01493 0.773881 1.93616 1.80125 0.498197 0.49654 1.35213 0.462026 0.441142 0.387264 0.327223 0.312396
threshold=0.24377661863369962 0.24549962891618513 0.90374086929197339 0.90413558212453393 0.90535998791751404 0.90548819544701775 0.2995218638722445 0.90494550874763291 0.90460644466413942 0.29484294741314349 0.23009185474019833 0.90394936886306299 0.29801111111111106 0.90480847910954576 0.53732222222222237 0.90522853304633066 0.90438673693096849 0.90450395737167888 0.90503633563358254 -0.71254247252095715 -0.87077396117269712 0.9042595244619932 1.1613475177304966
decision_type=2 2 2 2 2 2 2 2 2 2 2 2 2 2 2 2 2 2 2 2 2 2 2
left_child=10 -2 -3 11 7 -6 -7 8 16 -9 20 -4 13 -10 -14 18 21 -18 -11 -12 -1 -5 -23
right_child=1 2 3 4 5 6 -8 9 12 15 19 -13 14 -15 -16 -17 17 -19 -20 -21 -22 22 -24
leaf_value=-0.011755194804309558 0.069940561001394605 0.049182656395819806 -0.0019642506629084923 0.011133841594890354 -0.033413843255253324 0.015839389425716447 -0.023609382563422324 0.00036976515981383299 0.014723313825195976 0.018023465049441301 -0.037287375543000149 -0.028366381236556083 -0.033084715222023747 -0.016398891368434511 0.0018390265152015519 0.011311564487581261 -0.0041938616589683583 0.023579665016327411 0.035761506211799049 -0.015632074756187782 0.0037053669103489003 0.032407857364447325 0.015934858582254751
leaf_weight=8.5043802261352521 2.4542604982852927 4.2250230014324179 6.6938062012195578 10.034480899572374 8.7136107534170169 11.207050159573557 7.6066734045743933 9.8920079767703992 8.5318317562341708 9.0054144561290794 6.381181389093399 9.2469696551561338 8.5436861366033536 11.596846759319304 5.9765863120555869 7.9294135868549338 9.7297573685646075 7.5089781284332267 9.9982798993587476 5.8121644109487516 6.9145549684762981 7.3974838256835929 8.3391107916831952
leaf_count=29 6 11 21 27 27 33 23 29 25 25 22 30 29 36 18 23 29 21 26 19 21 19 23
internal_value=0.00171571 0.00454829 0.00348539 0.00220107 0.00447796 -0.0107629 0 0.0081924 0.00384467 0.0171905 -0.0149479 -0.0176727 -0.00962691 -0.00295255 -0.0184538 0.0231592 0.0148106 0.00768179 0.0277559 -0.0275829 -0.00452059 0.0193378 0.02415
internal_weight=192.244 164.631 162.177 157.952 142.011 27.5273 18.8137 114.484 77.6588 36.8251 27.6123 15.9408 34.649 20.1287 14.5203 26.9331 43.0098 17.2387 19.0037 12.1933 15.4189 25.7711 15.7366
internal_count=572 481 475 464 413 83 56 330 227 103 91 51 108 61 47 74 119 50 51 41 50 69 42
is_linear=0
shrinkage=0.05


Tree=8
num_leaves=22
num_cat=0
split_feature=1 0 3 0 1 8 0 0 1 0 0 1 0 1 0 0 0 9 9 9 0
split_gain=6.81723 2.21201 2.56288 2.85778 2.62471 2.19431 2.03544 2.37613 1.7961 2.49569 2.75972 3.60627 2.0401 1.65577 1.16015 1.29673 0.914801 0.988952 0.587654 0.564347 0.226765
threshold=0.31906527967222459 0.4646562138350378 -0.59288984220083873 0.44906911147995082 0.29407557502828313 1.0502093026874777 0.47486754419129645 0.50026602165564737 0.29742668432135261 0.38024070605993909 0.38379912630597329 0.30241945824469241 0.39840179011640137 0.30707774969678087 0.43584781422153551 0.44099634007092076 0.35672746625373319 0.90453945259589075 0.90485766929060318 0.90500211421200449 0.5187087385141157
decision_type=2 2 2 2 2 2 2 2 2 2 2 2 2 2 2 2 2 2 2 2 2
left_child=1 2 -1 4 5 -4 -3 19 18 13 -11 12 -12 -10 -7 -16 17 -15 -6 -8 -9
right_child=-2 6 3 -5 8 14 7 20 9 10 11 -13 -14 16 15 -17 -18 -19 -20 -21 -22
leaf_value=0.032045559708677437 0.035977880281828849 -0.034154800085496033 0.038029809538743575 -0.026053515524888167 -0.027485942213998135 -0.0062817202661366832 0.016612304402347785 -0.029442557206293424 -0.025653014509460944 0.038064788614217478 0.038524970913865197 -0.022848689665434938 0.0029055372258096307 0.0035141524286436843 0.032926757095465296 0.0034294834969214407 0.0086122411717064716 -0.01854326026272636 -0.0075715435655258224 -0.0022628974670187655 -0.013590288209141214
leaf_weight=6.0699912309646598 12.349191188812254 8.8122639209032041 6.9414893686771384 10.335835486650465 8.3913754522800463 10.568244054913523 7.5746354162693041 6.4094241112470609 10.11375220119953 6.9409772753715506 6.2758497595787111 8.9908706098794919 11.874907851219175 8.4977612942457252 6.0680656731128719 10.618673771619795 11.644622966647146 11.366449370980261 8.3363746553659421 7.3205859363079071 6.6134273707866669
leaf_count=16 33 29 19 32 26 31 23 22 31 19 17 25 37 23 17 33 34 34 25 24 22
internal_value=0.000171367 -0.00227924 0.00050044 -0.00088345 0.00115048 0.0129933 -0.0132116 -0.00632414 -0.00318617 3.22442e-05 0.010114 0.00266902 0.015639 -0.00810778 0.00631837 0.0145862 -0.00225456 -0.00888648 -0.0179626 0.007049 -0.0219382
internal_weight=192.115 179.766 143.035 136.965 126.629 34.1965 36.7303 27.9181 92.4329 75.7052 34.0826 27.1416 18.1508 41.6226 27.255 16.6867 31.5088 19.8642 16.7278 14.8952 13.0229
internal_count=572 539 419 403 371 100 120 91 271 220 98 79 54 122 81 50 91 57 51 47 44
is_linear=0
shrinkage=0.05


Tree=9
num_leaves=21
num_cat=0
split_feature=3 3 3 1 3 11 1 1 3 1 9 9 9 9 9 9 1 0 9 1
split_gain=10.0686 1.82447 1.82491 1.57323 1.5643 1.3175 1.25182 2.30676 1.30779 2.19746 1.20009 1.26097 1.4573 1.78239 1.52911 0.829642 0.815257 0.80107 0.515164 0.26023
threshold=-0.62296241339535563 -0.060623358042882887 -0.59288984220083873 0.28149637559996815 -0.72959787431161061 0.023088888888888864 0.29090856102064094 0.29226307199120188 -0.51844132849291669 0.28697283095937759 0.9054919488323756 0.9048731617302278 0.90402714319952804 0.90418666898486455 0.90450014399393475 0.90500211421200449 0.29999883265025779 0.38553741588342322 0.9050042300544342 0.32123388347011245
decision_type=2 2 2 2 2 2 2 2 2 2 2 2 2 2 2 2 2 2 2 2
left_child=3 2 -2 4 15 -3 8 -8 9 -4 11 12 -9 -14 -15 -1 -16 -13 -19 -7
right_child=1 5 6 -5 -6 19 7 10 -10 -11 -12 17 13 14 16 -17 -18 18 -20 -21
leaf_value=0.015516096144371886 -0.02801368108531881 -0.0064868748287559511 0.015735172147061691 0.045757996054744503 0 -0.036532022163381757 -0.035070013617558217 -0.023413237818100591 0.018224378989585163 -0.022700418765522368 0.011619644512246353 -0.00084074583684640961 0.025818265462528689 -0.015846120383424908 0.017143286918471279 0.03742372163609841 -0.0024811665639675037 -0.031341591550809865 -0.013021712188413623 -0.020618743804251442
leaf_weight=12.205219477415087 7.8355903178453437 13.233500421047212 7.1256583929061907 5.9492424428462973 9.6570187807083148 7.3458744883537284 6.2631291896104804 6.108765944838523 12.353195220232008 7.4588171541690826 10.843456447124479 8.4527006000280398 6.7746488749980918 12.576854035258291 9.2566334903240222 8.2032651007175428 11.305207595229147 6.9498550444841412 12.658490940928457 8.536542594432829
leaf_count=38 22 39 22 20 29 20 17 17 39 21 34 25 22 36 29 27 34 19 37 25
internal_value=-0.00183279 -0.00738987 -0.00472123 0.0219116 0.0168912 -0.0187083 -0.00311152 -0.00593634 0.00625277 -0.00360185 -0.00369028 -0.00601122 -0.000794619 0.00259208 -0.00206909 0.0247053 0.00615169 -0.0143561 -0.0198947 -0.0284743
internal_weight=191.094 155.079 125.963 36.0147 30.0655 29.1159 118.127 91.1897 26.9377 14.5845 84.9266 74.0832 46.0221 39.9133 33.1387 20.4085 20.5618 28.061 19.6083 15.8824
internal_count=572 458 374 114 94 84 352 270 82 43 253 219 138 121 99 65 63 81 56 45
is_linear=0
shrinkage=0.05


Tree=10
num_leaves=25
num_cat=0
split_feature=0 2 2 0 1 0 0 5 2 2 3 3 2 3 8 0 3 0 5 5 0 3 1 1
split_gain=3.30104 4.05756 2.54821 1.96198 3.43714 3.53645 3.43697 2.79195 1.94289 2.0641 3.43744 2.6649 1.3194 1.2612 1.39786 1.20056 0.50757 1.47992 1.83494 0.461984 0.417358 0.364014 0.253307 0.145443
threshold=0.47486754419129645 0.24549962891618513 0.25020658610614516 0.33582437801969395 0.30241945824469241 0.38676284979278852 0.40062881729187311 0.068991774092057173 0.25275442056432618 0.25634596419307881 -0.53489186664122135 -0.46247144106051569 0.23009185474019833 -0.18924087576142215 0.94403522470935297 0.30350503659982142 -0.42292604874778977 0.4206999071104453 -0.030473330564245147 -0.071839518325758259 0.48367041207039646 -0.87077396117269712 0.29783106262300185 0.30692746056341963
decision_type=2 2 2 2 2 2 2 2 2 2 2 2 2 2 2 2 2 2 2 2 2 2 2 2
left_child=1 -1 -3 15 6 7 -5 13 -8 -10 -11 19 21 -6 -15 -4 -13 18 -18 -12 -14 -2 -20 -16
right_child=12 2 3 4 5 -7 8 -9 9 10 11 16 20 14 23 -17 17 -19 22 -21 -22 -23 -24 -25
leaf_value=0.06643324135203986 -0.011265734965265261 -0.033366082856963124 0.0034318513590349299 -0.028319910740606288 -0.013362699949708354 0.048448448307748249 0.033263089352655588 0.028961203872943826 -0.026701471836119258 0.034631635621706368 -0.0094635546642271688 0.016504496347803693 -0.015099162015351006 -0.010453291536136548 0.021013096876867345 -0.023237844678397238 0.032651368770219583 -0.01207004273599376 -0.0055566739224993354 -0.027554901517196626 -0.036345876193394355 0.0037471575634652381 0.0073834298279261265 0.0094980424508398689
leaf_weight=2.4978286921977988 8.4527744948863965 4.4729030132293692 6.9418425410985973 9.3303869515657407 8.7687827646732277 7.3463662862777701 5.0815370678901663 14.685316354036329 5.8348044157028189 7.968520388007156 11.058049961924555 10.161608383059493 5.7711604386568052 6.4741753637790742 9.5099052935838717 9.5585092455148679 6.5997193753719285 10.137050420045851 7.2128970474005047 6.4029683619737545 6.258475661277771 6.9111476391553905 7.5127833336591721 7.2472815662622443
leaf_count=6 29 17 19 29 25 19 13 39 18 23 34 28 19 20 28 28 18 30 23 21 22 21 22 21
internal_value=0.00163774 0.00433446 0.00330768 0.00439913 0.00632842 0.016228 0.000132607 0.0109582 0.00363338 0.00145645 0.00401723 -7.86406e-05 -0.014361 0.00247619 0.0087006 -0.0117634 0.00671385 0.00335102 0.0109369 -0.0165015 -0.0267736 -0.0042086 0.000713159 0.0164155
internal_weight=192.197 164.803 162.305 157.833 141.332 54.0318 87.3003 46.6855 77.9699 72.8884 67.0536 59.0851 27.3936 32.0001 23.2314 16.5004 41.6241 31.4625 21.3254 17.461 12.0296 15.3639 14.7257 16.7572
internal_count=572 481 475 458 411 152 259 133 230 217 199 176 91 94 69 47 121 93 63 55 41 50 45 49
is_linear=0
shrinkage=0.05


Tree=11
num_leaves=23
num_cat=0
split_feature=1 3 1 9 9 9 3 9 1 3 9 6 9 9 9 6 3 6 3 1 3 3
split_gain=6.17687 2.00825 1.38906 1.86397 4.8997 3.00192 1.81585 1.66418 1.23626 1.58721 1.37332 2.0644 1.04001 1.13553 1.62136 1.46688 0.930376 1.44337 0.892926 0.746969 0.335636 0.21453
threshold=0.31906527967222459 -0.80029124607580304 0.2775029549841686 0.90478721852462651 0.90453945259589075 0.90484556182721954 -0.53489186664122135 0.90384909515300749 0.30418460421948579 -0.13155263984610513 0.90542343450243368 1.7130699534133014 0.90443320252105597 0.90421465191685491 0.90432037705154811 1.4137254901960787 -0.39739963765814496 1.5732068156310581 -0.59288984220083873 0.29407557502828313 -0.30720085401800784 -0.91081780632682008
decision_type=2 2 2 2 2 2 2 2 2 2 2 2 2 2 2 2 2 2 2 2 2 2
left_child=1 21 -3 4 6 -5 -4 -8 10 -10 16 -12 13 15 -15 -9 17 -7 -19 -6 -18 -1
right_child=-2 2 3 5 19 8 7 12 9 -11 11 -13 -14 14 -16 -17 20 18 -20 -21 -22 -23
leaf_value=-0.012991094431328119 0.034016925116595327 0.026680339010438144 -0.018128534795679992 0.036057338112995739 -0.018891942333331288 0.036247685538036041 -0.017261299918504832 0.030942184937289716 -0.029965413170025684 0 0.0050977020539049872 -0.029396542295687823 0.025059679268600268 -0.023250043478455811 0.0075013263717624628 0 -0.0078960648112526965 0.018493491706261824 -0.0030854524661145313 -0.041116100094640173 0.0065836385165515933 -0.028529461909742822
leaf_weight=6.5633523464202881 12.504559695720671 4.3940381258726111 11.212451472878454 6.4744235426187506 9.5593652874231356 6.3638880848884538 7.4086043536663047 6.9685053527355185 6.518553867936137 12.69908159971237 12.293645754456522 6.449097901582717 7.4972371608018866 6.8410243839025524 10.813215240836142 8.0892288535833341 7.0351242721080807 9.7539759129285795 8.6393316239118594 8.5284024924039823 8.9953528940677696 6.3086491525173169
leaf_count=22 33 13 35 18 32 17 22 21 21 36 37 21 21 20 29 24 21 29 26 27 25 22
internal_value=0.000158776 -0.0021909 -0.000683424 -0.00147179 -0.00713194 0.00358057 -3.45698e-05 0.00415025 0.000804674 -0.0101111 0.00442341 -0.00659892 0.00825244 0.00418338 -0.00419706 0.0143016 0.00961443 0.0156723 0.00812562 -0.029814 0 -0.0211532
internal_weight=191.911 179.407 166.535 162.141 76.918 85.2225 58.8303 47.6178 78.7481 19.2176 59.5304 18.7427 40.2092 32.712 17.6542 15.0577 40.7877 24.7572 18.3933 18.0878 16.0305 12.872
internal_count=572 539 495 482 231 251 172 137 233 57 176 58 115 94 49 45 118 72 55 59 46 44
is_linear=0
shrinkage=0.05


Tree=12
num_leaves=22
num_cat=0
split_feature=2 1 3 2 2 7 3 11 10 2 1 1 10 5 6 11 3 6 10 1 4
split_gain=9.1153 1.69164 2.20912 1.50208 1.86124 1.41718 1.41886 1.28147 1.38292 1.00053 2.05035 1.19112 0.547998 0.491293 0.805723 0.424723 0.955496 0.346314 0.229398 0.142903 0.284751
threshold=0.25020658610614516 0.30036657695776819 -0.59288984220083873 0.28735871791455075 0.27383788892389244 1.6839814928050225 -0.72959787431161061 0.089344444444444518 1.0955256404563636 0.26553775482096315 0.28697283095937759 0.28978602019300392 1.0917970857033008 -0.043782724439004085 1.4740000000000002 0.019522222222222246 -0.060623358042882887 1.3864129942991588 1.0946683410210842 0.27501535221907319 -0.68426869513532662
decision_type=2 2 2 2 2 2 2 2 2 2 2 2 2 2 2 2 2 2 2 2 2
left_child=5 2 -2 4 9 -1 19 8 18 10 -4 -11 -9 -6 -15 -10 -17 -5 -3 20 -7
right_child=1 7 3 17 13 6 -8 12 15 11 -12 -13 -14 14 -16 16 -18 -19 -20 -21 -22
leaf_value=0.043229846082237115 -0.02725113453939524 0.011718199221182266 0.015115199440036696 0.0064290099944033065 -0.019740120981686864 0.028492505220371184 0 -0.012248507205976325 -0.0038019291690259086 0.0299283602825916 -0.022051801993070965 0.00019321551063912663 -0.027862416737368043 -0.018611511932015001 0.0050841009368941519 -0.0059394552090185869 -0.027278987635289256 0.021768243903683017 -0.00034539378940415342 0.03149327021073519 0.012213754602443205
leaf_weight=6.0282837748527518 7.7305818498134604 7.1331528127193433 7.1590782701969164 9.7854545563459414 13.23422545194626 5.9084031879901913 9.6692167818546313 11.717217147350313 10.048385739326475 6.7826397120952588 7.3866994678974152 7.2729977965354919 15.230341345071791 6.3973163515329343 7.4468301385641098 11.218392685055731 11.286688446998598 7.5758360326290122 6.9794463664293289 6.1327499747276297 8.551892548799513
leaf_count=20 22 22 22 30 38 19 29 35 30 22 21 22 43 18 23 33 32 24 21 20 26
internal_value=-0.00174537 -0.00707175 -0.00199682 0.000641306 -0.00329398 0.0207336 0.01596 -0.0125621 -0.00735815 0.00547143 -0.00343941 0.0150054 -0.0213285 -0.0127224 -0.00556191 -0.0130591 -0.0169361 0.0134952 0.00543984 0.0233487 0.0193586
internal_weight=190.676 154.385 80.7717 73.0411 55.6798 36.2905 30.2623 73.6136 46.6661 28.6014 14.5458 14.0556 26.9476 27.0784 13.8441 32.5535 22.5051 17.3613 14.1126 20.593 14.4603
internal_count=572 458 242 220 166 114 94 216 138 87 43 44 78 79 41 95 65 54 43 65 45
is_linear=0
shrinkage=0.05


Tree=13
num_leaves=21
num_cat=0
split_feature=9 11 9 9 1 9 9 9 0 9 10 1 9 0 9 11 1 10 10 8
split_gain=3.10296 2.98086 2.1676 2.33849 1.64153 1.34157 3.03847 3.41161 3.92579 1.82258 1.41673 2.59 1.14248 0.935537 1.67977 1.36461 0.840354 0.531188 0.30533 0.350832
threshold=0.90374086929197339 0.78112222222222216 0.90414317103200192 0.90442159836722957 0.27423073805409154 0.90492130273248406 0.90535998791751404 0.90548114931643708 0.42759226487799401 0.90480847910954576 1.0953657265678867 0.29407557502828313 0.90487071983320189 0.39521238693293148 0.90504257801323118 0.073355555555555632 0.29031919887266816 1.0472750140913056 1.0961149327879596 1.0309423959487265
decision_type=2 2 2 2 2 2 2 2 2 2 2 2 2 2 2 2 2 2 2 2
left_child=-1 2 16 18 -3 9 13 -8 -9 10 11 -5 -11 15 -15 -7 -2 -6 19 -4
right_child=1 4 3 5 17 6 7 8 -10 12 -12 -13 -14 14 -16 -17 -18 -19 -20 -21
leaf_value=0.038731150064841992 0.00079016507270406435 -0.00065277351927837826 0.0043608356455489715 -0.00930439383726917 -0.037129319795012425 0.011595078757956477 -0.032389996890588878 -0.012563964736779308 0.032201858875104149 -0.031888942561725003 -0.018763965904142411 0.023536470034647074 -0.0033600921476286808 0.025363231418307177 -0.0050692725002011571 0.038655974456499376 -0.021325389565168305 -0.015948816597259791 0.026138747551825672 0.018742110736706157
leaf_weight=5.3580931723117819 6.1421007812023189 11.722137749195101 7.8544114232063356 11.139762848615652 6.7125901132822019 12.7038791179657 8.5449620485305804 12.163579165935518 7.9868056774139395 8.0326371639966947 6.1802527755498877 12.478423327207564 6.9780600368976584 7.2439210116863277 11.299469053745268 8.1932197511196119 11.48916335403919 7.9396279007196426 8.7163064479827863 13.237824782729147
leaf_count=14 20 39 22 36 24 35 27 38 21 26 21 33 22 19 33 22 36 26 22 36
internal_value=0.00155951 0.000446144 0.00303613 0.00510638 -0.0150669 0.00176345 0.00621145 -0.00603151 0.0050039 -0.00488752 0.00212821 0.00786201 -0.0190676 0.0152381 0.00662318 0.0225767 -0.0133781 -0.026177 0.0175573 0.0136685
internal_weight=192.117 186.759 160.385 142.754 26.3744 112.945 68.1358 28.6953 20.1504 44.8091 29.7984 23.6182 15.0107 39.4405 18.5434 20.8971 17.6313 14.6522 29.8085 21.0922
internal_count=572 558 469 413 89 333 195 86 59 138 90 69 48 109 52 57 56 50 80 58
is_linear=0
shrinkage=0.05


Tree=14
num_leaves=23
num_cat=0
split_feature=1 0 3 0 1 0 0 8 1 0 0 1 0 1 0 0 1 10 10 0 0 0
split_gain=5.53606 1.87197 2.16728 2.51124 2.24897 1.7917 1.99659 1.74773 1.61326 2.16232 2.28981 3.19156 1.76161 1.52739 1.11014 1.16091 0.875158 0.46476 0.385445 0.36247 0.203273 0.166465
threshold=0.31906527967222459 0.4646562138350378 -0.59288984220083873 0.44906911147995082 0.29407557502828313 0.47486754419129645 0.50026602165564737 1.0502093026874777 0.29742668432135261 0.38024070605993909 0.38379912630597329 0.30241945824469241 0.39840179011640137 0.30707774969678087 0.43584781422153551 0.44099634007092076 0.30959751114054473 1.0973461645664118 1.0977601692286134 0.48367041207039646 0.5187087385141157 0.41807769346579532
decision_type=2 2 2 2 2 2 2 2 2 2 2 2 2 2 2 2 2 2 2 2 2 2
left_child=1 2 -1 4 7 -3 19 -4 21 13 -11 12 -12 -10 -9 -16 -15 -18 -19 -7 -8 -6
right_child=-2 5 3 -5 8 6 20 14 9 10 11 -13 -14 16 15 -17 17 18 -20 -21 -22 -23
leaf_value=0.029186853429255966 0.031991722287100142 -0.032345641462812234 0.03401194180636434 -0.024700023323930672 -0.023617248923809429 -0.0024955546634126513 -0.027653739828933072 -0.006388460240640827 -0.024582641679168765 0.034533195540226519 0.035627367855468516 -0.021748611973594071 0.0026936438312540963 0.013087518911611773 0.03123545355459395 0.0033780242630706264 -0.01479876315402591 0.007622420773598676 -0.0087039156627724303 0.012713665275032725 -0.012413626721844742 -0.011393704297805885
leaf_weight=6.1822650134563437 12.659790962934492 8.4786936491727811 7.1137693524360648 10.117087826132773 7.138870224356654 6.0338558256626156 6.2083777487277967 10.577405348420145 9.9460022747516614 7.0963102281093589 6.3930644392967286 8.842490687966345 11.895123288035391 7.1373719871044186 6.1380900740623501 10.613719344139097 10.07544642686844 6.9082074761390668 7.2756270617246628 8.9584929049015027 6.5142764151096344 9.3877614587545377
leaf_count=16 33 29 19 32 23 19 22 31 31 19 17 25 37 20 17 33 30 20 21 28 22 28
internal_value=0.000147088 -0.00209341 0.000449032 -0.000834883 0.0010517 -0.0122385 -0.00581334 0.0119614 -0.00298272 5.37445e-05 0.00939978 0.00253959 0.0146095 -0.00756707 0.00593632 0.0140069 -0.0019571 -0.00662422 -0.000404466 0.00628526 -0.0203981 -0.0170848
internal_weight=191.692 179.032 142.839 136.656 126.539 36.1937 27.715 34.443 92.0963 75.5696 34.227 27.1307 18.2882 41.3427 27.3292 16.7518 31.3967 24.2593 14.1838 14.9923 12.7227 16.5266
internal_count=572 539 419 403 371 120 91 100 271 220 98 79 54 122 81 50 91 71 41 47 44 51
is_linear=0
shrinkage=0.05


Tree=15
num_leaves=22
num_cat=0
split_feature=1 9 9 0 1 1 0 5 5 1 4 1 0 5 9 9 10 9 3 2 10
split_gain=11.5642 3.8029 2.00382 1.98716 2.69378 1.70154 3.46575 1.21413 1.13493 2.07224 2.05744 1.44255 0.928329 0.812648 0.740514 0.702877 0.636061 0.610408 0.28013 0.355451 0.12497
threshold=0.29999883265025779 0.90409325161219456 0.90428431008275967 0.36034645058875164 0.30541510173095926 0.29090856102064094 0.44594594560154471 -0.043782724439004085 -0.15090322552638777 0.28471966446949842 -0.5775615631920038 0.28293686162737214 0.36998776720001031 -0.093941414470866111 0.90386613679936434 0.90444248974132579 1.0974866130543062 0.90489737073750398 -0.38797887324248254 0.29274278592250069 1.0961149327879596
decision_type=2 2 2 2 2 2 2 2 2 2 2 2 2 2 2 2 2 2 2 2 2
left_child=1 14 -3 16 15 6 -4 -7 10 11 -8 -10 -6 -11 -1 -5 20 -17 -9 -20 -2
right_child=3 2 5 4 12 7 8 18 9 13 -12 -13 -14 -15 -16 17 -18 -19 19 -21 -22
leaf_value=0.022078092529189384 -0.023620837741225024 -0.013756070242653108 0.047175854868702446 -0.0037161833902121817 -0.0043100936408423827 -0.014084773843325255 0.0061672399089686032 0.014988642777659197 0.005408533868875764 0.03110960084357316 0.041839253623469942 -0.022619305635707524 0.020399117874318435 0.0045224841859415003 0.047845030431640387 -0.033417334689693441 -0.014675069861559404 -0.014419021467234856 -0.0054546694816606772 0.0088507869215954278 -0.034827824505175499
leaf_weight=8.1279606968164426 10.059347823262216 11.543894737958906 6.7065446376800528 7.608701944351199 6.7219040989875776 11.131818801164625 12.497532427310945 6.2813836187124243 9.0078414827585345 6.1858079135417938 6.2276683449745098 8.7709261775016767 7.8396832346916199 6.3101318776607496 5.8534235805273047 8.2379934191703814 12.181266754865645 12.27319025993347 7.5503137111663881 9.3693468272685987 12.318218514323233
leaf_count=26 30 33 23 23 20 33 37 20 27 20 21 25 25 20 20 23 35 36 22 29 34
internal_value=-0.000924225 0.00905673 0.00561591 -0.0159145 -0.00848803 0.00816756 0.0135591 -0.000449225 0.0087695 0.00257269 0.0184559 -0.00818816 0.00870025 0.0182232 0.0334839 -0.0175653 -0.0248912 -0.0224171 0.00591087 0.00217873 -0.0301399
internal_weight=192.805 115.565 101.583 77.2403 42.6815 90.0393 55.7065 34.3329 48.9999 30.2747 18.7252 17.7788 14.5616 12.4959 13.9814 28.1199 34.5588 20.5112 23.201 16.9197 22.3776
internal_count=582 356 310 226 127 277 173 104 150 92 58 52 45 40 46 82 99 59 71 51 64
is_linear=0
shrinkage=0.05


Tree=16
num_leaves=23
num_cat=0
split_feature=10 10 9 0 10 0 1 1 0 9 1 0 0 9 9 9 0 9 0 2 9 9
split_gain=7.55509 2.60354 2.35219 1.6722 1.44277 1.34808 3.47346 8.33443 2.56273 1.58389 1.23345 3.41493 1.70273 1.21436 1.67632 1.47959 1.32676 0.88286 0.829899 0.692127 0.668214 1.38529
threshold=1.0966288409610285 1.0973461645664118 0.90579094851374498 0.36399639340102979 1.0977601692286134 0.38024070605993909 0.30334611517734772 0.30241945824469241 0.40062881729187311 0.90487659513626517 0.29407557502828313 0.44906911147995082 0.41743091994643511 0.90535998791751404 0.90492130273248406 0.90459273631885329 0.4669521919312401 0.90406079039096066 0.40850335571899615 0.3773902991654996 0.90529064267300385 0.90445416410103918
decision_type=2 2 2 2 2 2 2 2 2 2 2 2 2 2 2 2 2 2 2 2 2 2
left_child=2 -2 3 19 -3 9 7 8 -7 -5 11 20 18 14 15 16 -13 -18 -12 -1 21 -10
right_child=1 4 -4 5 -6 6 -8 -9 10 -11 12 13 -14 -15 -16 -17 17 -19 -20 -21 -22 -23
leaf_value=-0.030193231622529706 0.046431296590903268 -0.0020398820594359356 -0.030704086288151845 -0.0021600782207782643 0.0278121494568223 -0.027967335988844252 -0.030445145374057948 0.053070743623669564 -0.0056760230275949451 0.029103795499025972 0.011197368599290361 0.026363292609678259 0.028243083066520503 -0.0094965304502449086 0.02497102981476329 -0.016306348125249528 -0.01495472559563737 0.011187188258446249 -0.011229606449887845 -0.0069722438489116124 -0.0019609158456804915 -0.030667131987748893
leaf_weight=6.858253136277197 9.5063059628009814 7.8071212321519834 7.5910286456346503 7.8163538128137571 7.6877883076667786 9.5174805968999845 10.069551780819891 6.8683349192142478 9.9113865196704918 7.7182997614145279 7.9991242438554826 7.0474544912576738 7.6536521911621085 12.235718145966528 10.88384212553501 7.8918894678354254 5.7399039417505247 7.1018402874469757 8.2999638020992261 7.4123469889163971 6.5972627103328696 14.531587749719618
leaf_count=21 24 22 25 23 20 30 29 17 30 22 23 19 21 39 33 26 20 23 27 20 20 48
internal_value=0.000126815 0.0257557 -0.00363148 -0.00231515 0.0125339 -0.000697194 -0.00236782 0 -0.0032362 0.0131402 -0.000941957 -0.0039028 0.00895314 0.0039897 0.00839996 0.00166228 0.00908814 -0.000136444 0 -0.0186123 -0.016977 -0.0208016
internal_weight=194.746 25.0012 169.745 162.154 15.4949 147.884 132.349 122.279 115.411 15.5347 105.894 81.9409 23.9527 50.9006 38.6649 27.7811 19.8892 12.8417 16.2991 14.2706 31.0402 24.443
internal_count=582 66 516 491 42 450 405 376 359 45 329 258 71 160 121 88 62 43 50 41 98 78
is_linear=0
shrinkage=0.05


Tree=17
num_leaves=22
num_cat=0
split_feature=10 7 9 9 1 9 9 0 9 9 9 9 0 5 9 3 9 9 9 9 0
split_gain=7.14041 5.71964 3.75353 2.80713 2.60845 2.3037 3.85381 1.9972 1.56619 1.26272 0.87725 0.940419 0.770082 0.879528 0.696001 0.7153 0.79596 0.527256 0.409764 0.311211 0.271628
threshold=1.0747424607285907 0.89930441450323162 0.90478721852462651 0.90483745470470922 0.30418460421948579 0.90453945259589075 0.90440491637620701 0.36399639340102979 0.90413558212453393 0.90418666898486455 0.90435501556832254 0.90480847910954576 0.40000052244966205 -0.033198132948027502 0.90499017185580566 -0.60212222954660355 0.90550667774998894 0.90432037705154811 0.90397174969875937 0.9046780190821605 0.47531502983129176
decision_type=2 2 2 2 2 2 2 2 2 2 2 2 2 2 2 2 2 2 2 2 2
left_child=8 -2 5 -4 12 6 9 -6 20 18 -10 19 -5 -14 -13 16 -16 -11 -3 -12 -1
right_child=1 2 3 4 7 -7 -8 -9 10 17 11 14 13 -15 15 -17 -18 -19 -20 -21 -22
leaf_value=-0.037366482428388151 0.053878063350406825 -0.0064733423560324292 0.044908782873331013 0.026943280265344996 0.0070312879112011065 -0.025654383923394305 0.029236491016669128 -0.024664653149878608 0.0074940924965772098 -0.024297866820433254 -0.013882623246936458 0.0078113171433622222 0.020034413461519612 0.00016893268492072566 -0.025038277367715335 2.1968577128720804e-05 -0.0014638996966515115 -0.006425785044971339 0.0090533213144981198 -0.030598566345771822 -0.018854003916444907
leaf_weight=6.0879876911640149 6.3038256466388694 6.7143952101469067 6.3409942537546149 14.51846896111965 13.774448841810228 10.191202640533445 9.2083652615547162 7.548749014735221 6.8962342739105216 9.485645994544031 8.426299646496771 6.6351680159568778 13.393158465623854 10.372116133570673 10.050535574555395 10.235767528414732 6.2805660665035239 9.1067269444465619 10.421960100531576 6.481063023209571 5.9247895330190659
leaf_count=21 16 19 17 40 37 33 26 23 20 29 27 20 38 32 33 32 21 24 32 22 20
internal_value=0.000763903 0.00773733 0.00525128 0.0133104 0.00979564 -0.00430567 0.000471156 -0.00401894 -0.0124076 -0.00686389 -0.00867358 -0.0111056 0.0176107 0.0116109 -0.00617544 -0.00987238 -0.0163405 -0.0158926 0.00267729 -0.0216386 -0.0288798
internal_weight=194.398 127.38 121.076 65.9479 59.6069 55.1283 44.9371 21.3232 67.0184 35.7287 55.0056 48.1094 38.2837 23.7653 33.202 26.5669 16.3311 18.5924 17.1364 14.9074 12.0128
internal_count=582 366 350 187 170 163 130 60 216 104 175 155 110 70 106 86 54 53 51 49 41
is_linear=0
shrinkage=0.05


end of trees

feature_importances:
market_efficiency=110
true_prob_home=76
true_prob_draw=65
log_odds_home_away=44
true_prob_away=27
uncertainty_index=21
odds_variance=12
log_odds_draw_away=10
prob_ratio_home_away=8
log_odds_home_draw=5
prob_ratio_home_draw=5
prob_ratio_draw_away=5

parameters:
[boosting: gbdt]
[objective: multiclass]
[metric: multi_logloss]
[tree_learner: serial]
[device_type: cpu]
[data_sample_strategy: bagging]
[data: ]
[valid: ]
[num_iterations: 1000]
[learning_rate: 0.05]
[num_leaves: 50]
[num_threads: 0]
[seed: 42]
[deterministic: 0]
[force_col_wise: 0]
[force_row_wise: 0]
[histogram_pool_size: -1]
[max_depth: -1]
[min_data_in_leaf: 20]
[min_sum_hessian_in_leaf: 0.001]
[bagging_fraction: 0.8]
[pos_bagging_fraction: 1]
[neg_bagging_fraction: 1]
[bagging_freq: 5]
[bagging_seed: 400]
[bagging_by_query: 0]
[feature_fraction: 0.8]
[feature_fraction_bynode: 1]
[feature_fraction_seed: 30056]
[extra_trees: 0]
[extra_seed: 12879]
[early_stopping_round: 0]
[early_stopping_min_delta: 0]
[first_metric_only: 0]
[max_delta_step: 0]
[lambda_l1: 0.1]
[lambda_l2: 0.1]
[linear_lambda: 0]
[min_gain_to_split: 0]
[drop_rate: 0.1]
[max_drop: 50]
[skip_drop: 0.5]
[xgboost_dart_mode: 0]
[uniform_drop: 0]
[drop_seed: 17869]
[top_rate: 0.2]
[other_rate: 0.1]
[min_data_per_group: 100]
[max_cat_threshold: 32]
[cat_l2: 10]
[cat_smooth: 10]
[max_cat_to_onehot: 4]
[top_k: 20]
[monotone_constraints: ]
[monotone_constraints_method: basic]
[monotone_penalty: 0]
[feature_contri: ]
[forcedsplits_filename: ]
[refit_decay_rate: 0.9]
[cegb_tradeoff: 1]
[cegb_penalty_split: 0]
[cegb_penalty_feature_lazy: ]
[cegb_penalty_feature_coupled: ]
[path_smooth: 0]
[interaction_constraints: ]
[verbosity: -1]
[saved_feature_importance_type: 0]
[use_quantized_grad: 0]
[num_grad_quant_bins: 4]
[quant_train_renew_leaf: 0]
[stochastic_rounding: 1]
[linear_tree: 0]
[max_bin: 255]
[max_bin_by_feature: ]
[min_data_in_bin: 3]
[bin_construct_sample_cnt: 200000]
[data_random_seed: 175]
[is_enable_sparse: 1]
[enable_bundle: 1]
[use_missing: 1]
[zero_as_missing: 0]
[feature_pre_filter: 1]
[pre_partition: 0]
[two_round: 0]
[header: 0]
[label_column: ]
[weight_column: ]
[group_column: ]
[ignore_column: ]
[categorical_feature: ]
[forcedbins_filename: ]
[precise_float_parser: 0]
[parser_config_file: ]
[objective_seed: 16083]
[num_class: 3]
[is_unbalance: 0]
[scale_pos_weight: 1]
[sigmoid: 1]
[boost_from_average: 1]
[reg_sqrt: 0]
[alpha: 0.9]
[fair_c: 1]
[poisson_max_delta_step: 0.7]
[tweedie_variance_power: 1.5]
[lambdarank_truncation_level: 30]
[lambdarank_norm: 1]
[label_gain: ]
[lambdarank_position_bias_regularization: 0]
[eval_at: ]
[multi_error_top_k: 1]
[auc_mu_weights: ]
[num_machines: 1]
[local_listen_port: 12400]
[time_out: 120]
[machine_list_filename: ]
[machines: ]
[gpu_platform_id: -1]
[gpu_device_id: -1]
[gpu_use_dp: 0]
[num_gpu: 1]

end of parameters

pandas_categorical:[]
