tree
version=v4
num_class=3
num_tree_per_iteration=3
label_index=0
max_feature_idx=11
objective=multiclass num_class:3
feature_names=true_prob_home true_prob_draw true_prob_away log_odds_home_away log_odds_home_draw log_odds_draw_away prob_ratio_home_away prob_ratio_home_draw prob_ratio_draw_away market_efficiency uncertainty_index odds_variance
feature_infos=[0.24642753905513592:0.58267955327593257] [0.25395234767474056:0.33863913431447706] [0.16336809904932689:0.41493332663038696] [-1.2716314527997508:0.52104985754185018] [-0.83049074207082241:0.31786704879017835] [-0.44114071072892841:0.20318280875167172] [0.5938967136150235:3.5666666666666664] [0.72769953051643199:2.2944444444444447] [0.81612903225806444:1.5544794188861983] [0.90346949080471994:0.90612153571510246] [0.95876698187929488:1.0978572688955026] [0.015355555555555539:3.5574888888888894]
tree_sizes=2055 2052 1852 2131 2016 1918 2138 2007 2140 2135 1927 1920

Tree=0
num_leaves=19
num_cat=0
split_feature=2 0 11 9 2 9 0 9 9 9 0 2 9 2 5 4 8 3
split_gain=5.90706 3.83269 3.95678 4.99034 3.55132 2.0968 2.56054 1.23077 1.66867 3.662 1.82092 1.77835 1.2134 0.90575 0.708649 0.47257 0.197682 0.0139728
threshold=0.2205778305878652 0.40625349871345873 0.087444444444444491 0.90514650645626904 0.32339348797497136 0.90555620349764865 0.42364793550054403 0.90530393555910915 0.90501148243386464 0.90487288171654545 0.43781756872456401 0.26415647564539468 0.9043205990087686 0.24549962891618513 0.007198425930726505 -0.23551980085958227 1.0267963714490336 -0.01634027647786454
decision_type=2 2 2 2 2 2 2 2 2 2 2 2 2 2 2 2 2 2
left_child=-1 2 3 4 -2 6 16 8 9 10 -8 13 -6 -12 -4 -16 -3 -14
right_child=1 5 14 -5 12 -7 7 -9 -10 -11 11 -13 17 -15 15 -17 -18 -19
leaf_value=-1.0519891829248069 -1.0748238177551761 -1.0652873097780686 -1.111703301361288 -1.0596205633104672 -1.1008898144930443 -1.1195226368127491 -1.0821859158911884 -1.0776453261192835 -1.1183346577631688 -1.0600808844833955 -1.111637173219989 -1.1256496219492695 -1.1206471706571111 -1.0878354991124273 -1.1373787442245651 -1.1189988942401057 -1.0807160602373864 -1.1300334656168689
leaf_weight=6.0283537209033957 5.8829544186592129 6.5418310165405256 7.9368636012077358 6.1277269423007956 7.7064153850078609 7.5293143093585959 8.7368716001510602 7.1504136323928824 9.5932798981666547 6.1594287157058707 6.9524334669113186 9.4096240401267988 7.81661128997803 8.9313501417636854 12.156398475170139 7.4025072157382938 7.4694123864173889 7.7597625255584672
leaf_count=21 19 22 23 21 23 21 28 23 27 21 20 26 22 28 32 21 24 21
internal_value=-1.10007 -1.10212 -1.11135 -1.1004 -1.10891 -1.0948 -1.09208 -1.09692 -1.09983 -1.09525 -1.10157 -1.10851 -1.11781 -1.09857 -1.12553 -1.13081 -1.07296 -1.1258
internal_weight=147.292 141.263 62.7892 35.2935 29.1657 78.474 70.9446 56.9334 49.783 40.1897 34.0303 25.2934 23.2828 15.8838 27.4958 19.5589 14.0112 15.5764
internal_count=443 422 182 106 85 240 219 173 150 123 102 74 66 48 76 53 46 43
is_linear=0
shrinkage=1


Tree=1
num_leaves=19
num_cat=0
split_feature=10 2 9 11 9 4 3 8 2 1 6 10 8 6 6 1 4 6
split_gain=1.98963 7.03166 6.65388 4.17713 5.01603 2.40748 2.60659 1.95977 2.96845 2.60817 1.70319 0.836349 2.62331 1.59276 0.758669 0.564281 0.473688 0.25809
threshold=1.0913536289661707 0.31028864568492165 0.90409325161219456 0.37967777777777784 0.90545675131880332 -0.2047297546706324 -0.037621130924577147 1.0905351497817255 0.24114143728306939 0.28443183782193243 1.6561181434599159 1.0825241566398487 1.0198020198140236 1.3641669141669144 1.5264227642276424 0.27488293761325294 -0.036984272136283698 1.1017241379310347
decision_type=2 2 2 2 2 2 2 2 2 2 2 2 2 2 2 2 2 2
left_child=3 -2 -3 11 7 -4 17 10 15 -10 -5 14 13 -13 -1 -9 -8 -7
right_child=1 2 5 4 -6 6 16 8 9 -11 -12 12 -14 -15 -16 -17 -18 -19
leaf_value=-1.1344643794983782 -1.0352373651958768 -1.0430897236229033 -1.0787082517658488 -1.0951062154018998 -1.04983711238847 -1.1299396804112294 -1.0846764088119289 -1.0983809348358675 -1.1436409135640242 -1.1022555218981076 -1.063764310498605 -1.1044722235780176 -1.0819903841265273 -1.1350429626684064 -1.1106003669965165 -1.0795638670426422 -1.1025379451460753 -1.1132661862797584
leaf_weight=6.6275238394737235 5.554679036140441 5.3806063234806052 8.3167334496974892 11.231156319379808 6.4204448759555808 8.7079690992832166 7.0919700562953949 6.7546767592430141 6.3437230288982418 10.269257634878157 6.7721015810966483 12.360555022954946 7.7700679302215567 7.0109687745571128 9.175926595926283 8.4264615476131421 7.4226906597614342 6.0556427836418143
leaf_count=22 14 15 23 33 19 27 21 22 21 31 20 35 22 23 29 25 21 20
internal_value=-1.0959 -1.08766 -1.09467 -1.09999 -1.0911 -1.10204 -1.10887 -1.0964 -1.10394 -1.11855 -1.08337 -1.11174 -1.10603 -1.11594 -1.12111 -1.08823 -1.09414 -1.12361
internal_weight=147.693 48.5303 42.9756 99.1629 56.2178 37.595 29.2783 49.7974 31.7941 16.613 18.0033 42.945 27.1416 19.3715 15.8035 15.1811 14.5147 14.7636
internal_count=443 141 127 302 171 112 89 152 99 52 53 131 80 58 51 47 42 47
is_linear=0
shrinkage=1


Tree=2
num_leaves=17
num_cat=0
split_feature=0 0 9 1 9 9 9 8 0 9 1 5 8 8 9 9
split_gain=5.95667 6.28919 3.58059 3.41132 4.10395 6.01654 3.20161 3.15484 3.58133 1.67913 1.65586 2.49152 1.27459 1.25545 0.60116 0.406698
threshold=0.44030350078426322 0.31303927639691459 0.9054732020146391 0.30196798065967684 0.90432037705154811 0.90497764453389551 0.90542417616039372 1.0905351497817255 0.48621404285654057 0.90453945259589075 0.29080634502539132 -0.0084986517726137103 1.0392707644855699 1.1180445092494407 0.90430457093475136 0.90462347803890253
decision_type=2 2 2 2 2 2 2 2 2 2 2 2 2 2 2 2
left_child=1 -1 3 10 -5 9 7 -2 13 -6 -3 12 14 -9 -12 -14
right_child=6 2 -4 4 5 -7 -8 8 -10 -11 11 -13 15 -15 -16 -17
leaf_value=-1.0429088129373159 -1.1359208720004772 -1.0656512612495828 -1.0700490412705586 -1.1377760818475877 -1.1026806749569125 -1.1324970655038598 -1.1485246156215903 -1.1043045376601677 -1.1241584204744184 -1.0746652923797537 -1.1007944121322528 -1.0721337775170259 -1.1001652687465751 -1.0789234256628826 -1.1234890646701434 -1.0828668055090394
leaf_weight=5.7897085249423972 8.6773934960365278 6.0159315466880789 11.369808435440062 9.9941805303096753 8.5787678062915855 10.228174626827238 6.0785807967185965 7.6336306035518708 11.333065718412398 12.83202227950096 5.9200419783592206 9.4682605564594287 7.9418649077415449 11.992833048105238 6.7375818490982056 6.7275234460830688
leaf_count=16 27 16 33 29 24 32 19 24 36 37 19 27 26 36 22 20
internal_value=-1.0999 -1.09312 -1.09627 -1.09989 -1.11 -1.10098 -1.11483 -1.10943 -1.10176 -1.08608 -1.08993 -1.09412 -1.10163 -1.08902 -1.11335 -1.09183
internal_weight=147.319 101.604 95.8142 84.4443 41.6331 31.639 45.7155 39.6369 30.9595 21.4108 42.8112 36.7953 27.327 19.6265 12.6576 14.6694
internal_count=443 301 285 252 122 93 142 123 96 61 130 114 87 60 41 46
is_linear=0
shrinkage=1


Tree=3
num_leaves=19
num_cat=0
split_feature=4 0 10 9 2 9 0 9 9 9 0 1 10 0 10 10 8 1
split_gain=5.72202 3.51448 3.90061 4.47525 3.24022 1.89708 2.2668 1.51072 1.47313 3.4198 1.77201 1.79209 1.2245 1.02958 0.946012 0.498262 0.163152 0.0577346
threshold=-0.62294585326030916 0.40625349871345873 1.0938790366221693 0.90514650645626904 0.32339348797497136 0.90555620349764865 0.42364793550054403 0.90530393555910915 0.90501148243386464 0.90487288171654545 0.43781756872456401 0.28851521330373647 1.096686268292248 0.47187783230866226 1.0894809757948953 1.0972994471786892 1.0267963714490336 0.30255556976409986
decision_type=2 2 2 2 2 2 2 2 2 2 2 2 2 2 2 2 2 2
left_child=-1 2 14 4 -4 6 16 8 9 10 -8 13 -6 -12 -2 -14 -3 -16
right_child=1 5 3 -5 12 -7 7 -9 -10 -11 11 -13 15 -15 17 -17 -18 -19
leaf_value=0.050052023458171752 -0.0087659738752343345 0.032953642205539806 0.024750687004968144 0.03856368645057761 -0.03305721820398163 -0.018169895521711062 0.01747903494486109 0.024328814514512413 -0.017226325586178461 0.038229672343056444 0.011791701827960693 -0.026751510639017269 0.0011600467345117965 -0.012884877190970007 -0.024113901494764962 -0.015750727902595667 0.01868427453026681 -0.034949985311105138
leaf_weight=5.5021319091320029 7.5336703509092358 6.6546131074428541 5.9293978512287167 6.2318107783794394 7.4013476520776775 7.4526645690202704 8.8033311963081342 7.4715016782283774 9.5271608680486661 6.2589973807334891 9.6415298879146629 8.6519772857427579 7.286951512098315 7.3173792958259574 7.7994786649942425 9.0931218266487104 7.5419857800006866 11.181230589747427
leaf_count=19 22 22 19 21 20 21 28 24 27 21 30 24 22 21 22 26 24 30
internal_value=0.000463582 -0.00145953 -0.0103502 0.000255444 -0.00771435 0.00548218 0.00802618 0.00350097 0.000259481 0.00451013 -0.00157065 -0.00835566 -0.0160879 0.000838107 -0.0248618 -0.0079629 0.0259064 -0.030909
internal_weight=147.28 141.778 62.457 35.9426 29.7108 79.3211 71.8685 57.6719 50.2004 40.6732 34.4142 25.6109 23.7814 16.9589 26.5144 16.3801 14.1966 18.9807
internal_count=443 424 182 108 87 242 221 175 151 124 103 75 68 51 74 48 46 52
is_linear=0
shrinkage=0.05


Tree=4
num_leaves=18
num_cat=0
split_feature=10 9 0 11 9 0 5 3 0 8 10 5 0 5 10 0 6
split_gain=1.78739 5.55786 7.25604 3.83764 4.49327 2.44976 1.77988 2.74819 1.48046 0.983969 0.787889 2.66296 1.11165 0.723368 0.497144 0.431465 0.246484
threshold=1.0913536289661707 0.90409325161219456 0.37507966981872864 0.37967777777777784 0.90545675131880332 0.35014916479375019 -0.086668532376197968 -0.68514449913442788 0.44312198415889859 1.1180445092494407 1.0825241566398487 -0.020991636604427807 0.40447121384404 -0.047657919264721238 1.0345762335802955 0.32956788392946068 1.1017241379310347
decision_type=2 2 2 2 2 2 2 2 2 2 2 2 2 2 2 2 2
left_child=3 -2 5 10 6 15 7 14 -8 -9 13 -12 -13 -1 -5 -3 -7
right_child=1 2 -4 4 -6 16 8 9 -10 -11 11 12 -14 -15 -16 -17 -18
leaf_value=-0.014852783001521659 0.052019565162946348 -0.0071851835186381441 0.030668552990871557 -0.0029334430655817588 0.042491637601116627 -0.034027094207343796 0 -0.0084392827709870461 0.029218457287069257 -0.034147777585159265 0.017296855326856306 -0.0090013047398716083 -0.03347573072308347 -0.038324235656779074 0.014677591305888062 0.0098525082822364368 -0.0176148031948344
leaf_weight=9.1053016632795316 5.9209901988506308 7.4019816964864749 13.634769290685652 6.7303614914417293 6.5430527329444876 8.596631705760954 11.2137548327446 7.6309369206428554 6.8811808824539176 8.7995408177375776 6.3490386307239559 12.310201376676561 8.3259710520505887 6.5092968642711631 8.4892749488353711 7.1290050745010376 6.0141998231410971
leaf_count=29 16 21 36 22 19 27 33 24 20 28 18 35 27 22 25 21 20
internal_value=-0.000759848 0.00703178 0.000581312 -0.00465059 0.00384644 -0.0133815 -0.00121137 -0.00844437 0.0111421 -0.0226335 -0.0159777 -0.0104199 -0.0192308 -0.0251372 0.00659503 0.000842097 -0.0277769
internal_weight=147.585 48.6976 42.7766 98.8879 56.2881 29.1418 49.745 31.6501 18.0949 16.4305 42.5998 26.9852 20.6362 15.6146 15.2196 14.531 14.6108
internal_count=443 141 125 302 171 89 152 99 53 52 131 80 62 51 47 42 47
is_linear=0
shrinkage=0.05


Tree=5
num_leaves=17
num_cat=0
split_feature=6 0 9 1 9 5 0 9 9 1 1 9 9 1 9 9
split_gain=7.19422 3.90434 3.25079 3.17673 2.9971 2.9508 3.26108 2.05826 1.79705 2.80625 3.52047 2.17249 1.6845 1.35151 1.2168 0.670474
threshold=0.85695374828977078 0.44030350078426322 0.9054732020146391 0.29064579861808215 0.90542417616039372 -0.086668532376197968 0.48621404285654057 0.90514650645626904 0.90442036105857826 0.30196798065967684 0.30985457044954212 0.90469312282284786 0.90504257801323118 0.30255556976409986 0.90453539234739011 0.90409325161219456
decision_type=2 2 2 2 2 2 2 2 2 2 2 2 2 2 2 2
left_child=-1 2 3 -2 5 6 14 8 9 15 -11 -10 13 -13 -3 -5
right_child=1 4 -4 7 -6 -7 -8 -9 11 10 -12 12 -14 -15 -16 -17
leaf_value=0.053837887607961592 0.041967091581806684 -0.0044670391569913001 0.028501982716754512 0.016961366462788171 -0.047137005148865305 -0.034743673759443823 -0.023067258071016245 -0.026311547129063608 0.025347430143191491 -0.047957013943090265 -1.0730601348716185e-05 -0.018806835891182622 0.020943382508467306 0.0059987133512490265 0.020469349688355315 -0.0029133047295263116
leaf_weight=5.9173453152179709 4.2351779341697684 7.6607348620891633 11.512350410223005 7.5847979187965455 5.9226929396390906 8.5355762243270856 11.192591041326521 7.7441923618316642 12.041910663247107 7.4466836154460898 8.1972181349992734 11.334609597921377 7.1484634280204764 10.078249394893644 12.070487022399901 8.6683356910943967
leaf_count=16 11 24 33 24 19 27 36 25 36 21 24 35 19 30 36 27
internal_value=0.000263894 -0.00197962 0.00369326 0.000223665 -0.0140706 -0.00887441 -0.00148385 -0.00196675 0.000597457 -0.00819468 -0.023311 0.00763038 0 -0.00692574 0.0105619 0.0061028
internal_weight=147.291 141.374 95.992 84.4796 45.3821 39.4594 30.9238 80.2445 72.5003 31.897 15.6439 40.6032 28.5613 21.4129 19.7312 16.2531
internal_count=443 427 285 252 142 123 96 241 216 96 45 120 84 65 60 51
is_linear=0
shrinkage=0.05


Tree=6
num_leaves=19
num_cat=0
split_feature=1 1 10 9 10 9 2 9 9 9 1 1 9 3 10 10 8 1
split_gain=5.16911 3.21655 3.66592 4.05978 2.19281 1.73474 2.05409 1.39107 1.36635 3.08706 1.64385 1.64399 1.23565 0.951613 0.890467 0.172963 0.136208 0.047203
threshold=0.27271288064886762 0.29834151063223008 1.0938790366221693 0.90514650645626904 1.0956238134173022 0.90555620349764865 0.28205321854949844 0.90530393555910915 0.90501148243386464 0.90487288171654545 0.29080634502539132 0.28851521330373647 0.9043205990087686 -0.65527622253293105 1.0894809757948953 1.0972130931819628 1.0267963714490336 0.30255556976409986
decision_type=2 2 2 2 2 2 2 2 2 2 2 2 2 2 2 2 2 2
left_child=-1 5 14 4 -4 6 7 8 9 10 11 13 -6 -2 -3 -14 -8 -16
right_child=1 2 3 -5 12 -7 16 -9 -10 -11 -12 -13 15 -15 17 -17 -18 -19
leaf_value=0.047144073987850754 -0.012605438453353407 -0.0084673947533499879 0.015933682456276937 0.03649729221069134 0.00094201046972078838 -0.017500107042936249 0.031104498548442168 0.023204315612276819 -0.016714894121029202 0.036037628420225586 0.016722322767112146 -0.025886814931841376 -0.02939307741536662 0.011117551739499732 -0.023474511502057524 -0.015583005595674283 0.017784109216386883 -0.033970809642542087
leaf_weight=5.6033075749874106 7.2924760729074434 7.5070692896842983 7.3112147599458721 6.3199978768825522 7.3171806186437633 7.3859436959028235 6.7419504523277265 7.5372270941734305 9.4641707837581617 6.3537724316120139 8.8588170409202558 8.5391013324260694 8.0119671821594221 9.6990202963352292 7.7257816344499615 6.9348700791597357 7.5971044600009918 10.987424477934836
leaf_count=19 21 22 23 21 22 21 22 24 27 21 28 24 22 30 22 20 24 30
internal_value=0.000448063 -0.00139664 -0.00994028 0.000314693 -0.00734569 0.00522256 0.00764109 0.00331682 0.000191695 0.00427263 -0.00153876 -0.00811074 -0.015251 0.000629302 -0.024117 -0.0234641 0.0245654 -0.030051
internal_weight=147.188 141.585 62.1155 35.8952 29.5752 79.4696 72.0836 57.7446 50.2074 40.7432 34.3894 25.5306 22.264 16.9915 26.2203 14.9468 14.3391 18.7132
internal_count=443 424 182 108 87 242 221 175 151 124 103 75 64 51 74 42 46 52
is_linear=0
shrinkage=0.05


Tree=7
num_leaves=18
num_cat=0
split_feature=11 2 9 11 9 6 5 2 6 8 9 9 6 7 9 1 9
split_gain=1.61538 5.71075 4.68013 3.5481 4.03629 3.37958 1.627 2.53196 1.28776 0.937547 0.923473 1.52415 0.782763 1.58888 0.926893 0.432418 0.426888
threshold=0.12877777777777782 0.31028864568492165 0.90449541193563843 0.37967777777777784 0.90545675131880332 1.1070874597303428 -0.086668532376197968 0.24114143728306939 1.6561181434599159 1.1180445092494407 0.9052148546679285 0.90480057652723533 1.3200757575757578 1.3571428571428572 0.90419484459722721 0.27488293761325294 0.9049569451873466
decision_type=2 2 2 2 2 2 2 2 2 2 2 2 2 2 2 2 2
left_child=1 -1 5 12 6 -3 7 15 -8 -9 11 -4 -2 -14 -15 -5 -16
right_child=3 2 10 4 -6 -7 8 9 -10 -11 -12 -13 13 14 16 -17 -18
leaf_value=0.052813516894946101 -0.031009178300747425 0.00023345647194146233 -0.02438764148805872 -0.0026004911734561135 0.040009343289163973 0.045109113911719234 0 -0.0079563604880148117 0.027340326942372241 -0.033191225888350571 -0.02946541115582374 0.0039964689022063179 0.010503906542448725 -0.032044517601695244 -0.0036484226034514317 0.01376970833777082 -0.018506293223482986
leaf_weight=5.7964780628681174 7.0362056642770758 9.7200544774532336 7.6716464310884538 6.7059319615364101 6.6491957604885092 7.5995643436908713 11.190340206027033 7.5894208848476437 6.9746185541152945 8.6527187526226026 6.5756948441267005 11.448318943381308 6.1077959686517707 7.7618334144353893 11.002020984888079 8.5540061295032483 10.366641744971274
leaf_count=14 20 28 22 22 19 21 33 24 20 28 22 34 18 26 34 25 33
internal_value=-0.000725939 0.00666394 0.000221067 -0.00443834 0.00370799 0.0203571 -0.00112202 -0.00807633 0.0106427 -0.0218266 -0.0131837 -0.00719979 -0.0153917 -0.0120528 -0.0169731 0.00628026 -0.011142
internal_weight=147.402 48.8118 43.0153 98.5907 56.3162 17.3196 49.667 31.5021 18.165 16.2421 25.6957 19.12 42.2745 35.2383 29.1305 15.2599 21.3687
internal_count=443 141 127 302 171 49 152 99 53 52 78 56 131 111 93 47 67
is_linear=0
shrinkage=0.05


Tree=8
num_leaves=19
num_cat=0
split_feature=0 9 0 1 0 9 9 9 5 3 9 2 5 9 9 9 1 9
split_gain=6.48037 4.08208 4.01137 2.46353 5.99892 3.03545 2.24604 3.68042 2.20489 2.32555 1.76573 1.66992 1.54049 1.44061 0.550867 0.593098 0.870026 0.0630294
threshold=0.31303927639691459 0.90373663538622728 0.44030350078426322 0.30241945824469241 0.39874503690459001 0.90432037705154811 0.90497764453389551 0.90533140376490173 -0.086668532376197968 -0.72616036563265129 0.9049064651083677 0.27217447929388611 -0.056772103954348903 0.90453945259589075 0.90414802829223551 0.90513618950090469 0.2933685870470007 0.90475128818139916
decision_type=2 2 2 2 2 2 2 2 2 2 2 2 2 2 2 2 2 2
left_child=-1 -2 3 4 -3 -5 13 -8 9 17 -11 -6 -13 -7 -14 16 -16 -4
right_child=1 2 8 5 11 6 7 -9 -10 10 -12 12 14 -15 15 -17 -18 -19
leaf_value=0.050583155556135885 -0.047316375986696489 0.059018484934928561 -0.029630529698960129 -0.032059838961950138 0.028576553144890795 -0.0025668752481989329 -0.039323074142900219 0.013356709437200199 -0.034755551026531141 0.014446115799374283 -0.013461971559536974 -0.020801974253598404 0.019656382660405813 0.023260756315228667 0.012996593282901252 0.015506942960101053 -0.0098332911160730948 -0.017446686032562986
leaf_weight=6.0346986353397361 4.6827706843614569 6.1504762172698966 6.369297623634333 7.4351158291101447 7.0811837613582602 8.5808192193508166 6.6188998371362668 6.2832187414169312 9.0218698680400831 13.180781036615377 9.6922595798969251 5.9829420298337892 6.4556470215320649 13.05955585837364 6.2776632308960023 6.7877387404441825 11.709318935871122 5.7767757177352905
leaf_count=16 15 17 21 23 19 24 21 19 29 39 30 18 20 37 20 19 37 19
internal_value=0.000244998 -0.00190609 -0.000277714 0.00560184 0.0130577 -0.00324888 0.00288287 -0.0133785 -0.0127143 -0.00681072 0.00239553 0.00644467 0.00203397 0.0128249 0.00662078 0.00295767 -0.00156115 -0.0244339
internal_weight=147.181 141.146 136.464 92.4226 50.445 41.9776 34.5425 12.9021 44.041 35.0191 22.873 44.2945 37.2133 21.6404 31.2304 24.7747 17.987 12.1461
internal_count=443 427 412 274 150 124 101 40 138 109 69 133 114 61 96 76 57 40
is_linear=0
shrinkage=0.05


Tree=9
num_leaves=19
num_cat=0
split_feature=1 0 10 9 10 9 0 9 9 9 0 1 9 3 10 10 8 1
split_gain=4.67023 2.91072 3.36102 3.67209 2.11815 1.60366 1.85221 1.29934 1.29594 2.82075 1.51779 1.52591 1.14118 0.888891 0.843306 0.160987 0.126815 0.0461222
threshold=0.27271288064886762 0.40625349871345873 1.0938790366221693 0.90514650645626904 1.0956238134173022 0.90555620349764865 0.42364793550054403 0.90530393555910915 0.90501148243386464 0.90487288171654545 0.43781756872456401 0.28851521330373647 0.9043205990087686 -0.65527622253293105 1.0894809757948953 1.0972130931819628 1.0267963714490336 0.30255556976409986
decision_type=2 2 2 2 2 2 2 2 2 2 2 2 2 2 2 2 2 2
left_child=-1 2 14 4 -4 6 16 8 9 10 -8 13 -6 -12 -2 -14 -3 -16
right_child=1 5 3 -5 12 -7 7 -9 -10 -11 11 -13 15 -15 17 -17 -18 -19
leaf_value=0.044459993519578835 -0.0079468135801592388 0.029509543445230692 0.015774962507686053 0.034411988210082949 0.0005919770374636699 -0.016988198080274793 0.015946863478804727 0.022273723577685631 -0.016407638610378413 0.034225010713991089 -0.012327325366776366 -0.02513093400855116 -0.028641063512719018 0.01060559953111972 -0.022559585079419575 -0.015153261236597779 0.016704137125871862 -0.0329469412544579
leaf_weight=5.693010985851287 7.4607039988040951 6.8156418204307538 7.3195810317993191 6.4062906205654135 7.3427159339189556 7.334400236606597 8.9148298501968366 7.5904473066329947 9.4250596165657026 6.429951846599578 7.2669355124235109 8.4368782639503461 7.9136298894882184 9.7420015633106321 7.6168364435434368 6.8958548754453659 7.6629472076892853 10.773220494389532
leaf_count=19 22 22 23 21 22 21 28 24 27 21 21 24 22 30 22 20 24 30
internal_value=0.000432902 -0.00133519 -0.0095036 0.000272806 -0.00707023 0.00493905 0.00725338 0.00313064 9.91379e-05 0.00406626 -0.00151523 -0.0078672 -0.0148805 0.000500657 -0.0232136 -0.0228397 0.0232362 -0.0290604
internal_weight=147.041 141.348 61.7288 35.8781 29.4718 79.6191 72.2847 57.8061 50.2157 40.7906 34.3606 25.4458 22.1522 17.0089 25.8508 14.8095 14.4786 18.3901
internal_count=443 424 182 108 87 242 221 175 151 124 103 75 64 51 74 42 46 52
is_linear=0
shrinkage=0.05


Tree=10
num_leaves=17
num_cat=0
split_feature=6 1 5 0 10 0 2 2 0 0 5 0 0 0 5 5
split_gain=1.47086 2.57729 4.15768 2.92695 1.37172 2.18679 1.25478 2.63266 2.18402 0.755604 2.47056 1.10628 0.643896 0.470111 0.970613 0.227519
threshold=0.85695374828977078 0.30241945824469241 0.023427183126851783 0.43385778515658552 1.0965195608633407 0.35014916479375019 0.25477284123144645 0.24114143728306939 0.50599920787075947 0.41923768801015621 -0.020991636604427807 0.40447121384404 0.42693477301961896 0.44312198415889859 -0.086668532376197968 0.043256983730128901
decision_type=2 2 2 2 2 2 2 2 2 2 2 2 2 2 2 2
left_child=-1 3 -3 9 15 -6 7 8 -5 10 -2 -12 -11 -8 -15 -4
right_child=1 2 4 6 5 -7 13 -9 -10 12 11 -13 -14 14 -16 -17
leaf_value=-0.025495801891782022 0.017810074780858397 0.046218738643397345 0.0085118833212986366 0.019682696121308504 0.0098012580323330895 -0.022423830359563354 0.002047136343567086 -0.026582232690528174 -0.017247136157180876 -0.036461560377874833 -0.0072030016278895855 -0.031913740248275473 -0.01376858190869581 0.0046816312159824848 0.02914224376050863 0.021778133600703596
leaf_weight=5.6469159424304953 6.3200782537460318 6.7308508455753318 10.301841050386431 11.251970082521444 11.242181941866876 9.5689652562141401 11.788142070174219 8.9651022255420667 5.9762202948331824 6.0902457237243643 11.856849119067197 8.1005887985229474 8.9815990924835187 10.078052997589113 7.4994902312755576 6.7684315443038932
leaf_count=16 18 16 30 32 33 30 35 29 21 21 34 27 29 31 21 20
internal_value=-0.000688916 0.00028292 0.0102474 -0.0042586 0.00361949 -0.00481311 0.00316431 -0.00465254 0.0065581 -0.0143366 -0.00885203 -0.0175913 -0.0234478 0.0102985 0.0155065 0.0141594
internal_weight=147.168 141.521 44.6123 96.9083 37.8814 20.8111 55.559 26.1933 17.2282 41.3494 26.2775 19.9574 15.0718 29.3657 17.5775 17.0703
internal_count=443 427 129 298 113 63 169 82 53 129 79 61 50 87 52 50
is_linear=0
shrinkage=0.05


Tree=11
num_leaves=17
num_cat=0
split_feature=6 9 1 9 9 5 1 4 9 1 6 3 5 9 9 9
split_gain=5.87173 3.89162 3.66155 2.28225 2.65797 2.07798 2.14135 2.00703 2.90251 2.42381 1.95586 2.2089 1.67853 1.61628 0.771848 0.0683319
threshold=0.85695374828977078 0.90373663538622728 0.28998757526673763 0.9054732020146391 0.90514650645626904 -0.086668532376197968 0.27842656079568823 -0.27014089220675158 0.90432037705154811 0.30874353051610681 1.3752506659483406 -0.39133973687704998 -0.1115806126239046 0.90460899093364011 0.90476517399935585 0.90475128818139916
decision_type=2 2 2 2 2 2 2 2 2 2 2 2 2 2 2 2
left_child=-1 -2 5 4 7 6 15 10 -9 -10 -4 14 -8 -11 -12 -3
right_child=1 2 3 -5 -6 -7 12 8 9 13 11 -13 -14 -15 -16 -17
leaf_value=0.047746023244217416 -0.0465659978332158 -0.028799375543541852 0.038845436499631396 0.025884943676385198 -0.025499014225906225 -0.033831114118926711 0.014012452740693708 -0.031100379064121737 -0.011135650140061133 0.034697195145619773 0.0089487980078848135 -0.0090704449973429881 -0.013204724775529503 0.0010339799099474364 0.029869368360740681 -0.016526767833543139
leaf_weight=6.1323694288730612 4.6032280623912802 6.2794951796531659 6.2482093870639721 11.730567932128904 7.6410936564207068 8.857608959078787 13.21916615962982 7.3031211197376313 13.417501270771028 7.26429435610771 11.471718668937681 11.566442310810094 9.661791920661928 7.5428572297096252 8.3778583407402021 5.6981455683708191
leaf_count=16 15 21 17 33 25 29 39 23 39 20 35 38 30 21 23 19
internal_value=0.000222664 -0.00184287 -0.000262524 0.00533176 0.00225899 -0.012207 -0.00648818 0.00525593 -0.00315325 0.00398581 0.0133078 0.00796298 0.00229461 0.0180063 0.0181348 -0.0235601
internal_weight=147.015 140.883 136.28 92.5637 80.8331 43.7162 34.8586 73.192 35.5278 28.2247 37.6642 31.416 22.881 14.8072 19.8496 11.9776
internal_count=443 427 412 274 241 138 109 216 103 80 113 96 69 41 58 40
is_linear=0
shrinkage=0.05


end of trees

feature_importances:
market_efficiency=64
true_prob_home=30
true_prob_draw=25
uncertainty_index=18
log_odds_draw_away=15
true_prob_away=13
prob_ratio_home_away=12
prob_ratio_draw_away=11
log_odds_home_away=7
log_odds_home_draw=5
odds_variance=5
prob_ratio_home_draw=1

parameters:
[boosting: gbdt]
[objective: multiclass]
[metric: multi_logloss]
[tree_learner: serial]
[device_type: cpu]
[data_sample_strategy: bagging]
[data: ]
[valid: ]
[num_iterations: 1000]
[learning_rate: 0.05]
[num_leaves: 50]
[num_threads: 0]
[seed: 42]
[deterministic: 0]
[force_col_wise: 0]
[force_row_wise: 0]
[histogram_pool_size: -1]
[max_depth: -1]
[min_data_in_leaf: 20]
[min_sum_hessian_in_leaf: 0.001]
[bagging_fraction: 0.8]
[pos_bagging_fraction: 1]
[neg_bagging_fraction: 1]
[bagging_freq: 5]
[bagging_seed: 400]
[bagging_by_query: 0]
[feature_fraction: 0.8]
[feature_fraction_bynode: 1]
[feature_fraction_seed: 30056]
[extra_trees: 0]
[extra_seed: 12879]
[early_stopping_round: 0]
[early_stopping_min_delta: 0]
[first_metric_only: 0]
[max_delta_step: 0]
[lambda_l1: 0.1]
[lambda_l2: 0.1]
[linear_lambda: 0]
[min_gain_to_split: 0]
[drop_rate: 0.1]
[max_drop: 50]
[skip_drop: 0.5]
[xgboost_dart_mode: 0]
[uniform_drop: 0]
[drop_seed: 17869]
[top_rate: 0.2]
[other_rate: 0.1]
[min_data_per_group: 100]
[max_cat_threshold: 32]
[cat_l2: 10]
[cat_smooth: 10]
[max_cat_to_onehot: 4]
[top_k: 20]
[monotone_constraints: ]
[monotone_constraints_method: basic]
[monotone_penalty: 0]
[feature_contri: ]
[forcedsplits_filename: ]
[refit_decay_rate: 0.9]
[cegb_tradeoff: 1]
[cegb_penalty_split: 0]
[cegb_penalty_feature_lazy: ]
[cegb_penalty_feature_coupled: ]
[path_smooth: 0]
[interaction_constraints: ]
[verbosity: -1]
[saved_feature_importance_type: 0]
[use_quantized_grad: 0]
[num_grad_quant_bins: 4]
[quant_train_renew_leaf: 0]
[stochastic_rounding: 1]
[linear_tree: 0]
[max_bin: 255]
[max_bin_by_feature: ]
[min_data_in_bin: 3]
[bin_construct_sample_cnt: 200000]
[data_random_seed: 175]
[is_enable_sparse: 1]
[enable_bundle: 1]
[use_missing: 1]
[zero_as_missing: 0]
[feature_pre_filter: 1]
[pre_partition: 0]
[two_round: 0]
[header: 0]
[label_column: ]
[weight_column: ]
[group_column: ]
[ignore_column: ]
[categorical_feature: ]
[forcedbins_filename: ]
[precise_float_parser: 0]
[parser_config_file: ]
[objective_seed: 16083]
[num_class: 3]
[is_unbalance: 0]
[scale_pos_weight: 1]
[sigmoid: 1]
[boost_from_average: 1]
[reg_sqrt: 0]
[alpha: 0.9]
[fair_c: 1]
[poisson_max_delta_step: 0.7]
[tweedie_variance_power: 1.5]
[lambdarank_truncation_level: 30]
[lambdarank_norm: 1]
[label_gain: ]
[lambdarank_position_bias_regularization: 0]
[eval_at: ]
[multi_error_top_k: 1]
[auc_mu_weights: ]
[num_machines: 1]
[local_listen_port: 12400]
[time_out: 120]
[machine_list_filename: ]
[machines: ]
[gpu_platform_id: -1]
[gpu_device_id: -1]
[gpu_use_dp: 0]
[num_gpu: 1]

end of parameters

pandas_categorical:[]
