tree
version=v4
num_class=3
num_tree_per_iteration=3
label_index=0
max_feature_idx=11
objective=multiclass num_class:3
feature_names=true_prob_home true_prob_draw true_prob_away log_odds_home_away log_odds_home_draw log_odds_draw_away prob_ratio_home_away prob_ratio_home_draw prob_ratio_draw_away market_efficiency uncertainty_index odds_variance
feature_infos=[0.22086767090986351:0.62088428974600196] [0.24459078080903104:0.34469839787900008] [0.13452492944496708:0.43443393121113644] [-1.5293952047605639:0.67648012807473357] [-0.93155820400494349:0.44510607762400833] [-0.59783700075562041:0.23137405045072515] [0.5084033613445379:4.6153846153846159] [0.64075630252100846:2.5384615384615388] [0.79344262295081969:1.8181818181818181] [0.90346949080471994:0.90619145412276647] [0.91020287382199028:1.0978572688955026] [0.015355555555555539:6.2680222222222213]
tree_sizes=2873 3060 2861 3069 3190 3054 3087 3182 2846 3095 3194 3160 3090 3089 2956 3196 2967 3054

Tree=0
num_leaves=27
num_cat=0
split_feature=0 9 2 0 5 0 5 9 0 9 9 0 9 8 9 9 0 3 9 5 9 0 2 9 2 2
split_gain=10.4491 2.79165 2.5659 5.10444 2.48127 4.50358 2.73395 3.09899 1.72756 1.98201 1.32497 1.19375 1.15173 0.979453 0.80439 1.56435 0.614518 1.39705 0.593019 0.490048 0.44892 0.372823 0.365945 0.235638 0.196154 0.132602
threshold=0.38956338671502061 0.90383518516886341 0.35719034800064026 0.33601812788483848 -0.069453931247201631 0.45868624516805007 -0.019608509857982674 0.9048731617302278 0.50026602165564737 0.90528883354953715 0.9043009101259476 0.40160180172231114 0.90419856947027399 1.0905351497817255 0.90522853304633066 0.90495068657798261 0.4709090701052816 -0.73971943300585907 0.90482451849219581 -0.15090322552638777 0.90451912000642809 0.42661615254570817 0.29458866713577841 0.90463590610185551 0.30392709487555741 0.32904351189702846
decision_type=2 2 2 2 2 2 2 2 2 2 2 2 2 2 2 2 2 2 2 2 2 2 2 2 2 2
left_child=2 -2 3 -1 5 13 7 10 9 16 -6 24 -5 -3 15 18 -7 -18 20 -19 25 -9 -13 -4 -8 -14
right_child=1 4 23 12 6 8 11 21 -10 -11 -12 22 14 -15 -16 -17 17 19 -20 -21 -22 -23 -24 -25 -26 -27
leaf_value=-1.0665677630001185 -1.0584956175190463 -1.0778068078379395 -1.1382215258103536 -1.0947682917724826 -1.1104838293163732 -1.1146705080420383 -1.102381679229204 -1.1158560797741297 -1.0779503670892532 -1.0802552156527661 -1.0849235498847956 -1.088633572364295 -1.1058795848025016 -1.0554732934322464 -1.1038590770631926 -1.1386852778682861 -1.11756376925386 -1.0820142320719623 -1.1014026696559494 -1.0998647017705347 -1.1283005253708369 -1.1340148022622951 -1.07204762974873 -1.122973878137012 -1.091589306474086 -1.1169551057560596
leaf_weight=6.3200829327106467 6.1625085175037375 13.715566009283068 8.1041636466979998 6.8875498473644248 9.0431402027606982 11.279415071010588 11.509897917509081 7.0968818664550772 12.146291792392729 10.35760787129402 11.124142259359358 8.0547076463699359 7.1775663793087068 9.5948680937290174 11.893165111541746 8.4874308407306653 7.4927152097225145 7.2441917359828896 8.0813329517841321 7.0514073371887314 7.8015809655189505 8.3172902762889844 8.2537751197814924 9.0948978066444379 6.4979995787143698 8.5352069735527021
leaf_count=21 21 44 21 21 26 32 34 20 39 33 35 25 21 33 35 22 21 23 24 21 21 22 27 25 20 24
internal_value=-1.09897 -1.09134 -1.11337 -1.10869 -1.09276 -1.08669 -1.09956 -1.10932 -1.09455 -1.09911 -1.09663 -1.08958 -1.11335 -1.06826 -1.11591 -1.11934 -1.10521 -1.10003 -1.11387 -1.09111 -1.11792 -1.12614 -1.07982 -1.13064 -1.09861 -1.11229
internal_weight=237.325 154.942 82.383 65.1839 148.78 78.8821 69.8978 35.5815 55.5716 43.4253 20.1673 34.3164 58.8638 23.3104 51.9763 40.0831 33.0677 21.7883 31.5957 14.2956 23.5144 15.4142 16.3085 17.1991 18.0079 15.7128
internal_count=711 476 235 189 455 246 209 103 169 130 61 106 168 77 147 112 97 65 90 44 66 42 52 46 54 45
is_linear=0
shrinkage=1


Tree=1
num_leaves=29
num_cat=0
split_feature=9 9 9 7 6 7 11 7 9 9 9 9 6 1 9 1 1 8 9 9 9 9 9 8 6 3 1 9
split_gain=4.12426 4.8235 4.20474 3.39086 2.75646 2.71624 2.61978 2.52534 2.20577 1.62743 2.86443 2.83123 1.75539 2.62368 2.58736 1.52963 2.35752 2.0083 0.814465 0.962518 0.734685 0.704474 0.520337 0.428153 1.31441 0.715785 0.362006 0.156986
threshold=0.90410157886455422 0.90441386166542237 0.90485001601236981 1.0015290519877678 1.0148297724509299 1.0932926175934858 0.11061111111111106 1.1516217408465095 0.90488620607808035 0.90507413480178378 0.90516557712025147 0.9049569451873466 1.2303548033475042 0.28715872374934809 0.90542417616039372 0.28149637559996815 0.28841890017927491 1.0556329309811205 0.90454150642199593 0.90478096886211701 0.90436061143211754 0.9050042300544342 0.90551946622004309 1.0309423959487265 1.7925764192139741 -0.13309347311480921 0.28543247321598769 0.90403585035012723
decision_type=2 2 2 2 2 2 2 2 2 2 2 2 2 2 2 2 2 2 2 2 2 2 2 2 2 2 2 2
left_child=6 20 4 -4 -3 -5 -1 -7 -9 11 -11 -10 -12 14 -14 -6 -17 18 -18 -20 23 -13 -15 25 -25 -2 -8 -28
right_child=1 2 3 5 15 7 26 8 9 10 12 21 13 22 -16 16 17 -19 19 -21 -22 -23 -24 24 -26 -27 27 -29
leaf_value=-1.0942708460050108 -1.0710402563378167 -1.1399712690275021 -1.0559466914166449 -1.128857239909641 -1.1298650574549189 -1.0626872608074287 -1.1154188629995034 -1.0737313237105643 -1.0929611622634205 -1.0696078107291915 -1.1228955350846743 -1.1382927405272134 -1.1319341613191438 -1.07674165008554 -1.0934440881209169 -1.0769780740780743 -1.1162988204730082 -1.1319341613191438 -1.0856694319859077 -1.1083825111336709 -1.0726662243157008 -1.1135464944656432 -1.0939471611498672 -1.1067532910657547 -1.0785572144108639 -1.0912486744411187 -1.1235768162426749 -1.1386639185250085
leaf_weight=8.6410237848758715 8.3195918798446638 7.9285486042499533 5.0259574949741355 6.4173150658607474 6.7676738798618308 5.4280739128589621 7.3562916219234493 8.6221745610237104 11.636056959629061 8.9184741675853711 7.2152648270130149 6.6226656138896924 7.6196828484535244 11.46591639518738 9.5862834155559522 6.5309079587459555 7.5593405663967159 7.6196828484535208 9.3331567347049731 9.0039487481117231 12.408874422311781 6.9581566751003265 8.5892661809921247 8.6496084630489367 7.527925193309783 11.285698145627977 7.414332300424574 6.8734906911849976
leaf_count=25 25 25 13 19 21 14 24 25 34 25 21 21 25 34 30 19 23 25 26 27 36 20 26 28 23 32 23 22
internal_value=-1.0998 -1.0973 -1.10148 -1.09562 -1.1127 -1.09773 -1.11702 -1.09549 -1.09762 -1.10021 -1.09534 -1.11069 -1.10044 -1.09617 -1.11029 -1.1079 -1.104 -1.10946 -1.10255 -1.09709 -1.08345 -1.12618 -1.0838 -1.08739 -1.0939 -1.08232 -1.12631 -1.13141
internal_weight=237.325 207.04 158.849 104.105 54.7433 99.0793 30.2851 92.662 87.2339 78.6118 53.3949 25.2169 44.4764 37.2611 17.206 46.8147 40.047 33.5161 25.8964 18.3371 48.1917 13.5808 20.0552 35.7828 16.1775 19.6053 21.6441 14.2878
internal_count=711 617 473 307 166 294 94 275 261 236 161 75 136 115 55 141 120 101 76 53 144 41 60 108 51 57 69 45
is_linear=0
shrinkage=1


Tree=2
num_leaves=27
num_cat=0
split_feature=2 9 1 9 9 9 9 0 0 1 9 0 9 0 9 9 4 9 0 9 9 1 9 4 9 9
split_gain=9.12091 4.71784 4.4277 4.42333 3.15185 4.04099 1.70651 1.51785 2.63771 2.20662 1.72394 2.77256 1.53043 1.47596 3.49962 2.45118 1.47277 1.34951 1.07902 2.59475 1.04115 0.886192 0.619775 0.524549 0.433304 0.412761
threshold=0.35490499248779889 0.90449541193563843 0.29999883265025779 0.90546817637122856 0.90409325161219456 0.90383031836225791 0.90484654544468845 0.46084081163497054 0.44777155389874973 0.29064579861808215 0.90476444617865648 0.48481450209853055 0.9049569451873466 0.35052749059957977 0.90482451849219581 0.90540423738966869 -0.33393503526074603 0.90512097052047424 0.41841485452881527 0.90423514959805285 0.90555736132850229 0.29101192628592426 0.9043205990087686 -0.42423742686154781 0.90513618950090469 0.90437234532195965
decision_type=2 2 2 2 2 2 2 2 2 2 2 2 2 2 2 2 2 2 2 2 2 2 2 2 2 2
left_child=1 4 3 7 5 -1 -2 8 9 -3 -9 -12 16 -4 -15 17 -11 -16 19 -6 -5 25 -21 -7 -14 -20
right_child=6 2 13 20 18 23 -8 10 -10 12 11 -13 24 14 15 -17 -18 -19 21 22 -22 -23 -24 -25 -26 -27
leaf_value=-1.1248949919875288 -1.0520717091680496 -1.0696392476785599 -1.0993343968886027 -1.138464732863703 -1.0872941207723554 -1.0946779329347918 -1.0841610541815039 -1.0649478028693746 -1.1261107986060162 -1.1295946913269375 -1.076832376584349 -1.1141432182325923 -1.0811967115057672 -1.0559859585655804 -1.0877968342850906 -1.0627541486891132 -1.0976823250476178 -1.1142705768944792 -1.1234410935473722 -1.1314722736466485 -1.1128140579240617 -1.1391993982547202 -1.1109577622258215 -1.0759167368286837 -1.0986122687998954 -1.1070422602562018
leaf_weight=7.9511924386024502 11.770987540483477 6.7739569544792166 9.8951491713523847 6.8295091688632992 8.7531236708164233 6.6100994646549269 7.3868983983993521 7.1094480156898525 8.3862172365188581 6.7691668868064854 10.824048042297365 8.9396249949932081 7.0576904118061048 12.27263769507408 13.785364240407949 6.92524829506874 7.0059328079223677 7.2167578339576712 12.278733909130102 7.5216421186924007 11.973849624395369 7.3703507781028739 9.7767662107944471 11.516180992126461 7.2293239831924438 7.3954830765724173
leaf_count=27 32 21 30 22 26 21 20 20 27 20 33 28 21 34 39 21 22 20 39 23 36 23 29 34 20 23
internal_value=-1.09704 -1.09993 -1.09441 -1.10106 -1.10968 -1.09562 -1.06405 -1.09534 -1.10104 -1.09509 -1.086 -1.09395 -1.10114 -1.08252 -1.07827 -1.08835 -1.11311 -1.09716 -1.11668 -1.10902 -1.12256 -1.1238 -1.1203 -1.08242 -1.08992 -1.1176
internal_weight=237.325 218.167 138.994 88.8988 79.1736 26.0775 19.1579 70.0954 43.2223 34.8361 26.8731 19.7637 28.0621 50.0952 40.2 27.9274 13.7751 21.0021 53.0961 26.0515 18.8034 27.0446 17.2984 18.1263 14.287 19.6742
internal_count=711 659 414 270 245 82 52 212 131 104 81 61 83 144 114 80 42 59 163 78 58 85 52 55 41 62
is_linear=0
shrinkage=1


Tree=3
num_leaves=28
num_cat=0
split_feature=0 5 1 5 1 9 1 0 0 0 9 1 0 0 0 9 9 4 9 9 9 9 0 9 9 9 1
split_gain=9.58671 2.44078 3.84782 3.47304 2.82144 2.78248 2.35064 4.69291 1.73246 1.51155 1.24385 1.12736 1.738 1.31156 1.10411 1.57872 1.08707 0.990696 0.761634 1.52093 0.579177 0.404706 0.351365 0.233305 0.225264 0.190014 0.131826
threshold=0.38956338671502061 -0.069453931247201631 0.28503628558791599 -0.019608509857982674 0.28293686162737214 0.9048731617302278 0.31918803965454451 0.33601812788483848 0.40160180172231114 0.45175258996083584 0.9043009101259476 0.28133586268163285 0.50026602165564737 0.52624456037103673 0.49016877095334438 0.90501148243386464 0.90419856947027399 -0.30873735228751947 0.90522853304633066 0.90495068657798261 0.90482451849219581 0.90451912000642809 0.42661615254570817 0.90464596380039242 0.90463590610185551 0.90470974888774414 0.30979007162989652
decision_type=2 2 2 2 2 2 2 2 2 2 2 2 2 2 2 2 2 2 2 2 2 2 2 2 2 2 2
left_child=6 2 4 5 11 10 7 -1 25 23 -3 12 14 -14 15 -2 -9 -10 19 20 21 26 -7 -4 -8 -5 -18
right_child=1 3 9 8 -6 22 24 16 17 -11 -12 -13 13 -15 -16 -17 18 -19 -20 -21 -22 -23 -24 -25 -26 -27 -28
leaf_value=0.030353261192261762 0.023537331826708405 -0.011075905102410681 0.02846918638845395 0.0070002831122917596 -0.015501184695474388 -0.016708058112293811 -0.038407157157082872 0.0037689737612350547 0.012891529801656568 0.05008324438189779 0.012568829935182891 0.030003625367816644 0.039095217033632043 0.0059754981239541647 -0.013386144178969979 -0.0081024816959663192 -0.0069720254788805253 0.038953598515737972 -0.0050116214658255092 -0.039324636029007758 -0.0023855087826268285 -0.028727273543435551 -0.034486974751069432 0.015047692856782386 -0.023365464505183786 -0.0032628409842648792 -0.017998529727775072
leaf_weight=6.401421755552291 8.0514933466911334 10.762128069996836 7.9782756865024629 7.1578925848007229 12.267316728830336 7.0497059226036063 7.932810544967654 6.8922921717166892 11.221714138984682 6.6080443859100333 11.233482509851454 6.9535474479198447 6.2056220769882184 6.5586563050746918 9.4341604858636838 7.2524981498718253 7.1541286557912889 6.2068636119365683 11.8629794716835 8.3760723769664747 8.0470378100872022 7.6903451085090628 8.1940317898988706 10.822869837284086 8.9706242084503156 11.445118665695189 8.498356416821478
leaf_count=21 26 31 26 22 35 20 21 21 35 23 35 23 21 20 27 21 21 21 35 22 24 21 22 34 25 34 24
internal_value=-0.000341222 0.00692987 0.0128441 0.000223707 0.00547131 -0.0104006 -0.014203 -0.00973727 0.011341 0.0290212 0.000775752 0.0113925 0.00773816 0.0226448 0 0.0082635 -0.0142522 0.0226276 -0.0167573 -0.0201145 -0.0147211 -0.0187319 -0.0267532 0.0211281 -0.030903 0.000435086 -0.0133524
internal_weight=237.229 155.403 82.1325 73.2709 56.7233 37.2393 81.8261 64.9226 36.0316 25.4092 21.9956 44.456 37.5024 12.7643 24.7382 15.304 58.5212 17.4286 51.6289 39.7659 31.3899 23.3428 15.2437 18.8011 16.9034 18.603 15.6525
internal_count=711 476 256 220 173 108 235 189 112 83 66 138 115 41 74 47 168 56 147 112 90 66 42 60 46 56 45
is_linear=0
shrinkage=0.05


Tree=4
num_leaves=29
num_cat=0
split_feature=9 9 9 7 0 7 11 7 9 9 9 9 0 0 9 3 3 5 9 9 9 9 9 5 0 0 3 9
split_gain=3.79307 4.34114 3.85694 3.09685 2.64328 2.56257 2.49555 2.27945 2.009 1.49308 2.69532 2.63085 1.63818 2.39652 2.42292 1.42467 2.16227 2.04033 0.674855 0.673962 1.16937 0.671058 0.493941 0.392716 1.21593 0.681822 0.341982 0.150681
threshold=0.90410157886455422 0.90441386166542237 0.90485001601236981 1.0015290519877678 0.34585843495453178 1.0932926175934858 0.11061111111111106 1.1516217408465095 0.90488620607808035 0.90507413480178378 0.9049569451873466 0.90516557712025147 0.38379912630597329 0.45175258996083584 0.90542417616039372 -0.65761267538262735 -0.52774082823488377 -0.055454580135346418 0.90436061143211754 0.90454150642199593 0.90470974888774414 0.9050042300544342 0.90551946622004309 -0.030473330564245147 0.45868624516805007 0.37175627237649606 -0.58121415431633772 0.90403585035012723
decision_type=2 2 2 2 2 2 2 2 2 2 2 2 2 2 2 2 2 2 2 2 2 2 2 2 2 2 2 2
left_child=6 18 4 -4 -3 -5 -1 -7 -9 10 -10 -11 -13 22 -15 -6 -17 -18 23 -19 -21 -12 -14 24 -2 -25 -8 -28
right_child=1 2 3 5 15 7 26 8 9 11 21 12 13 14 -16 16 17 19 -20 20 -22 -23 -24 25 -26 -27 27 -29
leaf_value=0.0044482859440163258 -0.0080652487781451027 -0.040458707223566273 0.040490888600718235 -0.029557365504839523 -0.030211244680024809 0.033935740268366432 -0.016230092371530211 0.023642163671853077 0.0056518902014550737 0.027643130419299607 -0.038786484247391943 -0.023591811225974393 0.020914965657926783 -0.032408872842297057 0.004959660814251636 0.020669680744399954 -0.037355352619227615 -0.017128925168369984 0.024623183177161747 0.01487175655556508 -0.0095626117199082913 -0.014473822531215775 0.0042052699923706902 0.0067028092966021097 0.018996844904175487 0.026331557148694975 -0.024164736908254835 -0.039073257180886861
leaf_weight=8.6317637860775012 8.6420702040195483 7.8003817200660697 5.1034880578517905 6.3512617200613013 6.6604026556015006 5.5082717537879935 7.3040021955966976 8.7078253626823408 11.635728254914286 9.0125647485256177 6.5188305526971799 7.1468492746353141 11.555829882621767 7.5107950121164349 9.6053646653890592 6.582929551601409 5.7264579832553819 7.506726071238524 12.539228230714796 8.135015934705736 11.954900249838827 6.9195987731218338 8.6268115788698179 11.354824006557466 7.5946390330791465 8.4006303250789625 7.3326438963413221 6.755205437541008
leaf_count=25 28 25 13 19 21 14 24 25 34 25 21 21 34 25 30 19 19 23 36 23 36 20 26 32 23 25 23 22
internal_value=-0.00113108 0.00125708 -0.00272282 0.00287112 -0.0135219 0.000844493 -0.01772 0.0030098 0.000963301 -0.00151466 -0.0115989 0.00313475 -0.00177365 0.00232515 -0.0112407 -0.00882557 -0.00506468 -0.0103447 0.0143426 -0.00444466 0.00010861 -0.0268363 0.0140751 0.0105641 0.00432565 0.015392 -0.0268767 -0.0318909
internal_weight=237.125 207.101 158.57 104.203 54.3668 99.0997 30.0236 92.7485 87.2402 78.5324 25.0742 53.4582 44.4457 37.2988 17.1162 46.5664 39.906 33.3231 48.5314 27.5966 20.0899 13.4384 20.1826 35.9922 16.2367 19.7555 21.3919 14.0878
internal_count=711 617 473 307 166 294 94 275 261 236 75 161 136 115 55 141 120 101 144 82 59 41 60 108 51 57 69 45
is_linear=0
shrinkage=0.05


Tree=5
num_leaves=28
num_cat=0
split_feature=2 9 1 9 9 9 9 3 9 0 9 9 0 0 3 9 0 9 3 9 9 1 9 0 9 0 1
split_gain=8.19293 4.35563 3.9705 4.0926 2.90572 2.28967 1.90717 2.09235 1.42274 1.39568 3.1743 2.23543 1.33912 2.43936 2.08621 1.56211 2.58504 1.42056 1.41113 1.2557 0.973206 0.47191 0.37728 0.34581 0.967898 0.147657 0.0526619
threshold=0.35490499248779889 0.90449541193563843 0.29999883265025779 0.90546817637122856 0.90421465191685491 0.90383031836225791 0.90409325161219456 -0.37519232007976272 0.90484654544468845 0.35052749059957977 0.90482451849219581 0.90540423738966869 0.46084081163497054 0.44777155389874973 -0.47649210790531499 0.90476444617865648 0.48481450209853055 0.9049569451873466 -0.3556892560267742 0.90512097052047424 0.90555736132850229 0.28948134370309503 0.90513618950090469 0.37175627237649606 0.90437234532195965 0.43748780298331186 0.28928300981524635
decision_type=2 2 2 2 2 2 2 2 2 2 2 2 2 2 2 2 2 2 2 2 2 2 2 2 2 2 2
left_child=1 4 3 12 5 -1 21 -8 -2 -4 -11 19 13 14 -3 -14 -17 18 -16 -12 -5 -7 -19 -6 26 -26 -25
right_child=8 2 9 20 23 6 7 -9 -10 10 11 -13 15 -15 17 16 -18 22 -20 -21 -22 -23 -24 24 25 -27 -28
leaf_value=-0.025486049345618808 0.04330199186605848 0.028137723851299104 -0.0010990771793174348 -0.038707545879085092 -0.011214134499717828 0.003558867397236487 -0.025993809748122911 0.011106439516016675 0.014000836834885301 0.040361933500855568 0.010252352687817205 0.033948674010557324 0.031781700952251003 -0.026513052706567522 -0.030271664411872058 0.020726608965529726 -0.015263264388087517 0.016435505487147478 0.0010513703361093704 -0.015302229827600922 -0.013688118259747743 0.021337022775736438 0 -0.025888997145420374 -0.019687498492731336 -0.0080551359992070398 -0.039544998149289801
leaf_weight=7.8624953329563132 12.03004425764084 6.8181006908416704 9.9321521222591382 6.6912980675697353 9.5677722841501218 6.6341546475887325 8.0668915808200818 6.8053453564643851 7.4159833788871756 12.467192620038984 13.855110108852392 7.0230542719364157 7.2100053727626827 8.2677682191133481 6.6968172788619968 10.91775417327881 8.910437196493147 7.1170105934143049 6.9973414242267689 7.1851701289415351 11.900589302182196 11.643462061882017 7.2145400792360306 5.4667379409074801 8.2729944735765439 7.3645323812961569 7.115859791636467
leaf_count=27 32 21 30 22 29 21 25 20 20 34 39 21 20 27 20 33 28 21 22 20 36 34 20 18 25 23 23
internal_value=0.00149148 -0.00126629 0.00402473 -0.00229576 -0.0106698 -0.00131325 0.00432909 -0.00872247 0.0325122 0.0152211 0.0193364 0.00970807 0.00317697 -0.00219791 0.00348788 0.0119078 0.00430706 -0.00240989 -0.0140124 0.00125795 -0.0231191 0.0152107 0.00835041 -0.0206624 -0.0236383 -0.0146129 -0.0342571
internal_weight=237.451 218.005 139.204 88.7417 78.8002 41.0123 33.1499 14.8722 19.446 50.4627 40.5305 28.0633 70.1498 43.1116 34.8438 27.0382 19.8282 28.0257 13.6942 21.0403 18.5919 18.2776 14.3316 37.7879 28.2201 15.6375 12.5826
internal_count=711 659 414 270 245 127 100 45 52 144 114 80 212 131 104 81 61 83 42 59 58 55 41 118 89 48 41
is_linear=0
shrinkage=0.05


Tree=6
num_leaves=28
num_cat=0
split_feature=3 9 1 3 5 1 5 9 1 1 1 6 1 9 9 3 3 9 9 9 9 9 6 2 9 1 1
split_gain=8.79642 2.57231 2.1571 4.31127 2.01232 3.88594 2.54179 2.61158 1.72886 1.29573 1.11457 1.54383 1.10471 1.091 1.02525 1.01836 1.03274 0.720619 1.48215 0.563494 0.47529 0.366231 0.331833 0.224685 0.174883 0.12086 0.0993294
threshold=-0.23531580798340981 0.90383031836225791 0.31918803965454451 0.034176171799948057 -0.069453931247201631 0.28503628558791599 -0.019608509857982674 0.9048731617302278 0.28293686162737214 0.29846478108373536 0.28133586268163285 2.2261904761904767 0.28715872374934809 0.9043009101259476 0.90419856947027399 -0.74659874464560305 -0.68971598940581147 0.90522853304633066 0.90495068657798261 0.90482451849219581 0.90467908012610609 0.90451912000642809 1.5223577235772361 0.37351603232332414 0.90464596380039242 0.30979007162989652 0.30072950297173329
decision_type=2 2 2 2 2 2 2 2 2 2 2 2 2 2 2 2 2 2 2 2 2 2 2 2 2 2 2
left_child=1 -1 3 14 5 8 7 13 10 -8 11 15 -7 -6 -2 -3 -17 18 19 21 -11 25 -9 -4 -14 -16 -22
right_child=2 4 23 -5 6 12 9 22 -10 20 -12 -13 24 -15 17 16 -18 -19 -20 -21 26 -23 -24 -25 -26 -27 -28
leaf_value=0.039490136381548774 0.0036951069324464322 -0.016221086239831796 -0.035784016253091397 0.028760503482219382 -0.011461708974827909 0.045272618875285164 0.023255972016821568 -0.016189550737600564 -0.013658728276036048 0.011653803062176005 0.026450078294918786 0.018487402524002914 0.026594851342756371 0.011691899091611026 -0.006828614665031982 0.016642427828552447 -0.0094727338292919586 -0.0047824618319977398 -0.038613209437744607 -0.0020063045989767124 -0.0064775869006654333 -0.027798998725117624 -0.033613687170871064 -0.020600353919540834 0.01458747152619169 -0.017502496999543427 0.0010776398555075821
leaf_weight=5.6778901219367972 6.8963910788297644 9.1572835147380776 9.6011655926704425 6.4761793613433829 8.9994692206382769 6.4737016558647182 10.593975096940992 7.0029732584953299 11.768906906247137 8.3755292296409625 6.754012167453765 12.363032519817351 8.0894102454185504 11.317406326532362 7.142379939556128 8.2755589485168404 6.5838955938816168 11.832763716578482 8.2625911086797696 8.0145261883735639 8.8297215104103071 7.5769636631011954 8.0692715197801572 7.0031189173459998 10.863479912281035 8.4444956779479963 6.593125343322753
leaf_count=19 21 26 26 21 26 22 34 20 34 26 22 39 26 35 21 26 19 35 22 24 26 21 22 20 34 24 20
internal_value=-0.000323506 0.00661012 -0.0136712 -0.00940108 0.0053077 0.0107029 -0.000837946 -0.010296 0.00309977 0.00875094 0.00780894 0.00414807 0.0268479 0.00118508 -0.0137776 -0.00307207 0.00475117 -0.0162276 -0.019514 -0.0141854 0.00201444 -0.0181577 -0.0260076 -0.0298411 0.0200875 -0.0130048 -0.00293956
internal_weight=237.039 155.789 81.2506 64.6463 150.111 80.3293 69.7815 35.3891 54.9027 34.3924 43.1338 36.3798 25.4266 20.3169 58.1701 24.0167 14.8595 51.2737 39.441 31.1784 23.7984 23.1638 15.0722 16.6043 18.9529 15.5869 15.4228
internal_count=711 476 235 189 457 248 209 103 166 106 132 110 82 61 168 71 45 147 112 90 72 66 42 46 60 45 46
is_linear=0
shrinkage=0.05


Tree=7
num_leaves=29
num_cat=0
split_feature=9 9 9 7 6 7 11 7 9 9 9 9 6 1 9 1 1 5 9 9 9 9 9 5 6 3 1 9
split_gain=3.50717 3.96344 3.49949 2.84395 2.54218 2.41076 2.38576 2.06849 1.84077 1.34993 2.57513 2.44647 1.51226 2.22031 2.25578 1.31542 1.99494 1.92312 0.641382 1.08126 0.64077 0.614831 0.46 0.355796 1.14584 0.641301 0.325598 0.136222
threshold=0.90410157886455422 0.90441386166542237 0.90485001601236981 1.0015290519877678 1.0148297724509299 1.0932926175934858 0.11061111111111106 1.1516217408465095 0.90488620607808035 0.90507413480178378 0.9049569451873466 0.90516557712025147 1.2303548033475042 0.28715872374934809 0.90548114931643708 0.28149637559996815 0.28841890017927491 -0.055454580135346418 0.90454150642199593 0.90470974888774414 0.9050042300544342 0.90436061143211754 0.90551946622004309 -0.030473330564245147 1.7925764192139741 -0.13309347311480921 0.28543247321598769 0.90403585035012723
decision_type=2 2 2 2 2 2 2 2 2 2 2 2 2 2 2 2 2 2 2 2 2 2 2 2 2 2 2 2
left_child=6 21 4 -4 -3 -5 -1 -7 -9 10 -10 -11 -13 14 -14 -6 -17 -18 -19 -20 -12 23 -15 24 -2 -25 -8 -28
right_child=1 2 3 5 15 7 26 8 9 11 20 12 13 22 -16 16 17 18 19 -21 -22 -23 -24 25 -26 -27 27 -29
leaf_value=0.0045457348496368592 -0.007948935397882417 -0.039598487513642061 0.038509090752721672 -0.028899109154916683 -0.02910125446908517 0.032103329884292195 -0.015695558901819603 0.022484304103829383 0.0056872963181890945 0.026413798658030764 -0.037953976043458758 -0.02292728093428122 -0.028289481354261847 0.019876413719639385 0.0075824579690378343 0.019870926033869682 -0.03635477278662292 -0.016580194573598217 0.014433542507972489 -0.0090555549376936575 -0.01403971020289313 0.02345002902745761 0.0037886933895341576 0.025190876160106176 0.018288438875126337 0.0062147131815941982 -0.023565503335380419 -0.038102410796481939
leaf_weight=8.6227495074272174 8.6302404105663317 7.6687152385711661 5.1727426946163169 6.2847150415182105 6.5392118841409674 5.5805538594722739 7.2542891800403622 8.7860381603240949 11.631022870540621 9.0952611863613111 6.4148833155632001 7.0781277120113364 8.9714672416448611 11.651890963315966 8.0952074825763685 6.6247332394123069 5.619681671261783 7.4534025192260804 8.1657492220401782 11.885226577520369 6.8826065808534622 12.652630269527434 8.6595737487077695 8.4734706282615644 7.6385619640350333 11.404873013496401 7.2691187113523466 6.6289964318275452
leaf_count=25 28 25 13 19 21 14 24 25 34 25 21 21 30 34 25 19 19 23 23 36 20 36 26 25 23 32 23 22
internal_value=-0.00107237 0.00121521 -0.00260107 0.00270782 -0.0129422 0.000752374 -0.0170987 0.00284219 0.00087914 -0.00150152 -0.0111306 0.00290005 -0.00184687 0.00206215 -0.0110381 -0.00834238 -0.00473733 -0.00985441 -0.00414665 0.000286396 -0.0261467 0.0136739 0.0133147 0.0100588 0.0041011 0.0146395 -0.0261372 -0.031079
internal_weight=236.836 207.061 158.261 104.304 53.9567 99.1313 29.7752 92.8466 87.2661 78.48 24.9285 53.5515 44.4563 37.3781 17.0667 46.288 39.7488 33.1241 27.5044 20.051 13.2975 48.7998 20.3115 36.1471 16.2688 19.8783 21.1524 13.8981
internal_count=711 617 473 307 166 294 94 275 261 236 75 161 136 115 55 141 120 101 82 59 41 144 60 108 51 57 69 45
is_linear=0
shrinkage=0.05


Tree=8
num_leaves=26
num_cat=0
split_feature=2 9 1 9 9 9 0 0 9 9 9 0 0 3 9 2 9 3 9 9 9 9 0 9 0
split_gain=7.37528 3.99558 3.55538 3.84875 2.69731 2.18134 1.69675 1.31619 2.86864 2.03682 1.18821 1.18346 2.25215 1.94942 1.44774 2.43457 1.30145 1.34372 1.16886 0.727553 0.591888 0.321647 0.310236 0.909962 0.143077
threshold=0.35490499248779889 0.90449541193563843 0.29999883265025779 0.90546817637122856 0.90421465191685491 0.90383031836225791 0.45272437987556985 0.35052749059957977 0.90482451849219581 0.90540423738966869 0.90484654544468845 0.46084081163497054 0.44777155389874973 -0.47649210790531499 0.90476444617865648 0.23640183830821401 0.9049569451873466 -0.3556892560267742 0.90512097052047424 0.90410157886455422 0.90578225630583031 0.90513618950090469 0.37175627237649606 0.90437234532195965 0.43748780298331186
decision_type=2 2 2 2 2 2 2 2 2 2 2 2 2 2 2 2 2 2 2 2 2 2 2 2 2
left_child=1 4 3 11 5 -1 19 -4 -9 18 -2 12 13 -3 -13 -16 17 -15 -10 -7 -5 -18 -6 -24 -25
right_child=10 2 7 20 22 6 -8 8 9 -11 -12 14 -14 16 15 -17 21 -19 -20 -21 -22 -23 23 24 -26
leaf_value=-0.024961124528991765 0.040403694288861904 0.027199891597202215 -0.001446550366672677 -0.028866955945609021 -0.010923117674520798 0.019811479516419976 -0.012680399325276882 0.038171041056860949 0.0097199895652249919 0.032137699466776713 0.013587289772446743 0.03030419843962235 -0.025527315696241473 -0.029445181294926653 -0.015088700397577766 0.019804402817962231 0.015422229910941483 0.0012279469957007694 -0.014955084554480092 0.001473750197822411 -0.0082057491251266556 0 -0.033233598797020709 -0.019048215288439817 -0.0075829501476929618
leaf_weight=7.802150070667266 12.253611087799074 6.8668113648891405 9.9643582254648191 12.409376189112665 9.5347170978784543 12.665876150131227 9.9865978062152845 12.651049822568892 13.919428974390035 7.1137607097625724 7.441918581724166 7.2870641052722958 8.1434015482664091 6.6092290282249424 8.8906070590019244 10.998054742813109 7.1773708760738355 6.9847720265388569 7.1530582308769217 10.511298522353171 6.0091137886047354 7.1967970877885818 12.360338151454927 8.202256888151167 7.3248064219951621
leaf_count=27 32 21 30 39 29 37 32 34 39 21 20 20 27 20 28 33 21 22 20 31 19 20 41 25 23
internal_value=0.00141354 -0.00122007 0.00383282 -0.00216769 -0.0102613 -0.0012565 0.00422824 0.0143766 0.0183538 0.00917875 0.0306436 0.00311758 -0.00194924 0.00347679 0.0112918 0.00395893 -0.00224578 -0.0134259 0.0010768 0.0117518 -0.0224769 0.00800183 -0.0199559 -0.0228155 -0.0140426
internal_weight=237.458 217.762 139.374 88.5726 78.388 40.9659 33.1638 50.8017 40.8373 28.1862 19.6955 70.1541 42.9784 34.835 27.1757 19.8887 27.9682 13.594 21.0725 23.1772 18.4185 14.3742 37.4221 27.8874 15.5271
internal_count=711 659 414 270 245 127 100 144 114 80 52 212 131 104 81 61 83 42 59 68 58 41 118 89 48
is_linear=0
shrinkage=0.05


Tree=9
num_leaves=28
num_cat=0
split_feature=0 9 1 6 5 1 5 9 1 1 9 1 0 9 0 3 9 9 9 9 9 9 1 0 9 0 1
split_gain=8.07678 2.24965 1.98028 3.96264 1.81845 3.55795 2.43293 2.42878 1.55874 1.14738 1.10232 1.06738 1.44084 0.987084 0.972696 0.968633 1.01509 0.671756 1.45837 0.540391 0.411519 0.339065 0.408836 0.312519 0.224678 0.151942 0.0911136
threshold=0.38956338671502061 0.90383031836225791 0.31918803965454451 0.96640247399033352 -0.069453931247201631 0.28503628558791599 -0.019608509857982674 0.9048731617302278 0.28293686162737214 0.29846478108373536 0.90407775827383952 0.28133586268163285 0.50026602165564737 0.9043009101259476 0.45175258996083584 -0.74659874464560305 0.90501148243386464 0.90522853304633066 0.90495068657798261 0.90482451849219581 0.90467908012610609 0.90451912000642809 0.30901791380465721 0.42661615254570817 0.90463590610185551 0.44379488529975059 0.30072950297173329
decision_type=2 2 2 2 2 2 2 2 2 2 2 2 2 2 2 2 2 2 2 2 2 2 2 2 2 2 2
left_child=2 -2 3 -1 5 8 7 13 11 -8 -5 12 15 -6 25 -3 -17 18 19 21 -11 22 -12 -9 -4 -7 -22
right_child=1 4 24 10 6 14 9 23 -10 20 17 -13 -14 -15 -16 16 -18 -19 -20 -21 26 -23 -24 -25 -26 -27 -28
leaf_value=0.027277399284982184 0.036803002079316506 -0.016061832394356362 -0.036368473452160592 0.0065467163160636069 -0.011112746914176857 0.012328803934980582 0.022177059143345473 -0.015739057558525792 -0.013083526039141516 0.011136120699349409 -0.0030444083484414079 0.025513275645292349 0.017561556569864495 0.010908999407905035 0.042752394929289478 0.01723832620542437 -0.008468574154266691 -0.00456043324357295 -0.037934989209411137 -0.0016501694955800821 -0.0058467859994194935 -0.026910190609964659 -0.019801929796582129 -0.032801545627313251 -0.021328050565087943 0.023662253536719389 0.001454097092159472
leaf_weight=6.5437049567699423 5.7761463522911063 9.1379133611917442 7.6051879078149822 5.8627282083034506 8.9621991664171237 8.1349565386772209 10.682246536016462 6.9613532572984678 11.681751519441603 8.4122244119644183 7.3760996013879838 6.8024360686540595 12.452812880277632 11.390667229890822 6.5717666447162619 7.6284008920192772 7.2782568037509918 11.802734225988386 8.1475829035043699 7.9836634844541541 8.766372397541998 7.4633265882730475 9.1831609606742841 7.9469522386789322 8.6996261626481992 10.94510382413864 6.5665370672941199
leaf_count=21 19 26 21 18 26 25 34 20 34 26 22 22 39 35 22 24 21 35 22 24 26 21 26 22 25 35 20
internal_value=-0.000307319 0.00630904 -0.0131643 -0.00908039 0.00508038 0.0101926 -0.000769182 -0.0100519 0.00290056 0.00859508 -0.0133215 0.00734829 0.00376558 0.000960538 0.025556 -0.00321548 0.00438081 -0.0156677 -0.0187889 -0.0136564 0.00220788 -0.0174159 -0.0127007 -0.0253254 -0.0288272 0.0191803 -0.00240693
internal_weight=236.766 156.098 80.6678 64.363 150.322 80.6334 69.6886 35.2612 54.9816 34.4274 57.8193 43.2998 36.4974 20.3529 25.6518 24.0446 14.9067 51.9566 40.1538 32.0063 23.7451 24.0226 16.5593 14.9083 16.3048 19.0801 15.3329
internal_count=711 476 235 189 457 248 209 103 166 106 168 132 110 61 82 71 45 150 115 93 72 69 48 42 46 60 46
is_linear=0
shrinkage=0.05


Tree=10
num_leaves=29
num_cat=0
split_feature=10 1 1 0 1 0 1 1 0 0 1 3 1 1 0 4 4 3 2 0 0 1 1 3 5 8 1 5
split_gain=1.68139 4.99868 4.50595 3.63877 2.8848 2.48042 2.36273 0.846786 1.76179 0.698322 2.6261 2.05723 1.17011 1.60792 0.707141 0.668943 0.657629 1.28635 0.790257 0.516232 1.38382 0.892444 1.91603 1.62092 1.06688 0.559417 0.37879 0.118441
threshold=1.0748873572030697 0.28761821446246649 0.29585766570928046 0.39396988367296987 0.28678736090240448 0.33601812788483848 0.31918803965454451 0.29999883265025779 0.40527673772065592 0.37963543140571271 0.30334611517734772 -0.15948561451387425 0.31084089846416257 0.30794095940456451 0.34585843495453178 -0.42423742686154781 -0.39165176662866868 -0.42965895487422556 0.28350927287131183 0.49553207352327411 0.52624456037103673 0.27842656079568823 0.28068237506252719 -0.65527622253293105 -0.12539934267940686 1.1244927854683955 0.3241809734280211 -0.019608509857982674
decision_type=2 2 2 2 2 2 2 2 2 2 2 2 2 2 2 2 2 2 2 2 2 2 2 2 2 2 2 2
left_child=1 4 16 5 19 6 -4 8 -5 11 -11 -7 13 -13 -14 -3 -2 -18 -19 21 -21 -1 -23 -24 -25 -26 -8 -10
right_child=2 15 3 7 -6 9 26 -9 27 10 -12 12 14 -15 -16 -17 17 18 -20 20 -22 22 23 24 25 -27 -28 -29
leaf_value=0.011677018156510706 0.034863485825020316 -0.022736694327148921 -0.037073896057557287 0.0067442214925057895 0.028197508177402339 0.039702988104956372 0.0056632997867615033 -0.02880910872062345 -0.0121005489899483 0.021075738909881486 -0.014375683392213318 0.017103542923379702 0.0046175662944927557 -0.011589759110434165 0.025984184217222508 -0.046728607025970377 -0.001460449859103981 0.035381215031024822 0.011660610379107608 -0.024204061777972897 0.0050613400003054598 -0.029543813578300333 0.021848395573312342 -0.022608271678820326 -0.0072035469955309094 0.012146359891086306 -0.0092803379151424753 -0.023281647147477127
leaf_weight=9.5180114209651929 6.1239326596260097 9.2355881929397565 6.0699481070041683 9.2450278699398059 7.4410953372716895 5.8222361505031577 9.4991520345211047 9.1093847304582578 6.4909031838178661 9.0959347486495989 11.9577230066061 7.8353640437126186 7.493982836604121 12.557624623179434 9.8440390825271589 5.8938177078962317 7.2793851941824004 7.4687141776084873 8.4496511667966825 9.6809140443801898 6.4214912205934516 6.5803339332342139 6.5460008978843645 6.8181949555873862 8.4572427719831555 6.4442355930805197 7.3911782354116431 11.695676922798155
leaf_count=28 17 31 21 29 23 16 25 28 19 27 35 23 21 36 27 19 22 20 25 32 20 21 20 22 28 18 20 38
internal_value=-0.0010172 -0.00675806 0.00205959 -0.00207302 -0.000874917 0.00341267 -0.0105767 -0.0153289 -0.0105824 0.00847021 0.000731463 0.0120863 0.00759899 -0.000291611 0.0171151 -0.0326568 0.019669 0.0153108 0.0232536 -0.00457582 -0.0122655 -0.00165101 -0.00545757 5.78927e-05 -0.00635034 0.000856325 -0.000597857 -0.0196525
internal_weight=236.467 83.0369 153.43 124.108 67.9075 87.5672 22.9603 36.541 27.4316 64.6069 21.0537 43.5532 37.731 20.393 17.338 15.1294 29.3217 23.1978 15.9184 60.4664 16.1024 44.364 34.846 28.2657 21.7197 14.9015 16.8903 18.1866
internal_count=711 262 449 365 212 251 66 114 86 185 62 123 107 59 48 50 84 67 45 189 52 137 109 88 68 46 45 57
is_linear=0
shrinkage=0.05


Tree=11
num_leaves=29
num_cat=0
split_feature=3 9 1 9 9 1 3 8 1 9 9 9 3 9 1 1 3 9 3 9 3 9 3 1 9 9 9 6
split_gain=6.65114 3.65771 3.18646 3.61053 2.53731 2.82162 2.70584 1.29115 1.24319 2.686 1.35476 1.68439 2.06035 1.18461 1.04075 2.07882 1.82376 1.31834 2.29934 1.19242 1.27901 1.00678 0.59905 0.572042 0.56672 0.33316 0.281872 0.0973825
threshold=0.082636880013151767 0.90449541193563843 0.29999883265025779 0.90546817637122856 0.90423514959805285 0.28861261270195382 -0.68399639300425275 1.0309423959487265 0.31244850770991739 0.90470974888774414 0.90540423738966869 0.90512097052047424 -0.17600555845613872 0.90403216047932988 0.28454523783123215 0.28797411353323843 -0.47649210790531499 0.90476444617865648 -0.7182341454933755 0.9049569451873466 -0.3556892560267742 0.90484654544468845 -0.3267179468712203 0.2915935877279206 0.90578225630583031 0.9043205990087686 0.90513618950090469 1.864444444444445
decision_type=2 2 2 2 2 2 2 2 2 2 2 2 2 2 2 2 2 2 2 2 2 2 2 2 2 2 2 2
left_child=1 4 3 14 5 6 -1 13 9 -4 11 12 -11 -7 17 -16 -17 -3 -19 20 -18 -2 -15 27 -5 -25 -21 -6
right_child=21 2 8 24 23 7 -8 -9 -10 10 -12 -13 -14 22 15 16 19 18 -20 26 -22 -23 -24 25 -26 -27 -28 -29
leaf_value=-0.00068440155254068981 0.037852393067082067 0.028707278399560682 0.044917328966131813 -0.028143156756901624 -0.0057963086199105457 -0.018744787976247821 -0.046837910420570159 0.022120893677118898 -0.0017706943216275692 0.027147949646343962 0.030473831873201004 -0.014619990939537045 -0.0053065506255828773 -0.0038319355354301914 -0.024580689761734647 0.026312109602559048 -0.028650007037901482 -0.014902178393138827 0.018984755871786666 0.014580891461447358 0.0013807171232933244 0.013122439573034687 0.015416003984379041 -0.033842350484925759 -0.0078422859848439538 -0.018881277523292231 0 -0.016349280264388033
leaf_weight=7.5373128801584244 12.440410673618318 7.3680583834648159 7.3252795934677115 12.259903967380525 7.099417030811308 6.1133406311273637 5.6920991241931898 9.0560452789068204 9.9924846589565259 11.380084991455078 7.1947010159492484 7.1208521574735633 8.0874827206134832 6.5771139562129983 8.0190494805574399 6.9119707643985704 6.5214336216449711 8.8690890222787893 11.06788611412048 7.2265648841857892 6.9739207625389179 7.4701513051986685 9.0644553303718531 8.6657532900571841 5.9828152060508719 12.294284015893934 7.1877731084823608 5.8629778027534485
leaf_count=24 32 20 19 39 23 20 20 27 30 31 21 20 23 19 27 21 20 28 33 21 22 20 27 28 19 38 20 19
internal_value=0.00134096 -0.00117487 0.00364677 -0.00205161 -0.00985931 -0.00180677 -0.02112 0.00636555 0.0135856 0.0174349 0.0112133 0.00571951 0.0134515 -3.54494e-05 0.00304653 -0.00171731 0.00346001 0.0106823 0.00366126 -0.00209465 -0.0128674 0.0289359 0.00703189 -0.0201307 -0.021837 -0.0254355 0.00766597 -0.0110409
internal_weight=237.363 217.452 139.489 88.3885 77.9628 44.0404 13.2294 30.811 51.1009 41.1084 33.7831 26.5884 19.4676 21.7549 70.1457 42.8407 34.8217 27.305 19.937 27.9097 13.4954 19.9106 15.6416 33.9224 18.2427 20.96 14.4143 12.9624
internal_count=711 659 414 270 245 137 44 93 144 114 95 74 54 66 212 131 104 81 61 83 42 52 46 108 58 66 41 42
is_linear=0
shrinkage=0.05


Tree=12
num_leaves=28
num_cat=0
split_feature=3 5 5 1 1 1 3 1 6 5 1 6 6 3 3 1 1 8 2 3 1 1 2 1 1 2 6
split_gain=7.41406 1.83159 2.97455 2.89086 2.21017 1.83022 3.57954 1.26619 1.0453 0.965409 0.943064 1.37974 1.19983 0.91927 0.954157 0.617511 2.06222 1.93601 0.612662 0.466653 1.23424 0.684556 0.339225 0.23108 0.230311 0.224505 0.160964
threshold=-0.23531580798340981 -0.069453931247201631 -0.019608509857982674 0.28503628558791599 0.28293686162737214 0.31918803965454451 0.034176171799948057 0.29962375747014108 1.7290402545508363 -0.0099051224609210606 0.28133586268163285 2.2261904761904767 2.5639321608040206 -0.74659874464560305 -0.70114200720464992 0.29226307199120188 0.29322169441708784 1.0378662701035473 0.3349164545761793 -0.2120926177327305 0.30512426180823804 0.30692746056341963 0.3265941371879843 0.29585766570928046 0.30131078522359583 0.37351603232332414 1.661741042694701
decision_type=2 2 2 2 2 2 2 2 2 2 2 2 2 2 2 2 2 2 2 2 2 2 2 2 2 2 2
left_child=1 3 15 4 10 6 18 9 26 -4 11 13 -13 -1 -15 -3 -17 23 19 -2 -21 -22 -23 -18 -9 -7 -5
right_child=5 2 7 8 -6 25 -8 24 -10 -11 -12 12 -14 14 -16 16 17 -19 -20 20 21 22 -24 -25 -26 -27 -28
leaf_value=-0.012762776502003109 -0.02082023836285889 -0.021745701803088158 0.010444162701996829 0.011363603021324012 -0.014120847632193371 -0.033868780845701128 0.025557651946640104 -0.0028222432102476304 0.04204265914974431 0.035756039549231136 0.026600489735925045 0.034987192019696585 0.0037763476270252605 0.021287847872218719 -0.0032913718053992737 0.016692119147961544 0.0039509128129312605 -0.033646788138967876 -0.022510184311380549 0.011896537490931718 -0.024316614180479118 0.00092088661178307959 -0.011483379815680447 -0.0088471610377509891 0.0087312299844155544 -0.018682609389998099 0.022746812687969745
leaf_weight=9.3593351840972865 8.1548712253570539 8.4704149812459928 11.453994601964952 8.1951384842395836 12.043071538209913 9.2226498275995272 6.6198997497558585 12.099610045552255 6.9308695793151847 6.3397724330425254 7.1318291425704947 6.3827992379665357 6.6859444975852966 6.625509917736049 8.8445087224245142 7.2187270671129253 6.8658622950315493 7.7655469179153434 13.324613228440283 6.6526220440864554 7.873928681015971 8.1716478765010852 13.260905027389525 6.543245866894722 6.3871379345655432 6.7970264852046958 11.019147664308546
leaf_count=27 23 24 35 25 35 26 21 36 23 21 23 21 20 21 26 23 21 21 38 21 22 25 39 19 20 20 35
internal_value=-0.000292243 0.00602167 0.000177974 0.0110916 0.00465859 -0.0126754 -0.00875475 0.0103941 0.0248726 0.0198914 0.00981202 0.00645942 0.0195494 -0.000280611 0.00698342 -0.00974216 -0.005922 -0.0139087 -0.0128338 -0.0097536 -0.00705445 -0.0115522 -0.00653945 -0.00194331 0.000925951 -0.0278915 0.0182346
internal_weight=236.441 156.362 73.1443 83.2182 57.073 80.0782 64.0585 36.2805 26.1452 17.7938 45.0299 37.8981 13.0687 24.8294 15.47 36.8638 28.3934 21.1747 57.4386 44.114 35.9591 29.3065 21.4326 13.4091 18.4867 16.0197 19.2143
internal_count=711 476 220 256 173 235 189 112 83 56 138 115 41 74 47 108 84 61 168 130 107 86 64 40 56 46 60
is_linear=0
shrinkage=0.05


Tree=13
num_leaves=28
num_cat=0
split_feature=9 9 9 0 0 11 0 7 9 9 9 9 7 0 9 4 9 9 9 9 9 9 9 0 10 1 9
split_gain=3.13432 3.53195 2.96926 2.62845 2.45238 2.22787 2.20561 1.7304 1.56889 1.12167 2.45471 2.2037 1.40337 1.95105 2.04008 0.682065 0.658576 1.8735 0.766523 0.617351 0.529684 0.461784 0.332543 1.12021 1.02159 0.287994 0.121013
threshold=0.90410157886455422 0.90441386166542237 0.90485001601236981 0.32050793128018301 0.34585843495453178 0.11061111111111106 0.34310754194917797 1.1516217408465095 0.90488620607808035 0.90507413480178378 0.9049569451873466 0.90516557712025147 1.2614301756637527 0.45175258996083584 0.90548114931643708 -0.31261334068967839 0.90454150642199593 0.9047042090112617 0.9047759496668466 0.90449541193563843 0.90436061143211754 0.90551946622004309 0.90422408666847409 0.41841485452881527 1.0966823294008758 0.28543247321598769 0.90403585035012723
decision_type=2 2 2 2 2 2 2 2 2 2 2 2 2 2 2 2 2 2 2 2 2 2 2 2 2 2 2
left_child=5 20 4 -4 -3 -1 -5 -8 -9 10 -10 -11 -13 21 -15 -12 19 -18 -19 -6 22 -14 23 -2 -24 -7 -27
right_child=1 2 3 6 16 25 7 8 9 11 15 12 13 14 -16 -17 17 18 -20 -21 -22 -23 24 -25 -26 26 -28
leaf_value=0.0046468850240553783 0.00045877778002044196 -0.038537576450492259 0.036629291583027419 -0.028057605934248043 -0.0054987890520913213 -0.015127772951459204 0.029000017015999958 0.020503604370636502 0.0060554690962196711 0.02465030400660043 -0.012639725918414816 -0.022443102848932486 0.018681930987624582 -0.027301648254971719 0.0068757252542698535 -0.037289157057501375 0.011593081913529334 -0.023132732001566389 -0.0029320318202236025 -0.028128453256804992 0.021950856236118366 0.0027253381092463766 -0.0054424912085669899 0.026655571474185041 0.017469182535701386 -0.022578543915829155 -0.036699442613738226
leaf_weight=8.6095377057790774 8.0610960721969622 7.4902990609407416 5.2366256713867179 6.1870914697647086 6.9350497573614103 7.1981196254491833 5.6975815594196311 8.9127078056335431 11.582888126373293 9.2047442644834501 6.7302778661251068 7.0196190476417533 11.754967615008356 8.8183999359607714 8.1440741121768934 6.3532269299030286 12.358112469315527 9.6582123935222643 10.370306104421614 6.4552088677883148 12.791399240493773 8.7368007451295835 10.586453884840013 9.0926737487316114 8.5487032085657102 7.1582374423742277 6.4301625639200211
leaf_count=25 23 25 13 19 23 24 14 25 34 25 21 21 34 30 25 20 35 31 32 20 36 26 34 27 24 23 22
internal_value=-0.000962078 0.00119038 -0.002431 0.00243215 -0.0120409 -0.0162213 0.000540411 0.00252573 0.000708609 -0.00150284 -0.0103456 0.00247928 -0.00204228 0.00169765 -0.0106551 -0.0251806 -0.00752182 -0.00344774 -0.0129882 -0.0169064 0.0129052 0.0121678 0.00952776 0.0147087 0.00457105 -0.025085 -0.0298453
internal_weight=236.123 206.727 157.646 104.379 53.2672 29.3961 99.1424 92.9553 87.2577 78.345 24.6664 53.6786 44.4739 37.4542 16.9625 13.0835 45.7769 32.3866 20.0285 13.3903 49.0803 20.4918 36.2889 17.1538 19.1352 20.7865 13.5884
internal_count=711 617 473 307 166 94 294 275 261 236 75 161 136 115 55 41 141 98 63 43 144 60 108 50 58 69 45
is_linear=0
shrinkage=0.05


Tree=14
num_leaves=27
num_cat=0
split_feature=2 1 1 0 2 1 1 1 0 0 1 1 1 1 10 0 0 1 3 2 2 1 2 8 0 1
split_gain=5.96956 2.04575 2.18042 2.19877 1.69992 1.43572 1.35552 1.66666 1.82366 1.21229 1.62698 2.42795 1.2122 1.43802 1.53638 1.01371 0.910742 1.66744 2.11622 0.585078 0.539237 0.807628 0.338399 0.163521 0.0198649 0.0181045
threshold=0.35490499248779889 0.28948134370309503 0.28503628558791599 0.44777155389874973 0.27217447929388611 0.29585766570928046 0.29754083186547048 0.29987071361125345 0.40625349871345873 0.39396988367296987 0.30334611517734772 0.30411525354195951 0.30753908912362626 0.31084089846416257 1.0977435795007227 0.37963543140571271 0.50026602165564737 0.28083889379464927 -0.64609248613677484 0.23640183830821401 0.28378347338902671 0.29311201406130588 0.37351603232332414 0.94091567610968563 0.52624456037103673 0.28381703872086095
decision_type=2 2 2 2 2 2 2 2 2 2 2 2 2 2 2 2 2 2 2 2 2 2 2 2 2 2
left_child=1 2 16 -4 -3 20 -7 8 -8 10 -9 -12 15 23 -15 -13 17 19 -19 -1 21 -6 -2 -14 -18 -20
right_child=22 4 3 -5 5 6 7 9 -10 -11 11 12 13 14 -16 -17 24 18 25 -21 -22 -23 -24 -25 -26 -27
leaf_value=0.0038203147503446085 0.032869707318026985 0.026450858231645988 -0.0023319613911781437 -0.03597115031711124 -0.013123316667341137 0.021274696231493896 -0.030987620404796447 -0.017175556216930975 0.0030526653798513166 0.019558482639063957 0.034640735525044611 -0.019244309156336844 0.010217446317357751 -0.013741135270031686 0.013081853239613257 0.0058256942143188259 -0.018137306666016526 -0.03075234927483262 0.003707121643897051 0.021384572886696783 -0.02143053326563462 0.0067390286170978114 0.017096775109599085 0.022597284738197221 -0.0099259824889054125 0
leaf_weight=13.36224450170994 12.509735405445101 6.9170954972505561 8.9184891283512133 11.576151624321936 11.931186139583593 9.9844441562890989 7.332020699977873 9.2001862376928312 7.8239202499389648 11.838129222393034 6.203408569097518 10.179825142025949 6.793731480836871 11.893916234374048 9.4437897503375989 6.1680487841367713 6.0288003981113416 7.2218981087207785 6.559648364782336 8.1702177524566633 6.7424731850624076 8.4647196382284147 7.6072877645492545 9.5537737011909467 6.3355278521776199 8.4557982981204969
leaf_count=40 32 20 29 42 37 30 25 27 24 35 17 30 19 36 27 18 21 24 20 24 21 23 20 26 20 24
internal_value=0.00127 -0.00112733 -0.00770912 -0.0216578 0.00243049 0.00113014 0.00378214 0.00189901 -0.0131825 0.00478556 0.00217054 0.00523179 0.00170531 0.0067123 -0.00163075 -0.0095035 -0.00249806 0.000787851 -0.00867257 0.010784 -0.00906108 -0.00464342 0.0272665 0.0178498 -0.0144443 0.00174943
internal_weight=237.216 217.099 76.6288 20.4946 140.471 133.554 106.415 96.4308 15.1559 81.2748 69.4367 60.2365 54.0331 37.6852 21.3377 16.3479 56.1341 43.7698 22.2373 21.5325 27.1384 20.3959 20.117 16.3475 12.3643 15.0154
internal_count=711 659 244 71 415 395 314 284 49 235 200 173 156 108 63 48 173 132 68 64 81 60 52 45 41 44
is_linear=0
shrinkage=0.05


Tree=15
num_leaves=29
num_cat=0
split_feature=5 1 0 0 1 5 0 1 5 1 0 3 1 1 9 1 0 9 9 9 9 9 0 1 9 9 9 9
split_gain=13.5376 3.05874 3.59351 2.91768 2.29152 3.19913 2.33953 1.75948 1.36295 1.25011 2.68616 1.08019 1.29295 1.065 0.906407 0.872194 1.42899 0.728094 0.718999 1.96761 0.622965 0.452726 0.435812 0.417072 0.438211 0.0920245 0.392907 0.229499
threshold=-0.069453931247201631 0.30241945824469241 0.40705703142328858 0.40160180172231114 0.28503628558791599 -0.098653381805876281 0.50026602165564737 0.30072950297173329 -0.056772103954348903 0.31918803965454451 0.33601812788483848 -0.74659874464560305 0.28293686162737214 0.29322169441708784 0.9043009101259476 0.28133586268163285 0.47945103707439557 0.9048731617302278 0.90522853304633066 0.90495068657798261 0.90463590610185551 0.90419856947027399 0.52624456037103673 0.28761821446246649 0.90464596380039242 0.90452902642525668 0.90482451849219581 0.90433845466619378
decision_type=2 2 2 2 2 2 2 2 2 2 2 2 2 2 2 2 2 2 2 2 2 2 2 2 2 2 2 2
left_child=4 2 3 7 6 -6 11 -2 -4 10 -3 -1 15 -10 -15 16 -13 -16 19 21 -11 -12 -8 -7 -25 27 -27 -23
right_child=1 9 8 -5 5 23 22 -9 13 20 18 12 -14 14 17 -17 -18 -19 -20 -21 -22 25 -24 24 -26 26 -28 -29
leaf_value=-0.01089376930665914 -0.013618861048562057 0.017335511260870726 -0.026599948779539667 0.036875423303121865 0.060785702935939573 0.0072948309683940685 0.037283196583245297 0.020030804430301474 0.01359268990700083 -0.03961835220955226 -0.00095170254546014972 -0.0081006001607786728 -0.0078159478695540071 -0.019010431984049225 0.0099410640882772877 0.029937348038597524 0.021102418733534453 -0.0096053293192166836 -0.002832182845164993 -0.041202396434887517 -0.016979317624040171 -0.018688361097826362 0.017802309960343037 0.031735298868512667 0.012347236591530307 -0.025449281726230174 -0.0096931951603859215 -0.0059525896714395406
leaf_weight=8.9404610991477913 8.6331910341978091 6.8167479932308188 8.8723385035991651 9.1219044029712659 6.0222950279712704 6.6983989477157619 6.9918381571769697 6.8647259622812262 6.3618975430726996 7.0765944570302945 7.0192190408706656 7.2438689619302883 8.3917399197816831 12.406651988625528 7.8538894951343563 6.7803706824779502 9.1918338537216169 11.535870477557181 10.66024239361286 7.7036894261836997 7.7120009064674377 7.6923509836196926 7.9973479509353638 8.3433507680892927 6.4453445971012107 10.485443517565729 8.8028436154127103 9.7339465469121915
leaf_count=26 25 21 25 30 21 20 23 22 20 20 21 21 25 35 24 22 29 34 32 21 23 22 25 27 20 30 26 29
internal_value=0.000253415 -0.0084356 -0.000775573 0.0145889 0.0165585 0.0284508 0.0105374 0.000998399 -0.00893861 -0.0149242 -0.0119356 0.004126 0.00855308 -0.00464261 -0.00847911 0.0146925 0.00795796 -0.00142107 -0.0152519 -0.0177183 -0.0283416 -0.013383 0.0274076 0.018917 0.0237609 -0.0156148 -0.0186034 -0.0119343
internal_weight=238.4 155.354 71.6505 24.6198 83.0468 27.5094 55.5375 15.4979 47.0306 83.7031 68.9145 40.5483 31.6078 38.1583 31.7964 23.2161 16.4357 19.3898 62.0977 51.4375 14.7886 43.7338 14.9892 21.4871 14.7887 36.7146 19.2883 17.4263
internal_count=719 460 215 77 259 88 171 47 138 245 202 123 97 113 93 72 50 58 181 149 43 128 48 67 47 107 56 51
is_linear=0
shrinkage=0.05


Tree=16
num_leaves=27
num_cat=0
split_feature=9 9 9 9 9 9 9 9 9 10 0 0 0 11 9 9 0 1 10 11 1 9 0 1 9 9
split_gain=4.67446 5.18819 3.83072 3.38448 3.00659 2.92467 2.47011 3.48054 1.86685 1.43506 1.64962 1.88717 2.54601 1.27573 1.20638 1.66261 0.849088 2.31485 0.770029 0.668025 0.857603 0.414859 0.386682 0.216796 0.148681 0.146213
threshold=0.90374178047012188 0.903881791863416 0.90441386166542237 0.90485001601236981 0.9041032323897169 0.90487786062609177 0.90556508950863079 0.90578225630583031 0.90400730997801892 1.0972130931819628 0.40625349871345873 0.43303966703763125 0.44647049384799192 0.11284444444444446 0.90514264593667015 0.90542417616039372 0.40850335571899615 0.28928300981524635 1.093865062620222 0.16652222222222229 0.29658900566055463 0.90463590610185551 0.44676941439690571 0.28083889379464927 0.90471386739703175 0.90514499235627077
decision_type=2 2 2 2 2 2 2 2 2 2 2 2 2 2 2 2 2 2 2 2 2 2 2 2 2 2
left_child=-1 -2 4 19 8 -5 9 -8 -3 10 13 -12 -13 25 -14 -16 18 23 -6 21 22 -4 -21 -18 -24 -7
right_child=1 2 3 5 16 6 7 -9 -10 -11 11 12 14 -15 15 -17 17 -19 -20 20 -22 -23 24 -25 -26 -27
leaf_value=0.04226283477819183 -0.046383379421390765 0.01161499190918203 -0.014505924206415166 0.029135763270146966 -0.0022399734325737786 0.0020440067924989563 0.043413433472201918 -0.0061651060238298999 -0.020159194208668255 -0.023269025943249685 -0.024978640389844417 0.024861044369961272 0.0041120224777168885 0.019163785065471232 -0.032613875396628793 0 0.0012315813205643815 0.038562252965301302 0.016107334847246413 -0.0037247860099982933 -0.033020322286917779 -0.00060690214132943252 -0.010988222157736543 0.014328097291391735 -0.023859882458585641 -0.0075442815704834312
leaf_weight=6.391638606786727 5.9672699123620978 7.7043636292219189 10.537315785884859 8.618868410587309 8.5561059117317217 7.7463996410369891 6.8469928950071317 6.8677992969751358 10.867302790284155 8.9916164577007276 11.949985325336455 6.929827779531478 9.8576511740684527 12.58944235742092 8.4592082351446134 6.8915814459323874 6.7151775062084216 12.529308229684828 14.753843411803244 8.0176782011985832 8.3665108382701856 12.473581477999685 6.4442459642887098 7.9960801899433136 7.6177862137556076 6.996761828660965
leaf_count=19 22 23 32 23 25 21 19 22 36 26 37 19 31 36 31 21 21 36 40 26 27 36 22 24 24 20
internal_value=0.000403721 -0.000749188 0.000457197 -0.0038564 0.0102688 0.00141013 -0.00110377 0.0183597 -0.00671843 -0.00450415 -0.00204258 -0.00807371 -0.00157487 0.0074975 -0.00910921 -0.0178946 0.0166094 0.0227285 0.00917842 -0.0140559 -0.0190157 -0.00722322 -0.0133587 0.00873625 -0.0184334 -0.00218969
internal_weight=237.684 231.293 225.325 156.203 69.1222 102.746 94.1273 13.7148 18.5717 80.4125 71.4209 44.0883 32.1383 27.3326 25.2084 15.3508 50.5505 27.2406 23.3099 53.4571 30.4462 23.0109 22.0797 14.7113 14.062 14.7432
internal_count=719 700 678 473 205 306 283 41 59 242 216 139 102 77 83 52 146 81 65 167 99 68 72 45 46 41
is_linear=0
shrinkage=0.05


Tree=17
num_leaves=28
num_cat=0
split_feature=1 9 9 10 9 0 1 10 0 9 3 0 9 9 9 9 0 0 9 9 0 9 1 9 1 9 9
split_gain=10.291 3.01173 5.62205 2.18437 3.71629 1.89614 1.74394 2.22958 1.30717 2.21591 1.23432 1.07603 0.928461 0.921515 1.53068 1.53005 1.20355 0.766309 0.639121 0.608118 0.591662 0.587401 0.493749 0.476009 0.381508 0.223863 0.182412
threshold=0.30334611517734772 0.90462347803890253 0.9052707127198637 1.093865062620222 0.9049020771843862 0.48054887317941586 0.30794095940456451 1.0971495760118823 0.43948155442831754 0.90421465191685491 -0.6920043229195173 0.44214846908788769 0.90472862186652903 0.90480847910954576 0.90474472387495342 0.90510641908017109 0.42661615254570817 0.34310754194917797 0.90492160466079608 0.90450813168737898 0.50253766830008162 0.9054919488323756 0.3145173980363965 0.9049569451873466 0.2924153154407676 0.9041032323897169 0.90437234532195965
decision_type=2 2 2 2 2 2 2 2 2 2 2 2 2 2 2 2 2 2 2 2 2 2 2 2 2 2 2
left_child=1 8 13 12 6 11 -5 19 9 25 20 21 -2 14 24 16 23 -6 -18 -8 -10 -4 -9 -15 -3 -1 -12
right_child=3 2 5 4 17 -7 7 22 10 -11 26 -13 -14 15 -16 -17 18 -19 -20 -21 -22 -23 -24 -25 -26 -27 -28
leaf_value=0.0055483693084626626 0.03894174452805188 -0.0031152020877596841 -0.0031132798026326063 -0.019685163220836459 0.014159866250157844 0.002603633396538926 0.0076031546117200383 0.00011967688654817362 0 -0.026374834433436252 -0.037082572495602678 -0.03672322961745178 0.01590055191061476 -0.0016811964603710514 0.03432357727079053 0.022647598730644345 -0.00063978943212188014 0.035949387988710294 -0.021290243322490198 0.027253335019240529 -0.02113105626870369 -0.02350115411719016 -0.017629945084187311 0.014720419923730344 0.012971296270380345 -0.0050822516246946722 -0.022964416233007736
leaf_weight=11.614982545375829 10.461760953068735 6.4592092782259005 6.6007800996303621 8.4350652247667295 8.1884984374046343 7.9708141982555381 8.9547111392021197 7.1472950726747495 6.0350107103586215 11.521859943866728 11.639701828360559 11.238795697689055 9.5793219506740552 7.6880843639373806 6.9806242138147345 7.3578871935605994 7.4255363047122982 11.039797425270079 8.7222657799720746 8.7262156009674055 6.9082357138395309 9.5765867978334409 7.3165472596883774 8.9306888878345472 7.368142157793045 8.216097339987753 6.9560610204935065
leaf_count=35 28 21 19 25 23 25 24 21 19 39 40 40 26 24 20 21 22 30 27 23 24 30 21 26 21 23 22
internal_value=-0.00067502 -0.0080406 -0.00241739 0.0139404 0.00900247 -0.0182787 0.000282401 0.00572193 -0.0165557 -0.00902269 -0.0238341 -0.024519 0.0283103 0.00672713 0.0152798 0.00214055 -0.00236717 0.0270501 -0.0121643 0.0176812 -0.0112479 -0.0155598 -0.00857507 0.00686906 0.00512935 0.000889794 -0.03222
internal_weight=239.061 159.211 96.3194 79.8492 59.8081 35.387 40.5798 32.1448 62.8919 31.3529 31.539 27.4162 20.0411 60.9324 20.808 40.1245 32.7666 19.2283 16.1478 17.6809 12.9432 16.1774 14.4638 16.6188 13.8274 19.8311 18.5958
internal_count=719 498 296 221 167 114 114 89 202 97 105 89 54 182 62 120 99 53 49 47 43 49 42 50 42 58 62
is_linear=0
shrinkage=0.05


end of trees

feature_importances:
market_efficiency=194
true_prob_draw=91
true_prob_home=77
log_odds_home_away=34
log_odds_draw_away=21
true_prob_away=18
prob_ratio_home_away=14
prob_ratio_home_draw=11
prob_ratio_draw_away=7
uncertainty_index=7
log_odds_home_draw=6
odds_variance=6

parameters:
[boosting: gbdt]
[objective: multiclass]
[metric: multi_logloss]
[tree_learner: serial]
[device_type: cpu]
[data_sample_strategy: bagging]
[data: ]
[valid: ]
[num_iterations: 1000]
[learning_rate: 0.05]
[num_leaves: 50]
[num_threads: 0]
[seed: 42]
[deterministic: 0]
[force_col_wise: 0]
[force_row_wise: 0]
[histogram_pool_size: -1]
[max_depth: -1]
[min_data_in_leaf: 20]
[min_sum_hessian_in_leaf: 0.001]
[bagging_fraction: 0.8]
[pos_bagging_fraction: 1]
[neg_bagging_fraction: 1]
[bagging_freq: 5]
[bagging_seed: 400]
[bagging_by_query: 0]
[feature_fraction: 0.8]
[feature_fraction_bynode: 1]
[feature_fraction_seed: 30056]
[extra_trees: 0]
[extra_seed: 12879]
[early_stopping_round: 0]
[early_stopping_min_delta: 0]
[first_metric_only: 0]
[max_delta_step: 0]
[lambda_l1: 0.1]
[lambda_l2: 0.1]
[linear_lambda: 0]
[min_gain_to_split: 0]
[drop_rate: 0.1]
[max_drop: 50]
[skip_drop: 0.5]
[xgboost_dart_mode: 0]
[uniform_drop: 0]
[drop_seed: 17869]
[top_rate: 0.2]
[other_rate: 0.1]
[min_data_per_group: 100]
[max_cat_threshold: 32]
[cat_l2: 10]
[cat_smooth: 10]
[max_cat_to_onehot: 4]
[top_k: 20]
[monotone_constraints: ]
[monotone_constraints_method: basic]
[monotone_penalty: 0]
[feature_contri: ]
[forcedsplits_filename: ]
[refit_decay_rate: 0.9]
[cegb_tradeoff: 1]
[cegb_penalty_split: 0]
[cegb_penalty_feature_lazy: ]
[cegb_penalty_feature_coupled: ]
[path_smooth: 0]
[interaction_constraints: ]
[verbosity: -1]
[saved_feature_importance_type: 0]
[use_quantized_grad: 0]
[num_grad_quant_bins: 4]
[quant_train_renew_leaf: 0]
[stochastic_rounding: 1]
[linear_tree: 0]
[max_bin: 255]
[max_bin_by_feature: ]
[min_data_in_bin: 3]
[bin_construct_sample_cnt: 200000]
[data_random_seed: 175]
[is_enable_sparse: 1]
[enable_bundle: 1]
[use_missing: 1]
[zero_as_missing: 0]
[feature_pre_filter: 1]
[pre_partition: 0]
[two_round: 0]
[header: 0]
[label_column: ]
[weight_column: ]
[group_column: ]
[ignore_column: ]
[categorical_feature: ]
[forcedbins_filename: ]
[precise_float_parser: 0]
[parser_config_file: ]
[objective_seed: 16083]
[num_class: 3]
[is_unbalance: 0]
[scale_pos_weight: 1]
[sigmoid: 1]
[boost_from_average: 1]
[reg_sqrt: 0]
[alpha: 0.9]
[fair_c: 1]
[poisson_max_delta_step: 0.7]
[tweedie_variance_power: 1.5]
[lambdarank_truncation_level: 30]
[lambdarank_norm: 1]
[label_gain: ]
[lambdarank_position_bias_regularization: 0]
[eval_at: ]
[multi_error_top_k: 1]
[auc_mu_weights: ]
[num_machines: 1]
[local_listen_port: 12400]
[time_out: 120]
[machine_list_filename: ]
[machines: ]
[gpu_platform_id: -1]
[gpu_device_id: -1]
[gpu_use_dp: 0]
[num_gpu: 1]

end of parameters

pandas_categorical:[]
