tree
version=v4
num_class=3
num_tree_per_iteration=3
label_index=0
max_feature_idx=112
objective=multiclass num_class:3
feature_names=true_prob_draw prob_ratio_draw_away prob_ratio_home_draw log_odds_home_draw log_odds_draw_away bookmaker_margin market_efficiency uncertainty_index odds_draw goals_for_away recent_form_home recent_form_away sport888_away_odds sport888_home_odds sport888_draw_odds unibet_away_odds unibet_home_odds unibet_draw_odds ladbrokes_away_odds ladbrokes_home_odds ladbrokes_draw_odds betway_away_odds betway_home_odds betway_draw_odds avg_home_odds max_home_odds min_home_odds implied_prob_home avg_away_odds max_away_odds min_away_odds implied_prob_away avg_draw_odds max_draw_odds min_draw_odds implied_prob_draw market_margin bookmaker_count matchbook_home_odds matchbook_away_odds matchbook_draw_odds betvictor_home_odds betvictor_away_odds betvictor_draw_odds betfred_home_odds betfred_away_odds betfred_draw_odds coral_home_odds coral_away_odds coral_draw_odds livescorebet_home_odds livescorebet_away_odds livescorebet_draw_odds virginbet_home_odds virginbet_away_odds virginbet_draw_odds boylesports_away_odds boylesports_home_odds boylesports_draw_odds leovegas_away_odds leovegas_home_odds leovegas_draw_odds mrgreen_home_odds mrgreen_away_odds mrgreen_draw_odds casumo_away_odds casumo_home_odds casumo_draw_odds kwiff_away_odds kwiff_home_odds kwiff_draw_odds unibet_uk_home_odds unibet_uk_away_odds unibet_uk_draw_odds ladbrokes_uk_home_odds ladbrokes_uk_away_odds ladbrokes_uk_draw_odds grosvenor_away_odds grosvenor_home_odds grosvenor_draw_odds smarkets_away_odds smarkets_home_odds smarkets_draw_odds total_implied_prob true_prob_home true_prob_away log_odds_home log_odds_away log_odds_draw home_away_odds_ratio home_draw_odds_ratio away_draw_odds_ratio favorite_odds underdog_odds odds_spread goal_difference total_goals high_scoring low_scoring month day_of_week is_weekend days_into_season season_progress home_odds_variance away_odds_variance draw_odds_variance best_home_odds worst_home_odds best_away_odds worst_away_odds home_odds_range away_odds_range
feature_infos=[0.12579197541916221:0.32717881084147021] [0.11755222404624879:0.66666666666666674] [0.11755222404624879:0.66666666666666674] [0.91629073187415522:2.2520133635138522] [0.91629073187415522:2.2520133635138522] none [0.93347904796908632:0.99747388308348783] [0.10000000000000001:0.62430929695947335] [2.5:9.5068573403304359] [0.050243060065759002:3.0564551005219203] [0:1] [0:1] [1.22:15] [1.1699999999999999:14] [2.8799999999999999:7.5] [1.1399999999999999:13.5] [1.22:18] [2.9500000000000002:8] [1.22:14] [1.22:12.5] [3:6.5] [1.22:15] [1.1799999999999999:11] [2.7999999999999998:8.5] [1.1799999999999999:13.444444444444445] [1.21:18] [1.1399999999999999:11] [0.0743801652892562:0.84745762711864414] [1.233888888888889:13.573529411764708] [1.26:19] [1.1399999999999999:12] [0.073672806067172206:0.8104457451598378] [2.8700000000000001:7.5388888888888879] [3.0499999999999998:8.5999999999999996] [2.7000000000000002:7] [0.13264554163596171:0.34843205574912889] [0.0025325143438374997:0.071261323085546779] [6:20] [1.1899999999999999:15] [1.26:19] [2.8799999999999999:8.5999999999999996] [1.1399999999999999:15] [1.2:15] [2.8799999999999999:8] [1.22:15] [1.22:12] [3.25:7] [1.2:17] [1.1799999999999999:15] [2.8700000000000001:8] [1.1699999999999999:13] [1.25:13] [2.8799999999999999:8] [1.1699999999999999:13] [1.25:13] [2.8799999999999999:8] [1.25:13] [1.1699999999999999:12] [2.8799999999999999:7] [1.2:15] [1.1699999999999999:14] [2.75:7.5] [1.1699999999999999:14] [1.21:15] [2.8500000000000001:7.5] [1.2:14] [1.1799999999999999:14] [2.8999999999999999:7.5] none none none [1.1799999999999999:11] [1.27:15] [2.8799999999999999:7.5] [1.1799999999999999:10] [1.3300000000000001:15] [3.1000000000000001:7.5] [1.3200000000000001:15] [1.1499999999999999:9.5] [3.2000000000000002:7.5] none none none [1.0025325143438375:1.0712613230855468] [0.071597213383553085:0.80367095406686961] [0.070207385395341076:0.78012272124357696] [0.16551443847757333:2.5985659682605218] [0.21017088001017151:2.6081215293267457] [1.0543120297715298:2.0200748089446585] [0.087431906614786004:10.89599279603782] [0.15652173913043479:2.1708185053380777] [0.19007274283269152:3.1885856079404471] [1.1799999999999999:2.7215384615384619] [3.0042857142857144:13.573529411764708] [0.39999999999999991:12.35588235294118] [-8:9] [0:9] [0:1] [0:1] [1:12] [0:6] [0:1] [4:300] [0.010958904109589041:0.82191780821917804] [0.00022908496732026187:27.405714285714289] [0.00053973684210526407:7.7908496732026133] [0.0035460526315789476:3.0228571428571422] [1.21:18] [1.1399999999999999:11] [1.26:19] [1.1399999999999999:12] [0.040000000000000036:11.4] [0.060000000000000053:8.0999999999999996]
tree_sizes=572 563 775 3396 585 791 3494 3504 3509 3497 3514 3492 3511 3380 3433 3392 3499 3497 3469 3399 3513 3470 3493 3500 3479 3502 3493 3486 3500 3510 3374 3497 3507 3496 3496 3503 3390 3505 3443 3489 3412 3510 3517 3494 3454 3477 3501 3501 3498 3500 3498 3416 3500 3518 3472 3506 3510 3468 3511 3507 3415 3505 3502 3432 3492 3496 3485 3492 3506 3506 3508 3417 3491 3499 3498 3509 3499 3513 3503 3506 3496 3431 3517 3498 3504 3503 3508 3496 3448 3511 3509 3505 3515 3492 3502 3509 3493 3508 3515 3495 3499 3508 3495 3501 3517 3422 3499 3510 3424 3491 3525 3509 3434 3530 3509 3501 3512 3491 3415 3513 3486 3503 3535 3491 3500 3477 3488 3513 3529 3491 3506 3459 3497 3521 3525 3446 3515 3521 3445 3519 3535 3495 3525 3519 3494 3452 3530 3487 3514 3510 3506 3515 3527 3484 3443 3542 3465 3526 3543 3455 3526 3536 3513 3469 3531 3511 3536 3542 3490 3500 3474 3528 3536 3501 3469 3482 3555 3528 3537 3524 3531 3537 3551 3540 3486 3551 3535 3536 3552 3525 3539 3559 3542 3539 3556 3541 3551 3523 3535 3550 3553 3515 3543 3553 3529 3552 3542 3500 3538 3531 3542 3535 3555 3507 3532 3554 3533 3515 3578 3490 3546 3559 3543 3542 3552 3538 3547 3556 3553 3543 3553 3516 3548 3576 3562 3524 3568 3549 3555 3566 3540 3536 3581 3546 3545 3592 3554 3553 3579 3556 3554 3590 3523 3554 3543 3556 3547 3578 3565 3567 3577 3550 3522 3572 3542 3562 3588 3556 3569 3615 3527 3536 3593 3549 3572 3600 3568 3560 3556 3547 3567 3597 3560 3571 3600 3573 3566 3597 3556 3592 3607 3566 3587 3606 3589 3581 3586 3580 3582 3617 3595 3574 3616 3590 3586 3605 3585 3599 3611 3581 3591 3623 3582 3603 3610 3601 3604 3603 3601 3592 3611 3601 3600 3624 3589 3592 3604 3595 3603 3648 3584 3596 3629 3596 3577 3630 3603 3619 3631 3596 3611 3623 3599 3612 3622 3603 3613 3630 3605 3608 3641 3605 3602 3649 3616 3611 3629 3612 3618 3638 3610 3621 3632 3623 3634 3619 3631 3627 3665 3608 3624 3652 3618 3617 3660 3620 3634 3632 3603 3615 3639 3623 3629 3646 3610 3628 3642 3624 3637 3647 3641 3651 3676 3626 3631 3654 3597 3625 3660 3624 3648 3667 3638 3631 3664 3632 3642 3662 3642 3649 3658 3634 3651 3665 3651 3649 3657 3631 3641 3665 3637 3665 3691 3651 3644 3674 3631 3643 3682 3650 3653 3670 3680 3666 3665 3646 3652 3680 3676 3668 3676 3661 3666 3696 3657 3694 3701 3667 3670 3688 3680 3664 3665 3692 3663 3693 3680 3659 3686 3670 3667 3687 3662 3669 3691 3677 3671 3683 3666 3673 3568 3673 3673 3456 3679 3678 3458 3663 3689 3452 3663 3695 3572 3662 3683 3251 3681 3671 2879 3684 3685 2890 3667 3682 2888 3680 3708 3018 3692 3708 2684 3697 3666 2539 3673 3684 2790 3666 3714 2331 3676 3459 2093 3679 3442 2553 3680 3346 1971 3694 3213 1858 3676 3331 1973 3440 2995 1868 3449 2876 1873 3216 2768 1633 2997 2656 1525 2889 2537 1755 2762 2568 1629 2766 2307 1515 2318 2306 1512 2200 2189 1402 2082 1967 1282 2109 1861 1282 1876 1867 1285 1980 1642 1065 1849 1751 1284 1859 1747 944 1753 1514 948 1639 1520 844 1635 1284 831 1409 1290 838 1404 1177 731 1299 1058 837 1179 1068 724 1176 1057 608 1177 1060 609 1055 958 607 1066 831 605 960 845 493 1067 965 492 951 835 495 845 834 608 956 727 613 837 835 494 842 725 601 837 835 494 713 717 494 730 610 380 607 608 379 607 608 379 608 613 379 608 609 378 609 611 496 610 607 379 608 497 378 611 610 379 609 496 380 496 380 380 496 380 380 381 381 380 380 381 380 381 381 378 377 377 378 378 378 378 378 379 379 379 379 380 377 379 380 379 376 380 379 380 384 380 377 384 378 380 379 378 379 379 381 382 380 380 227 227 377 227 227 382 227 227 382 227 227 382 227 227

Tree=0
num_leaves=4
num_cat=0
split_feature=95 0 0
split_gain=595.063 5.68434e-14 5.68434e-14
threshold=1.0000000180025095e-35 0.25888566378294853 0.29639551897599203
decision_type=2 2 2
left_child=1 -1 -2
right_child=2 -3 -4
leaf_value=-0.84260462926127033 -0.70831901719866042 -0.84260462926127033 -0.70831901719866042
leaf_weight=104.2553985118866 140.00010657310486 83.031978100538254 7.4468141794204703
leaf_count=280 376 223 20
internal_value=-0.783453 -0.842605 -0.708319
internal_weight=334.734 187.287 147.447
internal_count=899 503 396
is_linear=0
shrinkage=1


Tree=1
num_leaves=4
num_cat=0
split_feature=95 0 0
split_gain=601.711 5.68434e-14 2.84217e-14
threshold=-1.0000000180025095e-35 0.29233151181479528 0.29702287337019573
decision_type=2 2 2
left_child=1 -1 -2
right_child=2 -3 -4
leaf_value=-1.0471239513176909 -1.2013974572416546 -1.0471239513176909 -1.2013974572416546
leaf_weight=86.210525393486023 190.89473479986191 6.48199439048767 7.7783932685852042
leaf_count=266 589 20 24
internal_value=-1.15232 -1.04712 -1.2014
internal_weight=291.366 92.6925 198.673
internal_count=899 286 613
is_linear=0
shrinkage=1


Tree=2
num_leaves=6
num_cat=0
split_feature=95 95 0 0 0
split_gain=157.006 469.773 5.68434e-14 1.42109e-14 7.10543e-15
threshold=1.0000000180025095e-35 -1.0000000180025095e-35 0.28238738823625659 0.29299343737806677 0.29233151181479528
decision_type=2 2 2 2 2
left_child=1 4 -3 -2 -1
right_child=3 2 -4 -5 -6
leaf_value=-1.5289078589836611 -1.5289078589836611 -1.3385371327383926 -1.3385371327383926 -1.5289078589836611 -1.5289078589836611
leaf_weight=69.863682627677917 97.441452085971832 48.326757907867432 8.6672989726066572 6.5661355853080741 5.2529084682464591
leaf_count=266 371 184 33 25 20
internal_value=-1.48296 -1.44678 -1.33854 -1.52891 -1.52891
internal_weight=236.118 132.111 56.9941 104.008 75.1166
internal_count=899 503 217 396 286
is_linear=0
shrinkage=1


Tree=3
num_leaves=31
num_cat=0
split_feature=96 105 96 58 79 3 43 96 7 66 20 7 7 26 96 11 103 9 9 9 104 10 1 106 104 7 1 10 10 104
split_gain=23.4447 20.294 5.7031 5.10232 3.8335 3.76485 3.34694 3.15541 4.20405 2.74804 3.22294 3.51544 3.94314 3.87395 3.34839 3.07353 2.45838 2.85483 2.51919 4.73293 4.39599 5.23784 4.53814 5.59669 3.88095 3.71892 3.70808 2.71266 3.9274 2.25975
threshold=1.0000000180025095e-35 0.0073756127450980502 1.5000000000000002 4.6250000000000009 3.7750000000000004 1.3464597361917074 5.6250000000000009 2.5000000000000004 0.35558627031430662 2.4900000000000007 3.4750000000000005 0.32147114474109734 0.24145823366322372 4.6500000000000012 3.5000000000000004 0.49804886715576085 0.78219178082191798 0.64195875987433004 1.9187462553902164 1.7540705041776972 0.0012151163164321056 0.39113058739113576 0.44509488459090624 0.012035914786967415 0.0017090131578947358 0.26138475735185535 0.340038003281048 0.41714745489111132 0.61819687783707444 0.0010012035603715189
decision_type=2 2 2 2 2 2 2 2 2 2 2 2 2 2 2 2 2 2 2 2 2 2 2 2 2 2 2 2 2 2
left_child=-1 2 5 16 -4 -2 -5 8 -6 15 -11 12 -12 -14 -13 -9 17 -3 19 20 21 -19 23 27 -21 -25 -20 -22 -29 -23
right_child=1 3 4 6 7 -7 -8 9 -10 10 11 14 13 -15 -16 -17 -18 18 26 24 22 29 -24 25 -26 -27 -28 28 -30 -31
leaf_value=-0.058826850524105849 -0.010017283253212919 0.03987052667055184 0.0093445500077918141 0.062422502440130138 -0.043562768045119993 0.027792992530408536 0.018109319531649817 -0.049475929469422843 -0.0029377004360840657 0.020541652148689315 -0.028960538494882532 -0.011038770514345028 -0.012414524610842709 0.033242290997685553 -0.053275450932902473 -0.0072741747697128685 -0.015853305081604176 0.024902902297069276 0.0034928268358455543 0.005431318713240622 0.030713531552234014 -0.004847496474197111 -0.014219778093624333 0.013855493650326026 -0.04577282582963909 0.049827329256074117 0.041277554034853357 -0.027809470908420515 0.019194109488197584 -0.038066349140964038
leaf_weight=17.311968117952347 13.709022641181948 8.21193879842758 11.893674373626707 7.8633019328117397 25.089810937643051 12.666851311922072 9.3016069233417493 10.320139080286028 8.534443646669386 7.8153896629810324 9.6100070774555224 10.002401471138002 9.2617856860160845 9.3225562274456006 8.8391045331954938 7.4136578142642966 8.8882632255554181 9.683635890483858 12.253092139959337 7.4277625083923322 7.4555564224720028 11.497125238180162 9.631371855735777 11.156579405069353 7.3746675252914429 20.184009224176407 13.812938213348387 9.2433292269706744 8.5593292415142042 9.2292245328426343
leaf_count=47 37 22 32 21 68 34 25 28 23 21 26 27 25 25 24 20 24 26 33 20 20 31 26 30 20 54 37 25 23 25
internal_value=-0.00217077 0.000930638 -0.01288 0.0125467 -0.0175746 0.00814087 0.0384093 -0.0205891 -0.0332514 -0.0147234 -0.00919157 -0.014132 -0.00295763 0.0104885 -0.0308532 -0.0318334 0.00967544 0.0112326 0.00952234 0.00624932 0.010282 -0.00545559 0.0175081 0.0229072 -0.0200789 0.0370221 0.0235157 0.00539322 -0.00521065 -0.0196395
internal_weight=333.565 316.253 144.479 171.774 118.103 26.3759 17.1649 106.209 33.6243 72.585 54.8512 47.0359 28.1943 18.5843 18.8415 17.7338 154.609 145.721 137.509 111.443 96.6402 30.41 66.2302 56.5988 14.8024 31.3406 26.066 25.2582 17.8027 20.7263
internal_count=899 852 390 462 319 71 46 287 91 196 148 127 76 50 51 48 416 392 370 300 260 82 178 152 40 84 70 68 48 56
is_linear=0
shrinkage=0.05


Tree=4
num_leaves=4
num_cat=0
split_feature=95 95 0
split_gain=526.454 0.00198784 7.10543e-15
threshold=-1.0000000180025095e-35 1.0000000180025095e-35 0.27022117924158401
decision_type=2 2 2
left_child=-1 2 -2
right_child=1 -3 -4
leaf_value=0.094820520213178008 -0.047804387553929038 -0.047469215677574339 -0.047804387553929038
leaf_weight=97.79485297203064 49.392305016517639 124.21214354038239 19.313657730817795
leaf_count=286 156 396 61
internal_value=0.000317355 -0.0475886 -0.0478044
internal_weight=290.713 192.918 68.706
internal_count=899 613 217
is_linear=0
shrinkage=0.05


Tree=5
num_leaves=6
num_cat=0
split_feature=95 95 0 0 0
split_gain=141.467 386.364 5.68434e-14 1.42109e-14 7.10543e-15
threshold=1.0000000180025095e-35 -1.0000000180025095e-35 0.28188962244647442 0.29489318520817326 0.27743768087577253
decision_type=2 2 2 2 2
left_child=1 4 -3 -2 -1
right_child=3 2 -4 -5 -6
leaf_value=-0.042578932420278652 -0.042442425832605192 0.12630057448764317 0.12630057448764317 -0.042442425832605192 -0.042578932420278652
leaf_weight=60.941544324159622 94.309102267026901 52.45197057723999 10.781793951988218 5.8153065741062155 11.984320431947706
leaf_count=239 373 180 37 23 47
internal_value=0.00267404 0.0358502 0.126301 -0.0424424 -0.0425789
internal_weight=236.284 136.16 63.2338 100.124 72.9259
internal_count=899 503 217 396 286
is_linear=0
shrinkage=0.05


Tree=6
num_leaves=31
num_cat=0
split_feature=95 105 96 105 58 66 10 95 104 7 9 105 7 95 96 71 42 10 18 1 105 40 10 40 7 9 7 7 1 7
split_gain=500.63 0.006544 0.00436705 0.00377886 0.00217753 0.0019346 0.0016457 0.00129466 0.0011509 0.00148913 0.00113206 0.00101161 0.00083114 0.000652773 0.000635746 0.000937554 0.000861807 0.000588234 0.000567745 0.000525524 0.000499048 0.000482726 0.000395663 0.000441653 0.000323788 0.000299201 0.00025908 0.000249526 0.000228104 0.000177623
threshold=1.0000000180025095e-35 0.0073756127450980502 1.0000000180025095e-35 0.0091221428571428651 4.6250000000000009 2.6750000000000003 0.43700428372956518 -1.4999999999999998 0.0011455534055727576 0.26682978684895459 1.8608609845316539 0.064150154798761669 0.30921840380813659 -1.0000000180025095e-35 1.5000000000000002 2.6750000000000003 2.1750000000000003 0.48343180969055266 1.9550000000000003 0.34244108932703193 0.0024730769230769281 4.0500000000000007 0.41714745489111132 3.7750000000000004 0.33212321336545925 1.5098911805969955 0.31376127903657097 0.26287796776602762 0.34659193462348037 0.2942545771996497
decision_type=2 2 2 2 2 2 2 2 2 2 2 2 2 2 2 2 2 2 2 2 2 2 2 2 2 2 2 2 2 2
left_child=2 5 -1 7 8 24 21 18 17 19 13 22 20 25 -9 29 26 -3 -4 -10 27 -5 -11 -24 -2 -8 -17 -7 -20 -16
right_child=1 4 3 6 -6 12 10 14 9 11 -12 -13 -14 -15 15 16 -18 -19 28 -21 -22 -23 23 -25 -26 -27 -28 -29 -30 -31
leaf_value=-0.056495676456579394 0.067401353064610398 0.066074092164286682 -0.056538957513272863 -0.057694117208681617 0.065395530356297013 0.066345474175824773 -0.057305442826289868 -0.05757191283309232 0.066597219369428695 0.065718965521602168 -0.057914846826626509 0.065417833467871195 0.066802371346440806 -0.057565760486272759 -0.056817491297797985 -0.057368610752406138 -0.057846574579661914 0.066612919029467352 -0.056872294841076365 0.066106603400179487 0.066625702461502179 -0.058110668473865569 0.065879886926769937 0.066399467069236148 0.066936704494067314 -0.056938540009581588 -0.056991744020457549 0.065937578952325854 -0.057226807143108016 -0.057079445299241055
leaf_weight=17.053750187158585 7.4979723393917066 8.2490989863872546 9.7992821633815783 13.535872280597689 13.118401169776915 7.4987594187259692 11.312909781932829 12.430515438318251 8.998684763908388 10.121580153703691 9.1599293351173383 12.36983686685562 13.873798370361326 13.524753361940386 11.638963133096697 10.58714228868485 7.3249321579933158 13.122941404581068 12.00611871480942 13.872797459363936 8.2494220435619336 14.305871069431303 8.9974876642227191 7.4984555542469016 7.4992906153202057 10.920025527477263 8.0110797584056836 7.4987247586250305 7.2940429449081412 14.574846923351286
leaf_count=47 20 22 27 37 35 20 31 34 24 27 25 33 37 37 32 29 20 35 33 37 22 39 24 20 20 30 22 20 20 40
internal_value=-0.00202265 0.0662384 -0.0572577 -0.0573358 0.0659943 0.0666897 -0.0576061 -0.0571258 0.0660886 0.0659793 -0.0574189 0.0657914 0.0664961 -0.0572919 -0.0572506 -0.057174 -0.0573872 0.0664049 -0.0568489 0.0662996 0.0663133 -0.0579082 0.0659651 0.0661161 0.067169 -0.0571252 -0.0572063 0.0661415 -0.0570063 -0.0569631
internal_weight=331.947 148.467 183.48 166.426 96.3493 52.118 72.7594 93.6669 83.2309 61.8588 44.9176 38.9874 37.1207 35.7577 64.5675 52.137 25.9232 21.372 29.0994 22.8715 23.2469 27.8417 26.6175 16.4959 14.9973 22.2329 18.5982 14.9975 19.3002 26.2138
internal_count=899 396 503 456 257 139 199 257 222 165 123 104 99 98 177 143 71 57 80 61 62 76 71 44 40 61 51 40 53 72
is_linear=0
shrinkage=0.05


Tree=7
num_leaves=31
num_cat=0
split_feature=95 50 96 10 9 52 1 1 105 112 25 9 105 95 95 96 58 62 96 104 7 112 72 10 7 105 57 67 10 10
split_gain=477.735 0.00418253 0.00249064 0.00231875 0.00166539 0.00164067 0.00131908 0.00109968 0.000812066 0.000461066 0.000443176 0.000429376 0.000400433 0.000358854 0.000200611 0.000421601 0.000151681 0.00014366 0.000108924 7.94566e-05 0.000103178 8.36472e-05 6.34922e-05 6.05143e-05 5.27053e-05 8.1436e-05 5.06823e-05 4.52238e-05 4.11279e-05 4.03889e-05
threshold=-1.0000000180025095e-35 2.0750000000000006 1.5000000000000002 0.42826380393076974 1.8505155568251983 3.5500000000000003 0.36962567577140598 0.42148591839379634 0.0040673436041083113 0.12500000000000003 7.5500000000000007 1.228451722372695 0.0073756127450980502 1.0000000180025095e-35 1.0000000180025095e-35 1.5000000000000002 4.6250000000000009 2.3900000000000001 1.5000000000000002 0.0011455534055727576 0.26682978684895459 0.50000000000000033 2.5750000000000006 0.43700428372956518 0.30921840380813659 0.0031165413533834588 2.0250000000000004 3.8750000000000004 0.59720213497028751 0.48343180969055266
decision_type=2 2 2 2 2 2 2 2 2 2 2 2 2 2 2 2 2 2 2 2 2 2 2 2 2 2 2 2 2 2
left_child=1 3 6 -1 11 -4 -3 8 9 10 -7 -5 13 18 15 -14 19 -15 -2 29 -21 26 -20 -17 25 -19 -22 -26 -25 -16
right_child=12 2 5 4 -6 7 -8 -9 -10 -11 -12 -13 14 17 16 23 -18 24 22 20 21 -23 -24 28 27 -27 -28 -29 -30 -31
leaf_value=0.089118613984946943 -0.046919012749702067 0.08890793073676205 0.08817944327079888 0.088249689521845032 0.088877354271529763 0.087654354104706497 0.087951964876497035 0.088086373499751638 0.0877872979667218 0.086936521123209695 0.087113415991677975 0.08773096952153242 -0.046919012749702067 -0.047152136237145426 -0.046774709736297292 -0.046407028069994111 -0.046576299106738245 -0.046791692956649422 -0.046618642597923865 -0.046840127759013001 -0.046872569737634991 -0.046593665684144248 -0.046771468172033523 -0.046643376702007272 -0.046908615037246686 -0.047005560640770896 -0.046700316377080359 -0.047085586161870349 -0.046475168249184823 -0.046930559432085468
leaf_weight=10.886710554361342 6.479968696832656 7.0304118096828443 12.343301028013228 7.0511448681354585 7.0313881039619437 8.1302859783172625 7.4137117564678192 7.0562277138233176 9.538613021373747 8.1560484170913679 7.086691439151763 9.187720060348509 8.0228183865547162 7.4577543139457694 6.7577438950538662 10.015521109104158 10.681668967008589 14.136510580778124 14.363777488470079 18.774245858192444 6.4693489074707093 12.82602024078369 12.899757534265516 7.9526553750038129 8.6366545855998975 6.4966506958007804 12.56292802095413 6.202487885951995 6.6917608678340912 10.802121341228483
leaf_count=31 21 20 35 20 20 23 21 20 27 23 20 26 26 24 22 33 35 46 47 61 21 42 42 26 28 21 41 20 22 35
internal_value=0.000289345 0.0880663 0.0878361 0.0885163 0.0882345 0.0876756 0.0884173 0.08752 0.0873985 0.0872399 0.0874024 0.0879562 -0.0467688 -0.0468568 -0.0467083 -0.0466042 -0.0467515 -0.0469527 -0.0467347 -0.0467789 -0.0467472 -0.0466924 -0.046691 -0.0465017 -0.0469107 -0.046859 -0.0467589 -0.0469826 -0.0465665 -0.0468706
internal_weight=289.143 100.912 66.7553 34.157 23.2703 52.3112 14.4441 39.9679 32.9116 23.373 15.217 16.2389 188.23 76.6736 111.557 32.6828 78.8741 42.9301 33.7435 68.1924 50.6325 31.8583 27.2635 24.6599 35.4723 20.6332 19.0323 14.8391 14.6444 17.5599
internal_count=899 286 189 97 66 148 41 113 93 66 43 46 613 249 364 107 257 139 110 222 165 104 89 81 115 67 62 48 48 57
is_linear=0
shrinkage=0.05


Tree=8
num_leaves=31
num_cat=0
split_feature=95 95 98 105 72 10 10 56 18 105 53 58 62 98 10 104 106 103 9 42 9 6 1 98 1 1 1 104 10 105
split_gain=133.798 327.318 0.0169201 0.00820575 0.0023631 0.00191952 0.00118139 0.000461166 0.000232385 0.000124471 4.21303e-05 4.20861e-05 3.95938e-05 2.56845e-05 2.27768e-05 2.19998e-05 2.1916e-05 2.70605e-05 1.84229e-05 1.68564e-05 1.66206e-05 1.51733e-05 1.45456e-05 2.22103e-05 1.3626e-05 1.28964e-05 1.2219e-05 1.17689e-05 1.11675e-05 1.00186e-05
threshold=1.0000000180025095e-35 -1.0000000180025095e-35 1.0000000180025095e-35 0.0091221428571428651 2.5750000000000006 0.43700428372956518 0.59720213497028751 3.1500000000000008 2.6750000000000003 0.0073756127450980502 2.0750000000000006 4.6250000000000009 2.3900000000000001 1.0000000180025095e-35 0.42826380393076974 0.0011455534055727576 0.012388082706766926 0.74383561643835627 1.816036043892038 2.1750000000000003 1.8505155568251983 0.96111586299270146 0.35356305337012522 1.0000000180025095e-35 0.37680815586571398 0.36962567577140598 0.32215214117286889 0.0021472953216374268 0.48343180969055266 0.0030251127819548892
decision_type=2 2 2 2 2 2 2 2 2 2 2 2 2 2 2 2 2 2 2 2 2 2 2 2 2 2 2 2 2 2
left_child=1 10 3 4 7 -5 -7 -3 -6 12 14 15 -2 19 -1 28 27 18 26 24 -16 -21 23 29 -12 -15 -18 -17 -11 -14
right_child=9 2 -4 5 8 6 -8 -9 -10 11 13 -13 22 25 20 16 17 -19 -20 21 -22 -23 -24 -25 -26 -27 -28 -29 -30 -31
leaf_value=-0.041740257860628911 -0.042316409140943631 0.11303630906673508 0.11094109959163018 0.11407526157565928 0.1120479313015998 0.11269944423894329 0.11362758345650288 0.11247971776620554 0.11164631262592227 -0.042095601072922477 -0.041968025049805915 -0.041979027156670172 -0.042142014032204834 -0.041764856574987554 -0.041879347526118799 -0.042069409908417177 -0.041946282709799811 -0.042152484158326391 -0.042108484632760297 -0.041835199683363439 -0.041768430282000002 -0.041938869293697931 -0.042225964220459433 -0.04206461734050633 -0.041878199770313068 -0.041878754036543508 -0.042036653904241356 -0.042160087153204753 -0.042186927477010611 -0.042227613332593443
leaf_weight=7.4784010499715832 6.019325077533721 6.8615762889385232 14.817949444055555 9.9272530376911181 6.8966210186481458 6.8735094964504224 6.8406623601913452 8.1323608160018921 7.5391983985900879 5.4390529543161383 15.196651473641397 8.5845766961574537 6.9431282430887276 4.8332983553409559 11.206107169389727 5.6761420965194693 6.6084252595901551 5.2106837332248679 4.94827777147293 9.471488803625105 4.8345370292663565 5.6260957121849051 9.474997937679289 5.427963286638259 5.846089854836463 5.1159502118825912 8.6183371990919095 9.6819961816072446 8.7043036818504316 6.7331268489360809
leaf_count=31 24 22 47 32 22 22 22 26 24 22 62 35 28 20 46 23 27 21 20 39 20 23 38 22 24 21 35 39 35 27
internal_value=0.00249503 0.0343193 0.112435 0.112852 0.112295 0.113546 0.113162 0.112734 0.111838 -0.0421236 -0.0418668 -0.042082 -0.0421999 -0.0418946 -0.0418123 -0.0420981 -0.0420794 -0.0420509 -0.0420247 -0.0419141 -0.0418459 -0.0418738 -0.0421753 -0.0421502 -0.0419431 -0.0418234 -0.0419974 -0.0421266 -0.0421518 -0.0421842
internal_weight=235.568 137.498 67.8891 53.0712 29.4298 23.6414 13.7142 14.9939 14.4358 98.0703 69.6086 63.4718 34.5985 46.0896 23.519 54.8872 40.7439 25.3857 20.175 36.1403 16.0406 15.0976 28.5792 19.1042 21.0427 9.94925 15.2268 15.3581 14.1434 13.6763
internal_count=899 503 217 170 94 76 44 48 46 396 286 257 139 189 97 222 165 103 82 148 66 62 115 77 86 41 62 62 57 55
is_linear=0
shrinkage=0.05


Tree=9
num_leaves=31
num_cat=0
split_feature=95 105 96 105 95 95 57 6 104 7 106 10 57 1 96 96 7 10 18 1 7 104 91 105 10 6 10 102 71 40
split_gain=450.69 0.00482218 0.00241167 0.00276901 0.00147283 0.00144292 0.00105789 0.00104011 0.00103448 0.000866749 0.000785851 0.000760763 0.000590046 0.000573637 0.000833048 0.00075672 0.000446496 0.000430771 0.000421715 0.000421385 0.000484751 0.000408954 0.000401861 0.000888714 0.000370926 0.000359401 0.00027881 0.000267489 0.000206281 0.000175752
threshold=1.0000000180025095e-35 0.01488849206349206 1.0000000180025095e-35 0.0091221428571428651 -1.0000000180025095e-35 -1.4999999999999998 1.4200000000000002 0.9604818844928773 0.0011455534055727576 0.27025708599415216 0.011543333333333341 0.33864169288422891 2.0750000000000006 0.35356305337012522 1.5000000000000002 3.5000000000000004 0.39309224278727412 0.43700428372956518 1.9550000000000003 0.32472032628197289 0.23664169387129022 0.002011059861191444 0.73920265803439078 0.0030251127819548892 0.48343180969055266 0.95274707729568786 0.59720213497028751 215.50000000000003 2.6750000000000003 4.1500000000000012
decision_type=2 2 2 2 2 2 2 2 2 2 2 2 2 2 2 2 2 2 2 2 2 2 2 2 2 2 2 2 2 2
left_child=2 7 -1 5 11 18 -3 13 24 27 -11 -5 -12 14 -2 -15 21 -6 -4 20 -7 29 23 -16 -8 -22 -19 -10 -21 -13
right_child=1 6 3 4 17 19 8 -9 9 10 12 16 -14 15 22 -17 -18 26 -20 28 25 -23 -24 -25 -26 -27 -28 -29 -30 -31
leaf_value=-0.054437166247819073 0.062456941303605108 0.062110214927967783 -0.05432066312548748 -0.05550368999242429 -0.055821233166151098 -0.0548135702766867 0.062637990844854025 0.063527126343604468 0.062563039904988377 0.062737146228180524 0.062547965614136988 -0.054878666258353005 0.06201177554672619 0.063480170743553707 0.062804612391495693 0.062844316198840053 -0.055359061707389169 -0.055209203648447051 -0.054727502278830858 -0.054778617513095484 -0.055519580144375247 -0.054621129743554965 0.062723182203526781 0.063494196946101783 0.06307165501507829 -0.055095764693479612 -0.055629062427303713 0.062976442468761301 -0.055018145081528649 -0.055186782586680187
leaf_weight=16.735479652881622 8.5857909619808179 13.052371710538862 9.601096987724306 10.073383331298826 11.544874310493471 7.1483205556869533 8.2156091928482073 11.594522684812544 7.4673095643520346 8.5898737609386426 7.4655834436416653 8.5830940008163505 16.406334191560745 11.594736725091936 9.33864769339562 7.8448856174945822 7.1850214004516593 7.8934718370437604 18.924833118915558 16.793728291988373 9.3547019362449664 8.2041926085948926 7.8430874645709983 9.3503930866718274 12.332583129405974 10.75134241580963 7.9227957427501678 8.220505088567732 19.339747935533524 10.044214457273482
leaf_count=47 23 35 27 28 32 20 22 31 20 23 20 24 44 31 25 21 20 22 53 47 26 23 21 25 33 30 22 22 54 28
internal_value=-0.00189587 0.0627797 -0.0550088 -0.0550674 -0.0553009 -0.0548859 0.0625229 0.0630971 0.0626013 0.0624745 0.062327 -0.055122 0.0621795 0.0630057 0.062885 0.0632236 -0.055009 -0.055589 -0.0545906 -0.0550188 -0.0551672 -0.0549153 0.0630236 0.0631496 0.0628983 -0.055293 -0.0554195 0.0627797 -0.0549068 -0.0550448
internal_weight=328.003 147.902 180.1 163.365 71.451 91.9138 81.7502 66.1521 68.6978 48.1496 32.4618 44.0899 23.8719 54.5575 35.1179 19.4396 34.0165 27.3611 28.5259 63.3878 27.2544 26.8315 26.5321 18.689 20.5482 20.106 15.8163 15.6878 36.1335 18.6273
internal_count=899 396 503 456 199 257 219 177 184 129 87 123 64 146 94 52 95 76 80 177 76 75 71 50 55 56 44 42 101 52
is_linear=0
shrinkage=0.05


Tree=10
num_leaves=31
num_cat=0
split_feature=95 50 96 10 52 9 1 1 105 105 96 106 105 95 62 58 9 10 9 104 106 10 1 1 6 102 57 10 1 95
split_gain=424.755 0.00275533 0.00163385 0.00151304 0.00109652 0.00109153 0.00090433 0.000741651 0.000536698 0.000493198 0.000406584 0.000398082 0.000380454 0.000298475 0.000133387 0.000127365 8.64266e-05 8.15395e-05 8.10354e-05 0.000122917 8.94922e-05 7.71049e-05 5.15469e-05 4.22112e-05 4.18433e-05 3.73689e-05 3.38457e-05 3.17214e-05 2.11058e-05 2.00741e-05
threshold=-1.0000000180025095e-35 2.0750000000000006 1.5000000000000002 0.42826380393076974 3.5500000000000003 1.8505155568251983 0.36962567577140598 0.42148591839379634 0.0040673436041083113 0.0073756127450980502 1.0000000180025095e-35 0.049110604395604419 0.0013510380116959061 -1.4999999999999998 2.6150000000000007 4.6250000000000009 0.687768359124174 0.42826380393076974 1.9187462553902164 0.0012151163164321056 0.012388082706766926 0.5917255387552981 0.35356305337012522 0.35454686271796571 0.95264004559066306 221.50000000000003 2.0750000000000006 0.42414717086157189 0.39001633773976624 1.5000000000000002
decision_type=2 2 2 2 2 2 2 2 2 2 2 2 2 2 2 2 2 2 2 2 2 2 2 2 2 2 2 2 2 2
left_child=1 3 6 -1 -4 13 -3 8 11 14 -11 12 -6 -5 29 16 -12 26 19 -19 21 -21 25 -20 -22 27 -18 -16 -28 -2
right_child=9 2 4 5 7 -7 -8 -9 -10 10 15 -13 -14 -15 22 -17 17 18 23 20 24 -23 -24 -25 -26 -27 28 -29 -30 -31
leaf_value=0.08174236121906045 -0.045959161673177179 0.081583081875451977 0.080997078908011944 0.081002293776821124 0.080625879846182136 0.081551439361131683 0.080803314353699168 0.080924112365398149 0.080678898202443616 -0.046068078912280631 -0.045537072148909903 0.079942602717660127 0.08014385955933799 0.080576195210458668 -0.045904877243402101 -0.045531824037269131 -0.045745113207746657 -0.045940210030964004 -0.045743314638493612 -0.045977519553310003 -0.045745292972480561 -0.045723046846757529 -0.04591312144097047 -0.045554332535153695 -0.045591354243909629 -0.045718993287641091 -0.045590914713763302 -0.045790659941244961 -0.045694183071571977 -0.046063880840348313
leaf_weight=11.229046285152434 16.736131638288501 7.2489946186542493 12.713549911975859 9.4442406594753283 8.002412170171743 7.2498777806758872 7.6338963508605957 7.2668448090553275 9.8192015886306745 7.8006969094276419 6.4736281633377066 7.657742202281951 8.3809541463851911 7.2763259410858181 10.43904432654381 10.884054511785505 8.5991573035717028 11.050053894519804 5.9303436875343305 5.9809765815734881 9.4879463016986865 5.9261926114559174 17.304384618997574 5.888940304517746 8.255223870277403 8.8873703181743604 13.857646584510805 14.554408639669417 7.6952823102474204 6.2987387478351584
leaf_count=31 56 20 35 26 22 20 21 20 27 26 22 21 23 20 35 37 29 37 20 20 32 20 58 20 28 30 47 49 26 21
internal_value=0.00025149 0.0809037 0.0807194 0.0812634 0.0805912 0.081039 0.0811831 0.0804658 0.0803674 -0.0457887 -0.0457204 0.0802402 0.0803793 0.0808169 -0.0458879 -0.0456933 -0.045713 -0.0457268 -0.0457644 -0.0457979 -0.0457448 -0.0458509 -0.0458429 -0.0456492 -0.0456737 -0.0458071 -0.0456612 -0.0458384 -0.0456278 -0.0459878
internal_weight=285.973 103.923 68.7236 35.1995 53.8407 23.9704 14.8829 41.1272 33.8603 182.05 107.83 24.0411 16.3834 16.7206 74.2201 100.029 89.1454 82.6718 52.5197 40.7004 29.6503 11.9072 51.1852 11.8193 17.7432 33.8808 30.1521 24.9935 21.5529 23.0349
internal_count=899 286 189 97 148 66 41 113 93 613 364 66 45 46 249 338 301 279 177 137 100 40 172 40 60 114 102 84 73 77
is_linear=0
shrinkage=0.05


Tree=11
num_leaves=31
num_cat=0
split_feature=95 95 96 105 71 10 10 77 7 105 50 58 104 6 96 7 10 112 57 52 9 1 96 96 3 58 112 1 10 105
split_gain=121.539 280.034 0.0104891 0.00507154 0.00157833 0.00120271 0.000763379 0.000377464 0.00034921 0.00010497 3.20013e-05 3.0088e-05 2.30564e-05 2.23677e-05 1.9399e-05 1.83912e-05 1.71976e-05 1.49022e-05 1.48406e-05 1.29803e-05 1.25854e-05 1.221e-05 1.78942e-05 1.62728e-05 1.01846e-05 9.90643e-06 2.01684e-05 8.80531e-06 8.56949e-06 6.51536e-06
threshold=1.0000000180025095e-35 -1.0000000180025095e-35 1.5000000000000002 0.0091221428571428651 2.7750000000000004 0.43700428372956518 0.59720213497028751 2.7250000000000005 0.32323144175375057 0.01488849206349206 2.0750000000000006 4.6250000000000009 0.0011455534055727576 0.9604818844928773 1.5000000000000002 0.27025708599415216 0.42826380393076974 0.50000000000000033 2.0750000000000006 3.5500000000000003 1.8505155568251983 0.35356305337012522 1.5000000000000002 3.5000000000000004 1.3216197055919645 3.5500000000000003 0.16500000000000006 0.42148591839379634 0.48343180969055266 0.0040673436041083113
decision_type=2 2 2 2 2 2 2 2 2 2 2 2 2 2 2 2 2 2 2 2 2 2 2 2 2 2 2 2 2 2
left_child=1 10 -3 4 8 -5 -7 -6 -4 13 16 12 28 21 24 -14 -1 18 -17 -16 -18 22 -2 -23 -12 -24 -27 29 -11 -21
right_child=9 2 3 5 7 6 -8 -9 -10 11 14 -13 15 -15 19 17 20 -19 -20 27 -22 23 25 -25 -26 26 -28 -29 -30 -31
leaf_value=-0.041287283346572314 -0.04148115963124839 0.099237768911599133 0.099753640099070742 0.1016320354632585 0.10093070386066878 0.10057099313079353 0.10129413774754366 0.10042038737974741 0.10022086140652152 -0.041514101686005479 -0.041410991694122323 -0.041405109258500133 -0.041540744161921939 -0.041677560791524598 -0.041386255501848844 -0.041561726511196731 -0.041410242860849891 -0.041413920291727878 -0.041442339459040911 -0.041488726043670571 -0.041312083344458302 -0.041668665118245879 -0.041537832890132478 -0.04155201098285808 -0.041308051961240627 -0.041544078601396341 -0.041684199170065522 -0.041395998471001477 -0.041596214246663848 -0.041428725187991011
leaf_weight=7.2316601872444179 5.4454844146966961 15.726370960474013 10.012306898832326 10.579433858394625 6.6354770064353943 7.3122782707214338 7.2856504321098328 7.9830086231231672 6.6591965258121482 5.2213348895311347 4.9457926303148252 8.2383269816637021 9.9868158996105212 7.444488212466239 8.2269189208745939 5.0006605535745638 10.832401901483534 9.8932458609342557 5.4290226548910141 15.634151637554174 4.6746250391006461 7.4404464960098249 6.6567248404026058 4.9974986016750336 4.6731552630662918 4.9946379363536817 5.2859130501747131 4.7045613378286353 8.1170220971107465 6.3669920563697806
leaf_count=31 23 47 30 32 20 22 22 24 20 22 21 35 42 31 35 21 46 42 23 66 20 31 28 21 20 21 22 20 34 27
internal_value=0.0023538 0.0319824 0.10038 0.100698 0.100273 0.101226 0.100932 0.100652 0.0999403 -0.0415404 -0.0413992 -0.0414927 -0.0415093 -0.0415989 -0.0414239 -0.0414852 -0.041351 -0.0414579 -0.0414996 -0.0414412 -0.0413807 -0.0415821 -0.04156 -0.0416218 -0.041361 -0.0415854 -0.0416161 -0.0414581 -0.0415641 -0.0414714
internal_weight=233.636 139.484 72.1937 56.4674 31.29 25.1774 14.5979 14.6185 16.6715 94.1516 67.2903 51.8864 43.6481 42.2652 44.5516 30.3097 22.7387 20.3229 10.4297 34.9326 15.507 34.8207 22.3828 12.4379 9.61895 16.9373 10.2806 26.7057 13.3384 22.0011
internal_count=899 503 217 170 94 76 44 44 50 396 286 219 184 177 189 128 97 86 44 148 66 146 94 52 41 71 43 113 56 93
is_linear=0
shrinkage=0.05


Tree=12
num_leaves=31
num_cat=0
split_feature=95 105 41 62 58 95 96 95 96 10 23 7 62 104 112 1 96 18 104 1 112 105 73 96 11 6 3 99 7 102
split_gain=407.272 0.00359521 0.00175952 0.00121052 0.00119367 0.00113521 0.000782067 0.00103883 0.000780401 0.000644199 0.00063213 0.000529645 0.000478311 0.000461374 0.000696368 0.000456198 0.000694181 0.000443845 0.000442326 0.000337451 0.000317209 0.000295282 0.000274724 0.00036551 0.000274961 0.000263765 0.000252086 0.000229642 0.000219731 0.000213573
threshold=1.0000000180025095e-35 0.0073756127450980502 2.0750000000000006 2.3900000000000001 4.6250000000000009 -1.4999999999999998 1.5000000000000002 -1.0000000180025095e-35 1.0000000180025095e-35 0.49557072005773034 3.5500000000000003 0.33147452307746506 2.0650000000000004 0.0011455534055727576 0.56500000000000006 0.35356305337012522 1.5000000000000002 1.9550000000000003 0.0026400939849624033 0.32979991787483515 0.45000000000000001 0.0030251127819548892 4.3750000000000009 2.5000000000000004 0.53425985760230077 0.95264004559066306 1.3511593948230607 4.5000000000000009 0.26553473162177682 149.50000000000003
decision_type=2 2 2 2 2 2 2 2 2 2 2 2 2 2 2 2 2 2 2 2 2 2 2 2 2 2 2 2 2 2
left_child=2 3 6 -2 9 17 -1 11 -7 12 19 -8 27 -11 18 16 -5 -4 -15 -10 -9 -18 23 26 -25 -22 -12 -3 -19 -13
right_child=1 4 5 15 -6 8 7 20 10 13 22 29 -14 14 -16 -17 21 28 -20 -21 25 -23 -24 24 -26 -27 -28 -29 -30 -31
leaf_value=-0.052889464654525223 0.060665159593154508 0.059506105865873238 -0.052379015145008659 0.059518704085446045 0.059169552948665764 -0.052606797554207912 -0.05290194051879097 -0.053307939874469516 -0.0535417557371137 0.060071168084059524 -0.052899246004019289 -0.053146886298606248 0.059281860895710137 0.059624647353023912 0.059430376056450712 0.060257093984302061 0.059878091464880136 -0.052966898950277889 0.060109881766973218 -0.053119825006995337 -0.053515450528445946 0.060258855224325593 -0.053254122844122113 -0.052608594574809958 -0.052977983762606477 -0.053927863550888522 -0.053227321334838852 0.059810594044000701 -0.052657866796918265 -0.053536625592406795
leaf_weight=12.231954604387282 8.91088819503784 12.194591403007509 9.3707244098186475 8.1310088336467761 12.912312120199202 10.098201960325239 13.282562971115114 7.0271635353565243 9.1620546281337756 12.59383651614189 11.186677545309069 7.0128833055496198 12.551412254571913 8.1338050961494464 12.928735762834547 14.087022662162779 10.363529503345491 9.7953660786151904 11.113768547773359 9.8156493008136732 8.1028932929038984 10.009545505046843 8.0759468078613263 10.793438583612444 9.4473696947097761 7.433794677257537 12.285608291625975 12.580563515424727 13.935006827116011 7.0475847721099854
leaf_count=35 24 33 27 22 35 29 38 20 26 34 32 20 34 22 35 38 28 28 30 28 23 27 23 31 27 21 35 34 40 20
internal_value=-0.00179258 0.0597988 -0.0530337 0.0601352 0.0596164 -0.052917 -0.0532478 -0.0533356 -0.053018 0.0596867 -0.0530767 -0.0531284 0.0595333 0.0598146 0.0597142 0.0600243 0.0599093 -0.0526704 0.0599048 -0.0533235 -0.0535867 0.0600652 -0.0529862 -0.0529367 -0.052781 -0.0537128 -0.053071 0.0596607 -0.0527854 -0.0533422
internal_weight=322.616 146.511 176.105 51.502 95.009 113.966 62.1388 49.9069 80.8649 82.0967 70.7667 27.343 37.3266 44.7701 32.1763 42.5911 28.5041 33.1011 19.2476 18.9777 22.5639 20.3731 51.789 43.7131 20.2408 15.5367 23.4723 24.7752 23.7304 14.0605
internal_count=899 396 503 139 257 326 177 142 231 222 202 78 101 121 87 115 77 95 52 54 64 55 148 125 58 44 67 67 68 40
is_linear=0
shrinkage=0.05


Tree=13
num_leaves=31
num_cat=0
split_feature=38 96 105 7 7 19 43 23 11 35 22 51 58 7 1 3 12 9 10 9 102 34 0 13 35 105 111 96 9 9
split_gain=11.9314 7.04802 4.48332 5.54306 6.16301 3.0337 2.99481 3.2011 2.88627 2.67263 2.63729 2.26371 2.12542 2.07834 1.96921 3.47331 4.24399 3.66412 2.39951 3.04749 3.21424 3.44598 5.36322 2.51805 4.84951 2.3965 2.00994 1.90886 1.89816 2.01647
threshold=4.5500000000000007 1.0000000180025095e-35 0.0012363777089783306 0.31599760653888048 0.23481373630884933 2.5750000000000006 6.2500000000000009 4.8750000000000009 0.51240175190144055 0.226252630176669 5.1250000000000009 2.6100000000000008 3.6750000000000003 0.13940807681967313 0.32002200130146602 1.6998519752342089 2.9750000000000005 1.8505155568251983 0.43819737486638327 2.0998718634966456 216.50000000000003 3.5750000000000006 0.26959864079157209 1.675 0.27407693351000012 0.0059400000000000086 0.19000000000000009 2.5000000000000004 1.4425220143294244 1.1461988398940399
decision_type=2 2 2 2 2 2 2 2 2 2 2 2 2 2 2 2 2 2 2 2 2 2 2 2 2 2 2 2 2 2
left_child=1 -1 3 4 -2 6 7 13 12 -5 27 -10 -7 -3 15 17 -17 25 23 20 28 22 -22 -16 -25 -15 -26 -4 29 -20
right_child=2 5 10 9 -6 8 -8 -9 11 -11 -12 -13 -14 14 18 16 -18 -19 19 -21 21 -23 -24 24 26 -27 -28 -29 -30 -31
leaf_value=-0.045256133031622417 0.017826244487850276 -0.029337738066419112 0.025081984277608549 0.051215135150520799 -0.040029551112290507 0.0075259226702195621 0.023142298168767766 -0.032904051420248707 -0.020411551152847419 0.007638957288229606 0.012929936865174949 0.017233156708522546 0.044474445747416082 0.0019862094425510219 -0.033670601193716884 -0.022782495642202444 0.031052499391502866 0.0065932081599653566 0.016823646364821775 -0.024217584804572728 0.041378343387970001 -0.031646233784893757 -0.02267740540417448 0.027228890166213174 -0.038441720052449245 -0.031296983942805438 -0.0031375137725135221 0.057235488471619855 0.009338578794234928 0.055421194970905044
leaf_weight=10.478421628475187 9.1654452979564685 8.571017771959303 7.613672584295279 7.3753341138362867 9.246843606233595 7.6346012651920336 8.51971587538719 11.335478156805037 9.0417878329753893 6.7290066182613373 9.9824627041816694 7.1525875329971305 7.9399872422218323 6.6174300312995902 8.1171969473361951 6.0082371830940238 9.3702664375305158 12.070329278707502 6.4842546284198779 6.5140682756900778 7.1921782493591326 6.7543837726116172 5.9887101650238037 9.2619097828865069 6.9466928839683559 29.601707011461258 9.6069523096084577 11.723399281501768 11.480065524578093 7.0771125853061676
leaf_count=36 28 29 23 21 32 24 26 39 30 21 31 22 23 21 28 20 28 38 20 22 21 23 20 28 24 101 31 33 36 20
internal_value=0.000220442 -0.00523889 0.0196229 0.00683865 -0.0112295 -0.00323534 -0.00578197 -0.00724013 0.0109947 0.0304255 0.0338011 -0.00378497 0.0263624 -0.00539497 -0.00401854 -0.0106746 0.0100197 -0.017265 0.000942368 0.00774517 0.0123744 -0.00260637 0.0122747 -0.00938044 -0.00174287 -0.025216 -0.0179528 0.0445755 0.0243005 0.0369661
internal_weight=281.601 219.765 61.8362 32.5166 18.4123 209.287 177.518 168.998 31.769 14.1043 29.3195 16.1944 15.5746 157.663 149.091 63.668 15.3785 48.2895 85.4235 51.4908 44.9767 19.9353 13.1809 33.9328 25.8156 36.2191 16.5536 19.3371 25.0414 13.5614
internal_count=899 710 189 102 60 674 575 549 99 42 87 52 47 510 481 208 48 160 273 162 140 64 41 111 83 122 55 56 76 40
is_linear=0
shrinkage=0.05


Tree=14
num_leaves=31
num_cat=0
split_feature=96 96 96 96 96 7 0 96 9 32 36 102 10 7 104 56 9 105 3 106 91 105 14 7 1 39 7 7 67 9
split_gain=54.5851 19.6746 41.8997 19.5265 16.1755 7.36049 7.23849 5.20861 4.64925 3.61009 3.16905 2.99245 2.80304 2.46962 2.31716 1.78408 1.92885 1.57594 1.27983 0.350614 2.92058e-05 2.13014e-05 1.61161e-05 1.06258e-05 1.03122e-05 1.50108e-05 9.8879e-06 6.86151e-06 6.33456e-06 5.47224e-06
threshold=1.0000000180025095e-35 1.5000000000000002 2.5000000000000004 3.5000000000000004 4.5000000000000009 0.24072851541766246 0.20591858975237667 5.5000000000000009 1.1786363681883429 4.6776797385620918 0.049093651673242318 187.50000000000003 0.46496624414116067 0.35558627031430662 0.0053896825396825407 2.8500000000000001 1.5146552739032801 0.012618713450292408 1.4000126638648909 0.011543333333333341 1.2866643701914662 0.014482092249855397 3.6750000000000003 0.24416368081959541 0.38495127211477725 3.1750000000000003 0.36802252844471606 0.25879779430059363 3.7250000000000005 1.4152562391698635
decision_type=2 2 2 2 2 2 2 2 2 2 2 2 2 2 2 2 2 2 2 2 2 2 2 2 2 2 2 2 2 2
left_child=-1 24 6 21 5 11 -3 20 -8 10 19 -5 -12 15 18 -10 -17 -18 -9 -7 22 23 -6 -4 27 -26 28 -2 -23 -25
right_child=1 2 3 4 7 9 8 14 13 -11 12 -13 -14 -15 -16 16 17 -19 -20 -21 -22 26 -24 29 25 -27 -28 -29 -30 -31
leaf_value=0.090049147754867873 -0.040969989004693452 -0.0090048586717220973 -0.041056350322302211 0.074479462486812503 -0.040955135165621298 -0.014186213874692381 0.011652294333972371 -0.0042645710098248805 0.038518571388778955 -0.031486276723832578 0.050503427027824156 0.025521356602563629 0.0067991419791578554 0.029166681929059503 0.013406789125726777 0.084170596395161335 0.070053116934316803 0.036413423592471593 -0.040924042737794625 0.0034705990205916451 -0.040894348643221466 -0.040906565030613885 -0.041066764514743719 -0.040949084335033262 -0.041045487946868797 -0.040926804615128071 -0.04087815420776468 -0.040909364488265827 -0.040975300832388331 -0.041008783255103376
leaf_weight=16.436631560325623 7.0509732812643113 7.1939993649721137 6.871581599116328 7.1685651242732984 5.2252332717180279 5.145267337560659 8.7288885563611966 5.0161852687597293 8.0891291350126284 4.8846153765916815 8.0521534085273725 5.5280914455652237 6.7394404560327521 9.1897241324186307 9.2950488626956922 8.8130437284708041 7.4365321993827802 6.5464235991239548 4.5315507352352142 6.1987510621547699 6.3287994265556327 4.7518038004636827 8.4814477264881116 7.0391615927219382 5.7215156704187375 4.9857972711324692 5.6431259363889685 13.805766597390173 11.377573832869528 8.442398473620413
leaf_count=47 31 29 30 22 23 21 33 20 28 21 27 20 26 33 35 26 23 23 20 24 28 21 37 31 25 22 25 61 50 37
internal_value=0.00223752 -0.0044981 0.0017989 -0.0141175 0.00022834 0.0210949 0.0378172 -0.0232352 0.044719 0.00796922 0.0153433 0.0531632 0.0305906 0.0519215 -0.00436371 0.058692 0.0658505 0.054304 -0.0216639 -0.00453794 -0.0409832 -0.0409703 -0.0410242 -0.0410046 -0.0409503 -0.0409902 -0.0409351 -0.0409299 -0.0409551 -0.0409816
internal_weight=230.719 214.283 182.719 126.721 82.5951 43.7169 55.9977 38.8783 48.8037 31.0202 26.1356 12.6967 14.7916 40.0749 18.8428 30.8851 22.796 13.983 9.54774 11.344 20.0355 44.1256 13.7067 22.3531 31.5641 10.7073 21.7725 20.8567 16.1294 15.4816
internal_count=899 852 713 518 324 161 195 163 166 119 98 42 53 133 75 100 72 46 40 45 88 194 60 98 139 47 96 92 71 68
is_linear=0
shrinkage=0.05


Tree=15
num_leaves=31
num_cat=0
split_feature=96 57 96 105 96 7 102 6 96 9 102 3 91 17 0 15 111 7 7 58 50 7 32 49 49 93 2 2 76 9
split_gain=16.4066 12.3238 6.44887 5.36221 4.96057 4.78486 3.64438 3.41604 3.75017 3.19297 3.03353 2.98414 2.94805 3.44583 2.86084 2.70619 2.62326 3.13579 2.522 2.47917 2.41909 2.38704 2.10184 2.08299 3.13336 1.9748 1.79194 1.74352 1.85988 1.2011
threshold=1.0000000180025095e-35 1.8900000000000003 1.5000000000000002 0.00090183792815371941 2.5000000000000004 0.32430640902836466 69.500000000000014 0.96282707143684776 3.5000000000000004 1.5681304907017755 138.50000000000003 1.2514092127459195 0.67961726131966571 3.7550000000000003 0.2729612520560708 3.4000000000000004 0.13000000000000003 0.35217652705157965 0.2964583405643651 3.6750000000000003 2.0750000000000006 0.33093933222721544 4.054166666666668 3.3500000000000001 3.7750000000000004 3.650173611111112 0.33659762913558938 0.28142590254255367 4.1000000000000005 1.3949868497403914
decision_type=2 2 2 2 2 2 2 2 2 2 2 2 2 2 2 2 2 2 2 2 2 2 2 2 2 2 2 2 2 2
left_child=-1 22 6 -4 5 12 -3 8 21 -9 14 -8 -5 -14 26 -13 -12 18 19 -18 -7 23 -2 -6 -25 -22 -10 -24 -29 -17
right_child=1 2 3 4 7 20 11 9 10 -11 16 15 13 -15 -16 29 17 -19 -20 -21 25 -23 27 24 -26 -27 -28 28 -30 -31
leaf_value=-0.050884520383167778 0.0073335848998976137 -0.011573455176285455 -0.034945586652638236 -0.047905305320936654 0.048066352748279972 -0.021038292690317265 -0.0059463104235975518 -0.00044516486614766694 0.016315094160233828 -0.041617420817929116 0.016431234576366995 0.0042233920544375407 -0.042002384944569725 -0.0017428246089561763 0.033864438938824654 0.028614253413287546 -0.04032539690672908 -0.037191761486249614 0.014976957003020631 -0.0035096147501507829 -0.0058677676202713424 0.0023607083831925506 0.012224084674052489 -0.00099418190535941896 0.041909429139769194 0.030429556997515757 -0.018808196879477525 0.046427739677401381 0.020362581983667232 0.053448720656085462
leaf_weight=15.250907003879545 13.559173703193663 9.8841387331485731 14.870589166879652 11.986035227775572 7.64817547798157 7.7533120214939144 7.065681815147399 10.987200021743776 7.1505962610244769 8.2409207820892316 8.2484512627124769 7.1288095116615322 8.6268794536590594 13.844045192003248 9.4113854169845563 10.428803384304048 6.9359336793422761 11.085104078054426 9.6530993282794935 13.421007126569746 7.0799586772918683 17.772862464189529 10.028418600559233 10.263434261083605 7.2700753808021537 7.9606225490570068 7.3785090744495392 17.819944024086002 11.111278682947157 9.1318666040897352
leaf_count=45 38 28 43 35 21 22 20 31 20 24 23 20 25 39 26 29 20 32 27 38 20 50 28 29 20 22 21 49 31 25
internal_value=-0.000279436 0.00226141 -0.00234339 -0.00601635 -0.00378409 -0.0161237 0.0151285 0.00143085 0.00466015 -0.0180911 -0.00221559 0.0229474 -0.0278803 -0.017199 0.0123889 0.0305966 -0.00930141 -0.0144664 -0.00607206 -0.0160533 0.00164861 0.0163908 0.0242888 0.026293 0.0167953 0.0133435 -0.00152203 0.0301898 0.0364172 0.0402082
internal_weight=318.997 303.746 251.227 207.588 192.718 57.2509 43.6393 135.467 116.239 19.2281 73.2841 33.7552 34.457 22.4709 23.9405 26.6895 49.3436 41.0951 30.01 20.3569 22.7939 42.9545 52.5188 25.1817 17.5335 15.0406 14.5291 38.9596 28.9312 19.5607
internal_count=901 856 710 588 545 163 122 382 327 55 207 94 99 64 67 74 140 117 85 58 64 120 146 70 49 42 41 108 80 54
is_linear=0
shrinkage=0.05


Tree=16
num_leaves=31
num_cat=0
split_feature=95 104 6 95 7 16 106 102 56 104 91 3 112 112 18 96 16 67 104 1 7 64 34 77 1 16 1 96 7 71
split_gain=366.153 0.0133793 0.00567145 0.00562805 0.00396251 0.0031796 0.00143266 0.00131905 0.0014202 0.00124065 0.00120502 0.00126882 0.00100018 0.000789266 0.000310299 0.0002732 0.000264477 0.000234819 0.00015845 0.00014195 0.000136638 0.000129496 0.00016235 0.000111971 9.07484e-05 7.79397e-05 8.35114e-05 7.1478e-05 6.45903e-05 6.43975e-05
threshold=-1.0000000180025095e-35 0.0084894152661064357 0.96052226139911046 1.0000000180025095e-35 0.32430640902836466 2.1050000000000004 0.022531447368421054 89.500000000000014 3.1500000000000008 0.0015630116959064299 0.94349630010111718 1.4393174485803735 0.3000000000000001 0.2349999999999999 3.6500000000000008 1.5000000000000002 4.6500000000000012 4.1500000000000012 0.0015402631578947396 0.24895162663656892 0.35029984361201599 3.6250000000000004 3.5750000000000006 2.7250000000000005 0.35826080878629724 2.0100000000000002 0.3169955981625931 3.5000000000000004 0.26920365917733918 2.7250000000000005
decision_type=2 2 2 2 2 2 2 2 2 2 2 2 2 2 2 2 2 2 2 2 2 2 2 2 2 2 2 2 2 2
left_child=1 2 5 13 7 -1 -6 -3 -9 -7 11 -11 16 20 19 -15 21 18 -16 -14 28 -5 -23 -24 27 -17 -27 -21 29 -2
right_child=3 4 -4 12 6 9 -8 8 -10 10 -12 -13 14 15 17 25 -18 -19 -20 24 -22 22 23 -25 -26 26 -28 -29 -30 -31
leaf_value=0.07427691762838505 -0.045211600585484242 0.072960936023866704 0.072135614965749315 -0.044311096645299024 0.072018665320945335 0.072763318100684926 0.071145535339325147 0.072724935460332041 0.071850163004138323 0.072746451615464919 0.073788390539910959 0.073558780585800301 -0.044478064409069068 -0.044485281201017399 -0.044317168650172059 -0.044667400041826427 -0.044743591534816302 -0.043860538890069717 -0.043997790876087142 -0.044228796939742077 -0.045285347688986385 -0.044647663162877112 -0.044207027319489042 -0.044499975851192586 -0.044307308264516843 -0.044719295113944707 -0.044955514453926225 -0.044033220343581647 -0.044899752849624018 -0.044981297496938022
leaf_weight=7.7906544506549826 6.0986706614494377 7.4426524043083218 11.928741246461867 17.607528865337372 7.4572319388389614 12.657439351081846 12.698046892881392 7.4470055997371682 12.308567732572556 10.425258368253713 10.399866700172423 8.9199008345603925 5.9109700620174399 8.4529694616794604 7.8256563544273394 6.2462646961212185 7.1180526018142691 11.488868176937101 7.7092354297637939 10.299032717943193 7.2803349792957297 9.6444996595382708 5.5612337291240692 7.8890581429004651 14.242935568094252 5.6916619539260891 10.920462548732756 8.5501826107501966 6.3081225156784049 6.0430064797401428
leaf_count=21 21 20 32 63 20 34 34 20 33 28 28 24 21 30 28 22 25 42 28 37 25 34 20 28 51 20 38 31 22 21
internal_value=0.00124285 0.072633 0.0731156 -0.0444914 0.0719999 0.0733485 0.0714686 0.0723936 0.0721799 0.0731779 0.0733543 0.073121 -0.0442883 -0.0448968 -0.0441621 -0.0447282 -0.0444624 -0.0440319 -0.0441587 -0.0442524 -0.0451019 -0.0444132 -0.0444911 -0.0443789 -0.0442121 -0.044818 -0.0448746 -0.0441401 -0.0450295 -0.045097
internal_weight=280.364 109.475 62.1219 170.889 47.3535 50.1931 20.1553 27.1982 19.7556 42.4025 29.745 19.3452 113.847 57.0415 66.0269 31.3114 47.8204 27.0238 15.5349 39.0031 25.7301 40.7023 23.0948 13.4503 33.0922 22.8584 16.6121 18.8492 18.4498 12.1417
internal_count=901 294 167 607 127 135 54 73 53 114 80 52 408 199 238 110 170 98 56 140 89 145 82 48 119 80 58 68 64 42
is_linear=0
shrinkage=0.05


Tree=17
num_leaves=31
num_cat=0
split_feature=95 95 96 7 9 96 9 105 95 95 28 96 95 0 34 57 96 95 96 7 111 10 96 9 96 6 9 102 102 112
split_gain=92.286 220.679 0.0805112 0.00932756 0.00589756 0.00709069 0.00444673 0.0025844 0.000712465 0.000676932 0.000626911 0.000456993 0.00042204 0.000195117 0.000150388 0.000124041 0.000140747 0.000111943 0.000106547 4.66467e-05 4.58429e-05 4.32257e-05 3.35945e-05 2.19561e-05 1.91689e-05 1.3007e-05 1.09995e-05 1.04372e-05 1.04167e-05 9.08286e-06
threshold=1.0000000180025095e-35 -1.0000000180025095e-35 1.5000000000000002 0.35940290857432944 1.1137008353424471 3.5000000000000004 1.4377068343718744 0.0059400000000000086 1.5000000000000002 -1.4999999999999998 3.000672268907564 2.5000000000000004 -2.4999999999999996 0.22031050341717967 4.2250000000000005 1.5400000000000003 3.5000000000000004 -3.4999999999999996 4.5000000000000009 0.2942545771996497 0.24500000000000013 0.45181646104029261 3.5000000000000004 1.4708429557546159 4.5000000000000009 0.95547715400601574 1.8442743572814411 222.50000000000003 96.500000000000014 0.34999999999999992
decision_type=2 2 2 2 2 2 2 2 2 2 2 2 2 2 2 2 2 2 2 2 2 2 2 2 2 2 2 2 2 2
left_child=1 9 10 4 -4 6 -6 -8 24 12 -3 13 17 -10 22 -13 -17 -1 21 -15 -20 -18 -14 28 25 27 -25 -2 -11 -19
right_child=8 2 3 -5 5 -7 7 -9 11 23 -12 15 14 19 -16 16 18 29 20 -21 -22 -23 -24 26 -26 -27 -28 -29 -30 -31
leaf_value=-0.040994781800155276 -0.040402588906195261 0.083279559739406275 0.087754502330826017 0.088198797558679515 0.084748343350670038 0.087281288223548387 0.085638720191188553 0.086955847791578403 -0.040667872926660457 -0.040726713906305695 0.082654009825424188 -0.040379024680846046 -0.041331340654142124 -0.041182741807841719 -0.040936689554307133 -0.040438911914635334 -0.040907385040351289 -0.040780145008517919 -0.040489261485567904 -0.040966877874600863 -0.040700819181820592 -0.040723583158316895 -0.041179870938314968 -0.040797494629874038 -0.040503574817399003 -0.040360495748668457 -0.040713325509402543 -0.040469378585537917 -0.040637668267200777 -0.04068164421504647
leaf_weight=7.061109423637391 14.505618616938593 7.2012754678726223 8.8326497375965101 11.636351138353346 7.1580290794372585 12.037408530712126 7.8443419933319074 7.0908591747283936 4.4330252707004538 4.9023533612489727 9.0242510735988599 4.9680259674787512 8.4236347973346728 4.6239686161279661 4.535758674144744 6.2992926836013821 5.42585037648678 4.7004339098930359 5.6727174222469312 5.4552075415849686 4.6676758676767349 7.7931361347436905 6.474055513739585 7.1737141311168662 6.553973823785781 9.4891630858182889 8.4580963104963285 9.8018437176942808 9.9507564157247526 4.6611815840005875
leaf_count=31 67 20 25 33 20 34 22 20 20 22 25 23 36 20 20 29 24 21 26 24 21 35 28 32 30 44 38 45 45 21
internal_value=-0.00114306 0.0246445 0.0860241 0.0869431 0.0866029 0.0863049 0.085773 0.0862641 -0.0405811 -0.0408838 0.0829316 -0.0407086 -0.0410311 -0.0409443 -0.0411888 -0.0406104 -0.0406488 -0.0408445 -0.040705 -0.0410659 -0.0405848 -0.040799 -0.0412655 -0.0407106 -0.0404253 -0.0404101 -0.040752 -0.0404295 -0.0406671 -0.0407311
internal_weight=226.856 137.166 70.8252 54.5996 42.9633 34.1306 22.0932 14.9352 89.6895 66.3411 16.2255 49.3389 35.8562 14.5122 19.4334 34.8267 29.8587 16.4227 23.5594 10.0792 10.3404 13.219 14.8977 30.4849 40.3506 33.7966 15.6318 24.3075 14.8531 9.36162
internal_count=901 493 199 154 121 96 62 42 408 294 45 222 157 64 84 158 135 73 106 44 47 59 64 137 186 156 70 112 67 42
is_linear=0
shrinkage=0.05


Tree=18
num_leaves=31
num_cat=0
split_feature=95 96 105 90 95 58 95 96 37 43 57 13 6 96 6 102 96 9 95 2 11 6 102 94 9 106 102 50 7 7
split_gain=361.923 0.0121953 0.0108268 0.00932425 0.00744255 0.00618148 0.00468902 0.00306003 0.0028834 0.00248906 0.0023769 0.00211718 0.00200314 0.00174665 0.00116277 0.0011569 0.00103693 0.000974962 0.000972895 0.000751468 0.000740756 0.000736912 0.000827989 0.000732731 0.000675718 0.000531585 0.000595732 0.00051966 0.000509003 0.000435303
threshold=1.0000000180025095e-35 1.0000000180025095e-35 0.0073756127450980502 0.58435176001780287 1.5000000000000002 4.6250000000000009 1.5000000000000002 1.5000000000000002 16.500000000000004 5.6250000000000009 1.6850000000000003 3.1600000000000006 0.95463453587354519 2.5000000000000004 0.957771227167309 191.50000000000003 2.5000000000000004 1.5681304907017755 -1.4999999999999998 0.35454686271796571 0.400771830275163 0.96052226139911046 226.50000000000003 1.2895000000000005 1.1303828344243678 0.017959177109440273 192.50000000000003 2.1250000000000004 0.32147114474109734 0.23888785564031528
decision_type=2 2 2 2 2 2 2 2 2 2 2 2 2 2 2 2 2 2 2 2 2 2 2 2 2 2 2 2 2 2
left_child=1 -1 4 10 12 6 20 -5 -6 -7 -3 14 16 -8 23 -10 -2 -16 19 -13 -4 22 -12 28 -15 -26 -27 -22 -9 -20
right_child=2 3 5 7 8 9 13 11 15 -11 21 18 -14 24 17 -17 -18 -19 29 -21 27 -23 -24 -25 25 26 -28 -29 -30 -31
leaf_value=-0.04943153024477108 0.055932250989153193 -0.052165184195601615 0.056360473601722839 -0.051386099963411182 0.058292718627988287 0.054673941640511176 0.057355076660032478 -0.050940626377684275 0.056882253650742377 0.055990303549268254 -0.051722115805093484 -0.049788866974427914 0.057236999154490702 0.056205279884611853 -0.050868359521780648 0.05766567741226547 0.056668437894105562 -0.05004522100688294 -0.050173569597494506 -0.050443177738795059 0.055705959444021548 -0.05096404015058275 -0.051188144489600622 -0.050734486572621119 0.057076675919870458 0.056255432028762299 0.056896051671454319 0.056219097475052437 -0.051530116439822075 -0.050634700936572734
leaf_weight=14.822851747274397 10.11005431413651 10.371668606996534 11.592162638902662 12.642163336277006 12.109689027071001 7.1387094259262067 11.313452064990996 7.4600620567798632 8.7295088171958941 7.2261248230934143 14.08412277698517 11.609675347805025 7.6594827175140372 7.2361078262329128 6.7739968597888929 10.240475267171858 9.0780811011791211 7.6710932850837708 7.0210155546665218 7.0546252429485312 15.495998978614809 10.853080779314039 14.983154147863386 15.201349049806593 8.379250645637514 7.2403774559497815 7.2758300602436066 7.2387024462223044 7.1924651861190796 18.879640072584152
leaf_count=45 28 30 32 37 33 20 31 22 24 20 41 35 21 20 20 28 25 23 21 21 43 32 44 45 23 20 20 20 21 56
internal_value=-0.000252859 -0.0508004 0.0566299 -0.0509341 0.0571632 0.0562871 0.0564674 -0.0506583 0.0576899 0.0553361 -0.0514908 -0.0505547 0.0565534 0.0568254 -0.0507995 0.0573052 0.0562805 -0.0504312 -0.0503114 -0.0500362 0.0560352 -0.0513156 -0.0514469 -0.0509777 0.0566265 0.0567596 0.0565765 0.0558693 -0.05123 -0.0505097
internal_weight=314.685 166.621 148.064 151.798 57.9273 90.1367 75.7719 101.506 31.0797 14.3648 50.292 88.8639 26.8476 41.445 44.299 18.97 19.1881 14.4451 44.565 18.6643 34.3269 39.9204 29.0673 29.8539 30.1316 22.8955 14.5162 22.7347 14.6525 25.9007
internal_count=901 493 408 448 159 249 209 301 85 40 147 264 74 114 131 52 53 43 133 56 95 117 85 88 83 63 40 63 43 77
is_linear=0
shrinkage=0.05


Tree=19
num_leaves=31
num_cat=0
split_feature=111 96 21 40 1 3 61 94 60 9 96 11 26 9 21 36 6 16 102 18 1 21 7 85 3 75 10 1 40 10
split_gain=10.5725 6.34924 4.75148 3.45221 3.03993 3.20181 3.08361 3.44357 2.97285 2.85542 2.51828 3.68071 3.73 3.25587 2.65264 2.3722 2.21755 1.86822 2.68633 2.34742 1.92244 3.27033 1.88736 1.79661 1.38514 1.90013 1.58327 1.44928 1.36334 2.43254
threshold=0.55000000000000016 1.0000000180025095e-35 1.6300000000000001 5.1500000000000012 0.52398175793769863 1.8168436280586777 3.1750000000000003 0.92358974358974366 5.3500000000000005 1.4542418392606768 4.5000000000000009 0.55232697083348981 1.6450000000000002 1.7285030729542912 2.0750000000000006 0.048465408349602342 0.95500693709888929 1.6500000000000001 192.50000000000003 5.3250000000000011 0.39001633773976624 2.9500000000000006 0.34808263362584396 0.58291513297985464 1.6875758735892439 2.3250000000000006 0.34614850874141945 0.26329197813529243 3.6750000000000003 0.49689652704029669
decision_type=2 2 2 2 2 2 2 2 2 2 2 2 2 2 2 2 2 2 2 2 2 2 2 2 2 2 2 2 2 2
left_child=1 -1 3 8 5 6 -3 16 -2 -10 14 13 -13 -12 -9 23 -8 18 -16 20 24 -22 -23 -4 25 -19 -27 -28 -29 -30
right_child=2 4 15 -5 -6 -7 7 10 9 -11 11 12 -14 -15 17 -17 -18 19 -20 -21 21 22 -24 -25 -26 26 27 28 29 -31
leaf_value=-0.043775637463725148 -0.030877186725407697 -0.037491759917223026 0.0028990294220934752 0.03752048658158505 0.029016828195964395 0.02564573642686066 -0.0036743438469758411 0.018599589038035196 0.029432650515317283 -0.0099005925065004836 -0.02203633415530127 -0.0027713696269638806 0.04910353764871575 0.017732058689449885 -0.017942825427290195 0.055163144418804558 0.029724424879954067 0.0076009597539865876 0.025000237943242899 -0.04336073655544051 -0.022504940659820203 0.027160907360157884 -0.0082632417789371537 0.036493573812013333 0.0057361417210013378 -0.0031833683435715365 -0.043773002955128801 -0.034054316232596603 -0.034836799125982393 -0.0034641990673992861
leaf_weight=9.535303592681883 6.4952280521392849 6.8753068149089804 6.2503887414932313 7.1992837190628043 7.5873282551765433 9.1608726382255536 8.4672645032405871 8.087140887975691 8.6413019299507159 9.9008113741874677 13.556645631790163 6.2721271216869336 7.7432993054389954 8.2964227795600873 6.6183719933032981 9.7460965216159803 12.032676339149473 6.5722022354602805 8.0973938107490522 6.1303274333477011 9.85105147957802 10.164442628622057 5.9676455855369559 10.955168128013609 6.8472349643707267 10.539133846759794 8.1668116450309736 12.913169294595717 9.4548794925212878 17.831585675477982
leaf_count=35 23 25 20 21 23 28 28 25 26 33 47 21 22 26 23 27 36 21 25 23 34 31 20 32 22 35 30 46 34 59
internal_value=0.00123117 -0.00388279 0.0199603 0.0070069 -0.00204722 -0.00322778 -0.00461637 -0.00338535 -0.00176703 0.00843014 -0.00581286 0.00588859 0.0258887 -0.00693844 -0.00911143 0.0354538 0.0159294 -0.0109922 0.00568672 -0.0133423 -0.0114704 0.000194975 0.0140567 0.0242894 -0.0156613 -0.0178989 -0.020744 -0.0245704 -0.0206693 -0.0143349
internal_weight=275.957 216.769 59.1883 32.2366 207.233 199.646 190.485 183.61 25.0373 18.5421 163.11 35.8685 14.0154 21.8531 127.241 26.9517 20.4999 119.154 14.7158 104.438 98.3082 25.9831 16.1321 17.2056 72.325 65.4778 58.9056 48.3664 40.1996 27.2865
internal_count=901 719 182 103 684 661 633 608 82 59 544 116 43 73 428 79 64 403 48 355 332 85 51 52 247 225 204 169 139 93
is_linear=0
shrinkage=0.05


Tree=20
num_leaves=31
num_cat=0
split_feature=95 95 98 7 97 105 7 60 102 95 95 97 104 95 32 57 95 40 28 95 7 7 95 102 2 7 111 104 71 3
split_gain=88.0856 195.45 0.0893813 0.00922837 0.009241 0.00466056 0.00360194 0.00218995 0.00182272 0.00095583 0.000651853 0.000507818 0.000449078 0.000389182 0.000272829 0.000251173 0.000121347 0.000108836 8.80432e-05 0.000108561 7.16626e-05 5.08009e-05 4.6494e-05 3.03e-05 2.9056e-05 2.75643e-05 1.46471e-05 1.31972e-05 1.64003e-05 1.37172e-05
threshold=1.0000000180025095e-35 -1.0000000180025095e-35 1.0000000180025095e-35 0.32548839081762754 1.0000000180025095e-35 0.01488849206349206 0.24072851541766246 2.6400000000000001 186.50000000000003 1.5000000000000002 -1.4999999999999998 1.0000000180025095e-35 0.0048090977443609115 -2.4999999999999996 4.2205994152046786 1.5400000000000003 -3.4999999999999996 4.0500000000000007 2.1930030959752327 2.5000000000000004 0.32430640902836466 0.27812402354146698 3.5000000000000004 250.50000000000003 0.40299276465536255 0.30502531167006536 0.19000000000000031 0.0089632080200501198 3.6250000000000004 1.4759478574151885
decision_type=2 2 2 2 2 2 2 2 2 2 2 2 2 2 2 2 2 2 2 2 2 2 2 2 2 2 2 2 2 2
left_child=1 10 3 4 5 7 -6 -3 -5 24 13 14 -4 16 20 -13 -1 21 -17 25 -11 -15 -21 -12 27 -20 -18 29 -29 -2
right_child=9 2 12 8 6 -7 -8 -9 -10 11 23 15 -14 17 -16 18 26 -19 19 22 -22 -23 -24 -25 -26 -27 -28 28 -30 -31
leaf_value=-0.040436021800056718 -0.040043275691390975 0.078778949359474798 0.076600873574244568 0.082396066328029663 0.080813953106997446 0.080939288322085495 0.082309547136925315 0.080003158364677571 0.081371984102879838 -0.041005922846795995 -0.040159375533854944 -0.040012649516495739 0.077124615740630939 -0.040835995501753743 -0.04040558511434289 -0.040554339525053211 -0.040086733775193145 -0.040473285794296272 -0.040575058210503723 -0.040172376296649839 -0.040727311124912798 -0.040617332793712171 -0.040363677267616471 -0.040019334847607127 -0.040209433976968308 -0.04040139415146056 -0.040215348618782766 -0.040207318648867715 -0.040076859818194505 -0.040122742291182983
leaf_weight=6.7274493873119345 12.341941371560102 7.3220869004726428 9.2173222303390521 10.115912318229677 9.0865676403045672 7.2649554610252371 7.2282012999057761 7.2904406785964966 7.6164614260196677 4.5560466200113279 24.329650014638904 4.7955889999866477 7.361779421567916 4.9469014555215853 4.9787962436676017 7.2370118200778988 4.2015047371387464 7.8404619246721259 4.394121393561365 6.990504637360571 4.6775023192167282 5.7362618893384933 5.8209220916032791 4.5914897173643103 7.4379594624042502 4.7601109147071838 4.678782194852829 5.3140688836574537 4.4068010449409485 9.697258919477461
leaf_count=31 59 20 25 28 25 20 20 20 21 20 115 23 20 22 23 33 20 36 20 33 21 26 27 22 35 22 22 25 21 46
internal_value=-0.00116691 0.0240692 0.0800577 0.0810136 0.0805759 0.0799043 0.0814766 0.0793897 0.0819562 -0.0403038 -0.0403118 -0.0404529 0.0768334 -0.0404598 -0.0407039 -0.040348 -0.0402758 -0.0406148 -0.0404031 -0.0403533 -0.0408648 -0.0407186 -0.0402593 -0.0401371 -0.0401205 -0.0404848 -0.0401545 -0.0400996 -0.0401482 -0.0400782
internal_weight=222.965 135.556 72.5037 55.9246 38.1923 21.8775 16.3148 14.6125 17.7324 87.4086 63.0525 48.2106 16.5791 34.1314 14.2123 33.9983 15.6077 18.5236 29.2027 21.9657 9.23355 10.6832 12.8114 28.9211 39.198 9.15423 8.88029 31.7601 9.72087 22.0392
internal_count=901 493 199 154 105 60 45 40 49 408 294 222 45 157 64 158 73 84 135 102 41 48 60 137 186 42 42 151 46 105
is_linear=0
shrinkage=0.05


Tree=21
num_leaves=31
num_cat=0
split_feature=95 95 109 85 96 95 58 95 96 64 57 90 6 96 6 43 3 9 9 1 7 15 30 9 95 1 96 73 6 99
split_gain=335.712 0.0157252 0.0113771 0.00735246 0.00634615 0.00524608 0.00434295 0.00454555 0.0038527 0.00370169 0.00351562 0.00335476 0.00168246 0.00166524 0.00159456 0.00149845 0.000989052 0.000960821 0.000959269 0.000835006 0.00076607 0.000761422 0.000669181 0.000663926 0.000624475 0.000589865 0.000563963 0.000374376 0.000303914 0.000258056
threshold=1.0000000180025095e-35 -1.0000000180025095e-35 3.1750000000000003 0.43498919599326336 1.5000000000000002 1.5000000000000002 4.6250000000000009 1.5000000000000002 1.5000000000000002 3.7750000000000004 1.6850000000000003 0.57543690259703095 0.96003522138617758 2.5000000000000004 0.95463453587354519 5.6250000000000009 1.2514092127459195 1.5188096036526864 1.1369658421405993 0.2821019222669493 0.30921840380813659 2.9250000000000003 4.2500000000000009 1.6001138778796233 -1.4999999999999998 0.35454686271796571 3.5000000000000004 3.9750000000000005 0.95140549327651136 4.5000000000000009
decision_type=2 2 2 2 2 2 2 2 2 2 2 2 2 2 2 2 2 2 2 2 2 2 2 2 2 2 2 2 2 2
left_child=1 3 5 10 -3 14 7 16 -5 -7 -1 -6 24 -9 20 -8 -4 -11 -15 -18 -2 -13 -20 -14 27 29 -23 -12 -21 -10
right_child=2 4 6 8 11 9 15 13 25 17 12 21 23 18 -16 -17 19 -19 22 28 -22 26 -24 -25 -26 -27 -28 -29 -30 -31
leaf_value=-0.051334286933729184 0.054418498949237976 -0.04807156504845525 0.05474816642938906 -0.050510875100564928 -0.049845456229589594 0.055194624903324122 0.053181589944042255 0.055546021228665116 -0.048853029469381887 0.05663680109573848 -0.050023371738730608 -0.048594376556653815 -0.050060344797737293 0.054321046487451785 0.055502953385719291 0.054211830921438046 0.054512167434837923 0.055933738470455609 0.055329059280276996 0.053667117237965613 0.055064166620819525 -0.048904825580708487 0.054741441127585028 -0.049391242856616134 -0.050596191225365565 -0.049480620789529299 -0.049386315060910853 -0.050477723627769033 0.054083022474097311 -0.049229030006930415
leaf_weight=7.849129229784011 12.807860851287847 14.348404496908186 7.1419283151626578 7.0653322339057913 16.602635741233826 13.984767973423002 7.0170823037624341 11.152356863021849 9.4238871634006554 9.0714679062366503 12.665746062994002 9.3652776777744275 8.0047246813774091 7.1080550253391293 7.5533369481563559 7.1011564135551453 7.8368256390094784 10.466230571269987 8.6179799437522906 8.1168768107891101 7.1634027957916251 13.337258964776995 11.066566556692122 6.9060239791870108 17.519874483346943 12.52036267518997 11.179078370332716 7.061544030904769 9.5724992454051954 8.8474497795104963
leaf_count=23 36 45 20 21 50 39 20 31 29 25 38 29 24 20 21 20 22 29 24 23 20 41 31 21 52 38 34 21 27 27
internal_value=-0.000229143 -0.0496034 0.0548753 -0.0500035 -0.0489995 0.0553957 0.0545003 0.0546604 -0.0494579 0.0558157 -0.0503477 -0.0492632 -0.0501993 0.0550326 0.0548841 0.0536998 0.054228 0.0562602 0.0548189 0.0540825 0.0546501 -0.0489779 0.0549987 -0.0497504 -0.0503789 -0.0492163 -0.0491244 -0.050186 0.0538922 -0.0490351
internal_weight=308.475 162.697 145.778 97.8641 64.8327 61.0471 84.7313 70.6131 37.857 33.5225 60.007 50.4843 52.1579 37.945 27.5246 14.1182 32.6681 19.5377 26.7926 25.5262 19.9713 33.8816 19.6845 14.9107 37.2472 30.7917 24.5163 19.7273 17.6894 18.2713
internal_count=901 493 408 294 199 170 238 198 115 93 179 154 156 106 77 40 92 54 75 72 56 104 55 45 111 94 75 59 50 56
is_linear=0
shrinkage=0.05


Tree=22
num_leaves=31
num_cat=0
split_feature=95 104 57 96 6 26 106 102 23 93 7 73 61 78 20 67 6 95 7 9 40 33 96 95 1 11 7 9 9 16
split_gain=319.511 0.0322776 0.00833909 0.00756687 0.00599699 0.00418345 0.00276285 0.00325352 0.00148906 0.00258559 0.00115921 0.00104421 0.00101482 0.000719148 0.000676571 0.000649656 0.000590216 0.000458917 0.000408065 0.000317496 0.000261116 0.000187404 0.000174599 0.000291109 0.000164309 0.000146023 0.000142037 0.000137474 0.000122535 0.000106458
threshold=-1.0000000180025095e-35 0.0084894152661064357 1.6850000000000003 1.5000000000000002 0.96046297834920058 2.4750000000000005 0.022531447368421054 144.50000000000003 3.7750000000000004 3.7523529411764707 0.31701570961889292 3.5750000000000006 3.4250000000000003 2.4750000000000005 3.7750000000000004 4.1500000000000012 0.9604818844928773 1.0000000180025095e-35 0.2939296149473854 1.6001138778796233 3.4750000000000005 3.4100000000000006 1.5000000000000002 1.0000000180025095e-35 0.35004898067079554 0.58318797865024885 0.31376127903657097 1.2208307855345752 1.3819599796018682 1.6100000000000003
decision_type=2 2 2 2 2 2 2 2 2 2 2 2 2 2 2 2 2 2 2 2 2 2 2 2 2 2 2 2 2 2
left_child=1 2 -1 -3 8 14 18 -8 9 12 -9 25 -4 -10 20 -16 17 26 -5 24 21 -2 -22 -24 -19 -7 -13 -25 -18 -17
right_child=5 3 4 6 -6 11 7 10 13 -11 -12 16 -14 -15 15 29 28 19 -20 -21 22 -23 23 27 -26 -27 -28 -29 -30 -31
leaf_value=0.06909150961268197 -0.043282962488937204 0.067224817929633293 0.068144436460690308 0.065870664056151856 0.066409842943356431 -0.043498669727889183 0.066127759291382954 0.065312005709535853 0.067723249105552885 0.066677253497807717 0.064452696418675778 -0.043840663123822073 0.06741564913170027 0.068399992285145983 -0.043296184395531678 -0.042922925706551637 -0.043990307787295901 -0.043630626923379601 0.066386105380930469 -0.043409006825765532 -0.043175668837292638 -0.042865428611680127 -0.043557337722932049 -0.04315598700744111 -0.043989829277691642 -0.043175060922168718 -0.044153165443274474 -0.043367735224208892 -0.044307685459027142 -0.042627868954848103
leaf_weight=8.6116137206554395 5.3071236312389356 8.9961518049240095 9.3674733340740257 7.4973030984401685 11.619890332221983 9.3965087831020337 7.4962773919105556 7.4953035712242118 7.4958938062191001 7.4982266426086417 8.2385492622852308 8.4664515852928144 9.7469258606433851 8.2420529127120954 9.5504974722862261 5.2028901576995832 5.7767699062824232 7.5620960295200366 7.8710728287696838 10.145061641931532 13.18971538543701 5.4442797899246216 15.88537937402725 11.32515689730644 5.4984925389289856 5.5418874919414511 6.3732285797595969 23.718090325593948 6.4222212433815002 7.4124854356050491
leaf_count=23 20 24 25 20 31 35 20 20 20 20 22 31 26 22 36 20 21 28 21 38 50 21 59 43 20 21 23 89 23 29
internal_value=0.00119226 0.0669003 0.0676466 0.0659189 0.067416 -0.0434358 0.0656146 0.0652705 0.0676921 0.0674641 0.0648621 -0.0437456 0.0677728 0.0680777 -0.0432277 -0.0429851 -0.0438548 -0.0437577 0.0661347 -0.0436189 -0.0432996 -0.0430715 -0.0433378 -0.0433798 -0.0437819 -0.0433786 -0.0439749 -0.0432993 -0.0441574 -0.0427496
internal_weight=272.395 110.177 62.5821 47.5947 53.9705 162.218 38.5985 23.2301 42.3506 26.6126 15.7339 65.1827 19.1144 15.7379 97.0356 22.1659 50.2443 38.0453 15.3684 23.2057 74.8697 10.7514 64.1183 50.9286 13.0606 14.9384 14.8397 35.0432 12.199 12.6154
internal_count=901 294 167 127 144 607 103 62 113 71 42 240 51 42 367 85 184 140 41 86 282 41 241 191 48 56 54 132 44 49
is_linear=0
shrinkage=0.05


Tree=23
num_leaves=31
num_cat=0
split_feature=95 95 96 7 96 10 7 104 95 95 95 96 0 57 0 96 95 91 96 7 102 7 96 99 10 15 10 14 10 0
split_gain=79.7875 177.983 0.0800705 0.00759798 0.00593137 0.00271809 0.00227168 0.0011726 0.000716742 0.000548869 0.000430402 0.000390338 0.000237803 0.000203857 0.000166063 0.000107517 8.37893e-05 7.81866e-05 7.31511e-05 6.19882e-05 5.86096e-05 4.04876e-05 1.87522e-05 1.86243e-05 1.80136e-05 1.46617e-05 1.30777e-05 1.57461e-05 1.08239e-05 9.54117e-06
threshold=1.0000000180025095e-35 -1.0000000180025095e-35 1.5000000000000002 0.36960159181265367 3.5000000000000004 0.52061836824888408 0.24506238850623699 0.0048090977443609115 1.5000000000000002 -1.4999999999999998 -2.4999999999999996 2.5000000000000004 0.23338009805365192 1.5400000000000003 0.21392091228403615 3.5000000000000004 -3.4999999999999996 0.70349728150932977 4.5000000000000009 0.33212321336545925 250.50000000000003 0.27812402354146698 4.5000000000000009 2.5000000000000004 0.5071846673536089 3.4000000000000004 0.39691559804343884 3.6250000000000004 0.60513726194327178 0.25867392230803338
decision_type=2 2 2 2 2 2 2 2 2 2 2 2 2 2 2 2 2 2 2 2 2 2 2 2 2 2 2 2 2 2
left_child=1 9 7 4 5 -4 -6 -3 22 10 16 12 -10 -13 -12 -15 -1 -17 24 -14 23 -16 25 -11 -19 -2 -25 -28 -18 -27
right_child=8 2 3 -5 6 -7 -8 -9 11 20 14 13 19 15 21 17 28 18 -20 -21 -22 -23 -24 26 -26 29 27 -29 -30 -31
leaf_value=-0.040176628407272784 -0.039673686092232548 0.071568635673702113 0.075582920484862315 0.077049646790071979 0.075753133133696082 0.074577694730837793 0.07685385268925761 0.072409798049591773 -0.039859276807205732 -0.039896577606598899 -0.04013588169883462 -0.039505446940314354 -0.04042817318306241 -0.039676109356305 -0.040580104324129229 -0.040059845955424153 -0.039995440990744917 -0.040020957428214286 -0.039727596458503246 -0.040159116101998474 -0.039772492817135296 -0.040407979756875559 -0.039695264735968593 -0.04005719948697456 -0.039877045000036443 -0.039556126175017081 -0.039895489995667791 -0.040013917314177701 -0.039883850531097581 -0.039617427628771067
leaf_weight=6.5641122311353675 5.4366594702005413 9.331018805503847 14.417129874229433 11.043458223342894 9.9780847132205981 12.603651016950606 8.8403722345828992 7.4519335329532614 4.9257301092147818 6.3890902549028459 4.4322998076677349 4.5457438230514517 4.3346444666385633 5.8407260030508068 6.3749849349260312 6.6998231261968639 4.3710093051195127 4.3802560418844205 6.4795281589031211 4.2295292615890503 4.477045163512229 7.3617452383041382 6.0521815568208686 5.8644462674856213 4.3178682327270508 14.312333390116693 4.7403042763471586 6.881221666932106 4.3214629888534546 11.405962124466894
leaf_count=31 27 25 39 30 27 34 24 20 24 31 21 23 20 29 29 32 21 21 32 20 22 34 30 28 21 72 23 33 21 57
internal_value=-0.00116335 0.0224885 0.0749769 0.0758723 0.0755887 0.075114 0.0762702 0.0719421 -0.0397777 -0.0401003 -0.0402376 -0.0399102 -0.0401361 -0.0398158 -0.040402 -0.0398667 -0.0400418 -0.0399176 -0.0398548 -0.0402953 -0.0399385 -0.0404879 -0.0396147 -0.0399696 -0.0399495 -0.0395991 -0.0399963 -0.0399656 -0.03994 -0.0395833
internal_weight=218.404 135.443 73.6656 56.8827 45.8392 27.0208 18.8185 16.783 82.961 61.7777 33.4256 45.7538 13.4899 32.2639 18.169 27.7182 15.2566 21.8775 15.1777 8.56417 28.3521 13.7367 37.2071 23.8751 8.69812 31.155 17.486 11.6215 8.69247 25.7183
internal_count=901 493 199 154 124 73 51 45 408 294 157 222 64 158 84 135 73 106 74 40 137 63 186 115 42 156 84 56 42 129
is_linear=0
shrinkage=0.05


Tree=24
num_leaves=31
num_cat=0
split_feature=95 96 105 104 95 96 58 95 64 24 95 57 96 6 43 7 3 9 46 9 105 9 7 52 6 9 59 102 104 110
split_gain=305.983 0.0108019 0.00935612 0.00751208 0.00468944 0.00339302 0.00333783 0.00318924 0.00305701 0.00281323 0.00181813 0.00152182 0.00129255 0.00122523 0.00115647 0.000750752 0.00069734 0.000876415 0.000633058 0.000626729 0.000598753 0.000549785 0.000484822 0.000409423 0.000386736 0.000358555 0.000323428 0.000311011 0.000298956 0.000267712
threshold=1.0000000180025095e-35 1.0000000180025095e-35 0.0076053746498599504 0.001847368421052631 1.5000000000000002 1.5000000000000002 4.6250000000000009 1.5000000000000002 3.7750000000000004 3.2280542986425345 -1.0000000180025095e-35 1.6850000000000003 2.5000000000000004 0.95463453587354519 5.6250000000000009 0.24214775567657712 1.2514092127459195 1.7414543853379578 3.5500000000000003 1.5188096036526864 0.0091221428571428651 1.1369658421405993 0.30764992375302141 4.5500000000000007 0.95180811928056575 1.6833901127944249 5.9000000000000012 131.50000000000003 0.0012151163164321056 4.2500000000000009
decision_type=2 2 2 2 2 2 2 2 2 2 2 2 2 2 2 2 2 2 2 2 2 2 2 2 2 2 2 2 2 2
left_child=1 -1 4 11 13 -5 7 16 -6 10 18 -3 -9 22 -8 -11 -4 27 -7 -10 -12 -14 -2 25 -20 -17 28 -18 -13 -23
right_child=2 3 6 5 8 9 14 12 19 15 20 26 21 -15 -16 23 17 -19 24 -21 -22 29 -24 -25 -26 -27 -28 -29 -30 -31
leaf_value=-0.046894638573886031 0.052479181598213992 -0.049559356234178266 0.052779123638395598 -0.048954755880297254 0.05320433923065894 -0.04812800871128374 0.051388077497244868 0.053464657200079604 0.054525532518808609 -0.04751303415984539 -0.047749432671997515 -0.048478704267917477 0.052437810418850518 0.053441257911618946 0.052304607821286923 -0.048205721937462948 0.052306930549586975 0.05269564433604719 -0.048494120675784978 0.053937041702463856 -0.048247761163422456 0.05312436817252713 0.053007334204861589 -0.047608166156054225 -0.048899004618258052 -0.047784426124354767 -0.049101979885133325 0.051886629917775179 -0.048913607755323822 0.052772928679925994
leaf_weight=13.87375897169113 11.462542474269872 9.5683310925960559 6.9779692888259879 12.048899382352827 12.276676118373873 6.3818340599536922 6.8362989723682386 10.909173071384428 8.9022660851478594 16.949720084667206 12.637861847877504 8.3708039224147814 6.9428221881389645 7.3894823789596549 6.9314404726028442 13.106642127037054 6.9324891865253511 6.9695453047752371 12.237809240818025 9.199346184730528 11.524500101804732 10.863336175680162 6.9978075623512259 7.2380640506744376 11.38439956307411 8.216319799423216 6.5361052453517905 12.055531442165373 7.4846965670585623 10.812163531780241
leaf_count=45 33 29 20 37 35 20 20 31 25 54 40 26 20 21 20 41 20 20 38 26 36 31 20 23 35 26 20 35 23 31
internal_value=-0.000213057 -0.048227 0.0528904 -0.0483556 0.0533922 -0.0481622 0.0525632 0.0526988 0.0538134 -0.0480664 -0.0483099 -0.0490316 0.0530016 0.0528972 0.0518495 -0.0477766 0.0523354 0.0522161 -0.0485699 0.0542265 -0.0479871 0.052825 0.0526794 -0.0479331 -0.0486892 -0.0480434 -0.048806 0.0520401 -0.048684 0.0529491
internal_weight=300.019 157.56 142.459 143.686 56.2281 111.726 86.2308 72.463 30.3783 99.6772 54.1664 31.9599 39.5275 25.8498 13.7677 45.5107 32.9355 25.9576 30.004 18.1016 24.1624 28.6183 18.4604 28.561 23.6222 21.323 22.3916 18.988 15.8555 21.6755
internal_count=901 493 408 448 160 350 248 208 86 313 169 98 113 74 40 144 95 75 93 51 76 82 53 90 73 67 69 55 49 62
is_linear=0
shrinkage=0.05


Tree=25
num_leaves=31
num_cat=0
split_feature=95 104 67 98 26 37 76 106 102 102 95 7 112 102 95 36 20 0 22 98 7 42 23 93 3 11 29 104 51 10
split_gain=289.448 0.0233459 0.0060526 0.00543221 0.00344192 0.00291175 0.002867 0.00203128 0.00241235 0.00148207 0.00100357 0.000869846 0.000821238 0.000964106 0.000669908 0.000514514 0.000505162 0.000405575 0.000364839 0.000327601 0.000300283 0.000250335 0.000244968 0.000205791 0.000188453 0.000144505 0.000142587 0.00013711 0.000215102 0.000168768
threshold=-1.0000000180025095e-35 0.0084894152661064357 3.9750000000000005 1.0000000180025095e-35 2.4750000000000005 15.500000000000002 3.9500000000000006 0.022531447368421054 144.50000000000003 217.50000000000003 1.0000000180025095e-35 0.31701570961889292 0.39999999999999974 130.50000000000003 1.0000000180025095e-35 0.041561115663657507 3.8500000000000001 0.2729612520560708 1.6050000000000002 1.0000000180025095e-35 0.2939296149473854 1.6300000000000001 3.5500000000000003 3.9290247678018582 1.2046134675692406 0.48385138549013024 2.5900000000000003 0.0015578947368421066 3.1500000000000008 0.48343180969055266
decision_type=2 2 2 2 2 2 2 2 2 2 2 2 2 2 2 2 2 2 2 2 2 2 2 2 2 2 2 2 2 2
left_child=1 2 5 7 14 -1 -4 20 -9 12 22 -10 13 -7 19 -12 24 21 -18 -2 -3 -17 -6 -23 -16 -24 -19 29 -29 -26
right_child=4 3 6 -5 10 9 -8 8 11 -11 15 -13 -14 -15 16 17 18 26 -20 -21 -22 23 25 -25 27 -27 -28 28 -30 -31
leaf_value=0.063028986489593486 -0.042818105796991447 0.062423184167510318 0.065440474994584316 0.063569747073747837 -0.042990390681133105 0.063885133072205988 0.064133304690156143 0.062646947226594016 0.061945160702758961 0.064513265822688889 -0.043243472104653617 0.061198515717411223 0.064101287165302487 0.063101675861341522 -0.042731358924106115 -0.04268637788449018 -0.041907959452050753 -0.042377418122487943 -0.042393256562643221 -0.042433189217957752 0.062866254438408112 -0.042837325606162387 -0.04349476640445292 -0.043260299066774616 -0.042396639636922737 -0.043203375014149809 -0.042723727380266516 -0.042568192834099065 -0.042266728250484192 -0.042712354605267296
leaf_weight=13.822199016809462 20.41412149369717 7.4635793268680555 7.8695642352104214 8.9750423431396467 6.7881724834442165 7.8587580323219353 8.9828497469425184 7.465551674366 7.4548051953315726 7.4880942106246939 6.3518302142620078 8.1822479963302595 8.6086463034152967 7.8482818305492401 7.455592304468154 8.7105435431003588 7.0749793499708167 7.0465488433837873 8.5566963702440244 7.5804593861103049 7.842047393321991 5.953986853361128 8.3121735155582446 5.562044084072113 7.8079590201377895 8.7162482440471631 5.1406935602426529 9.6732044368982333 15.238666608929632 9.2447683215141279
leaf_count=37 79 20 21 24 26 21 24 20 20 20 24 22 23 21 29 34 29 28 34 30 21 23 31 21 31 33 20 38 61 36
internal_value=0.00116188 0.0632992 0.063934 0.0624623 -0.0427022 0.0636349 0.0647437 0.0622035 0.0619075 0.0638982 -0.0429889 0.0615545 0.0637088 0.0634937 -0.0425094 -0.042832 -0.0424214 -0.0427513 -0.0421736 -0.0427139 0.0626502 -0.0428886 -0.0432444 -0.0430416 -0.0424997 -0.0433456 -0.0425235 -0.0424586 -0.0423838 -0.0425678
internal_weight=265.49 109.862 62.4784 47.3833 155.629 45.626 16.8524 38.4082 23.1026 31.8038 62.5822 15.6371 24.3157 15.707 93.0464 38.7656 65.0519 32.4138 15.6317 27.9946 15.3056 20.2266 23.8166 11.516 49.4202 17.0284 12.1872 41.9646 24.9119 17.0527
internal_count=901 294 167 127 607 122 45 103 62 85 240 42 65 42 367 150 258 126 63 109 41 78 90 44 195 64 48 166 99 67
is_linear=0
shrinkage=0.05


Tree=26
num_leaves=31
num_cat=0
split_feature=95 95 96 7 96 0 7 102 104 95 95 95 96 0 57 34 96 95 28 7 102 96 7 7 9 9 96 15 34 23
split_gain=73.5677 159.375 0.0573549 0.0054764 0.00491124 0.00245446 0.00106905 0.000935744 0.00084631 0.000587404 0.000446885 0.000356518 0.000323748 0.000196396 0.000168905 0.00014588 8.78652e-05 6.71441e-05 5.2627e-05 5.17926e-05 4.83533e-05 4.29807e-05 3.02686e-05 2.33934e-05 2.1303e-05 1.84706e-05 1.65534e-05 1.26046e-05 8.30756e-06 1.06065e-05
threshold=1.0000000180025095e-35 -1.0000000180025095e-35 1.5000000000000002 0.32548839081762754 3.5000000000000004 0.26468315003165871 0.24072851541766246 186.50000000000003 0.0048090977443609115 1.5000000000000002 -1.4999999999999998 -2.4999999999999996 2.5000000000000004 0.23338009805365192 1.5400000000000003 4.2250000000000005 3.5000000000000004 -3.4999999999999996 2.204869281045752 0.33212321336545925 250.50000000000003 4.5000000000000009 0.27812402354146698 0.31904528517432323 1.5098911805969955 1.9286590616904506 4.5000000000000009 3.4000000000000004 3.5250000000000004 4.1000000000000005
decision_type=2 2 2 2 2 2 2 2 2 2 2 2 2 2 2 2 2 2 2 2 2 2 2 2 2 2 2 2 2 2
left_child=1 10 8 4 5 -4 -6 -5 -3 26 11 17 13 -11 -14 22 -16 -1 -18 -15 24 23 -13 -20 -12 -26 27 -2 -29 -30
right_child=9 2 3 7 6 -7 -8 -9 -10 12 20 15 14 19 16 -17 18 -19 21 -21 -22 -23 -24 -25 25 -27 -28 28 29 -31
leaf_value=-0.039762499156153389 -0.039255455487782642 0.067328406158828652 0.07068461318852047 0.071985351184910604 0.070917521674360579 0.0696381068854071 0.071720232230130618 0.071262539968974567 0.068041119688011201 -0.039426485839502055 -0.039526509828706098 -0.040132851408598014 -0.039096159741927899 -0.039956260019786076 -0.039256503380098284 -0.039710710108783076 -0.039625206511985665 -0.039546179680757319 -0.039599910217766536 -0.039704626530199183 -0.039391728521447296 -0.03934559380992303 -0.039982288384677114 -0.039436880690050156 -0.039674894282571732 -0.039545052899876761 -0.039277151992793677 -0.039200282550432751 -0.039090668990465503 -0.039182089565073852
leaf_weight=6.2959579080343238 5.1867943108081844 9.3740942478179949 10.836227357387545 10.440290778875353 9.3399899303913134 11.601426512002943 7.4613023102283469 7.8400591909885398 7.4959352612495413 4.7005738466978064 11.491702497005468 6.3264298141002673 4.3335717916488674 4.1421874165534955 5.5714747011661556 4.0427181273698798 4.8037220537662533 8.3377503752708417 3.9921770393848437 4.0387030094861984 4.2941217124462119 7.1796262413263312 7.066780149936676 4.9025713950395584 6.8468357324600202 4.5653574168682098 5.7753200978040686 11.639732465147974 5.6497475355863553 7.2361646145582199
leaf_count=31 27 25 29 28 25 31 20 21 20 24 58 30 23 20 29 20 24 42 20 20 22 37 34 25 34 23 30 61 30 38
internal_value=-0.00114914 0.0214741 0.0702087 0.0709606 0.0706276 0.0701435 0.071274 0.0716754 0.0676451 -0.0393508 -0.0396948 -0.0398212 -0.0394736 -0.039684 -0.0393855 -0.0399739 -0.0394329 -0.0396392 -0.03948 -0.039832 -0.0395457 -0.0394366 -0.0400534 -0.0395101 -0.0395746 -0.039623 -0.0391997 -0.0391846 -0.0391697 -0.039142
internal_weight=212.809 133.657 74.3893 57.5193 39.2389 22.4377 16.8013 18.2803 16.87 79.1524 59.2677 32.0696 43.6646 12.8815 30.7831 17.4359 26.4496 14.6337 20.8781 8.18089 27.198 16.0744 13.3932 8.89475 22.9039 11.4122 35.4878 29.7124 24.5256 12.8859
internal_count=901 493 199 154 105 60 45 49 45 408 294 157 222 64 158 84 135 73 106 40 137 82 64 45 115 57 186 156 129 68
is_linear=0
shrinkage=0.05


Tree=27
num_leaves=31
num_cat=0
split_feature=95 96 105 112 95 96 20 64 95 104 96 66 56 95 6 67 9 66 71 96 95 9 3 9 96 40 104 67 47 102
split_gain=279.518 0.00796735 0.00716574 0.00602025 0.00367365 0.00284457 0.00258702 0.00227295 0.00184442 0.0016306 0.00127493 0.00123962 0.00123499 0.000949972 0.000937159 0.00060599 0.0004813 0.000452961 0.000425187 0.000383767 0.00038011 0.00037502 0.000337369 0.000442738 0.000329211 0.000315226 0.000275158 0.000244784 0.000235599 0.000208109
threshold=1.0000000180025095e-35 1.0000000180025095e-35 0.0073756127450980502 0.46000000000000002 1.5000000000000002 1.5000000000000002 3.9500000000000006 3.7750000000000004 1.5000000000000002 0.01025906432748539 2.5000000000000004 1.4150000000000003 4.8750000000000009 -1.0000000180025095e-35 0.95463453587354519 3.6750000000000003 1.5188096036526864 1.6950000000000001 2.5250000000000004 2.5000000000000004 -1.0000000180025095e-35 1.6033494619650559 1.2485369579196406 1.7361416285192626 3.5000000000000004 3.7750000000000004 0.098190476190476175 4.0500000000000007 4.4500000000000011 130.50000000000003
decision_type=2 2 2 2 2 2 2 2 2 2 2 2 2 2 2 2 2 2 2 2 2 2 2 2 2 2 2 2 2 2
left_child=1 -1 4 5 14 -3 8 -6 22 13 -10 -8 20 15 21 -7 -9 -12 -15 28 27 -2 -4 29 -21 -19 -26 -5 -11 -24
right_child=2 3 6 12 7 9 11 16 10 19 17 -13 -14 18 -16 -17 -18 25 -20 24 -22 -23 23 -25 26 -27 -28 -29 -30 -31
leaf_value=-0.045827229241958853 0.051168891961872999 -0.047639133554759315 0.051020322810679489 -0.04743869159517361 0.051419354188457278 -0.047478405215768099 0.049861505758703489 0.052584811933066293 0.051725949682729339 -0.04617810796266774 0.050805023431378854 0.050705979393914774 -0.048105188458115074 -0.047105377478437974 0.051620691383305342 -0.046972170230855252 0.052062834388196824 0.050988613047977263 -0.046608306637445696 -0.046910717817826568 -0.047202372129627829 0.050711924057893813 0.05070162856737942 0.050965995548770064 -0.046739989495458316 0.05144770679732652 -0.046344294824006149 -0.047787638455688827 -0.046572512800397217 0.050352606174353547
leaf_weight=13.384235501289366 9.190589249134069 11.336761832237242 6.7916581034660366 12.213425904512407 11.620612144470217 11.912481278181078 8.3085120916366595 8.6944317221641558 9.6186752021312696 7.5252151489257795 10.822566807270052 9.1111799180507642 9.8820198178291303 6.2019045054912594 7.2026253938674918 11.73505252599716 8.9749466180801374 7.1265905201435071 14.044526338577269 10.480021595954897 9.6432833969593066 8.777902275323866 7.0921011269092622 6.7855264544486991 9.5013552010059374 7.8660150468349457 8.1722279787063581 8.5399410128593427 7.6211079061031342 10.736774802207945
leaf_count=45 27 36 20 39 34 38 25 25 28 25 32 27 31 20 21 38 26 21 46 34 31 26 21 20 31 23 27 27 25 32
internal_value=-0.000200968 -0.0469923 0.0511348 -0.0471046 0.0515818 -0.0468941 0.0508459 0.0519625 0.0509873 -0.0467972 0.0512346 0.0503032 -0.0476196 -0.047012 0.0511388 -0.0472272 0.0523197 0.0510515 -0.0467606 -0.0465795 -0.0474618 0.0509457 0.0507083 0.0506223 -0.0466887 0.0512295 -0.046557 -0.0475823 -0.0463766 0.0504914
internal_weight=290.914 152.194 138.721 138.809 54.4611 98.5307 84.2596 29.29 66.8399 87.1939 35.4338 17.4197 40.2787 43.894 25.1711 23.6475 17.6694 25.8152 20.2464 43.2999 30.3967 17.9685 31.4061 24.6144 28.1536 14.9926 17.6736 20.7534 15.1463 17.8289
internal_count=901 493 408 448 159 320 249 85 197 284 104 52 128 142 74 76 51 76 66 142 97 53 93 73 92 44 58 66 50 53
is_linear=0
shrinkage=0.05


Tree=28
num_leaves=31
num_cat=0
split_feature=95 104 57 96 6 26 10 106 102 95 3 95 95 6 20 106 0 21 96 3 42 11 30 3 109 104 51 10 11 94
split_gain=263.106 0.0171295 0.00439738 0.00394063 0.00335629 0.00282547 0.00233617 0.00150991 0.00181426 0.00121021 0.00095758 0.000938338 0.000573054 0.000414079 0.000407192 0.000369598 0.000328448 0.000295039 0.000288851 0.000218928 0.000203779 0.000198894 0.000182085 0.000151312 0.000114691 0.000110563 0.000172574 0.000136244 0.000106653 0.000103241
threshold=-1.0000000180025095e-35 0.0084894152661064357 1.6850000000000003 1.5000000000000002 0.96046297834920058 2.4750000000000005 0.39113058739113576 0.022531447368421054 144.50000000000003 1.0000000180025095e-35 1.2841937693757075 1.0000000180025095e-35 -1.4999999999999998 0.9604818844928773 3.8500000000000001 0.045361973684210535 0.2729612520560708 5.3750000000000009 1.5000000000000002 1.3739603758183254 1.6300000000000001 0.51063547339226523 1.9350000000000003 1.2046134675692406 2.5900000000000003 0.0015578947368421066 3.1500000000000008 0.48343180969055266 0.41806300132424651 1.7090079365079365
decision_type=2 2 2 2 2 2 2 2 2 2 2 2 2 2 2 2 2 2 2 2 2 2 2 2 2 2 2 2 2 2
left_child=1 2 -1 -3 6 11 -4 19 -9 21 -8 18 -12 16 23 -10 20 -16 -2 -5 -11 -7 -22 -13 -18 27 -27 -25 -20 -23
right_child=5 3 4 7 -6 9 10 8 15 13 12 14 -14 -15 17 -17 24 -19 28 -21 22 29 -24 25 -26 26 -28 -29 -30 -31
leaf_value=0.061808908174524703 -0.04182539670829067 0.060438008021969497 0.061444996608136682 0.059850737401102638 0.059830688641178478 -0.042717002025686679 0.060235305609249015 0.059656758342064402 0.05845959476569014 -0.041980714749250941 0.061072832736702012 -0.04202519811038169 0.060528095152867147 -0.042492419282663646 -0.041715367445118508 0.058948609254796003 -0.041697227565796496 -0.041268750803520778 -0.042021472582554127 0.059470566436853257 -0.04249170427738351 -0.042269780120787748 -0.042082994881822183 -0.041718174150192397 -0.042014948239105399 -0.041875428915104131 -0.041599196421909068 -0.042008328917063679 -0.042272752196151939 -0.042578333254875235
leaf_weight=8.5683698356151563 7.2812371402978924 8.9004665911197645 10.420206218957899 7.3993389606475812 11.467405438423155 12.06842362880707 12.230475157499315 7.3925595581531551 7.7186907231807691 8.325758129358297 9.6651490926742518 7.128786474466323 9.6465986073017156 6.0794719457626334 8.1753108352422696 7.7369377911090851 6.7307205200195295 6.7518271356821051 6.1464956104755428 7.756637305021286 6.0785918384790403 5.4965130537748319 4.9396244585514069 7.4601130336523083 4.914206326007843 9.2456078082323092 14.555597424507139 8.839544862508772 13.492198601365088 5.349557101726532
leaf_count=23 30 24 28 20 31 47 33 20 21 34 26 29 26 24 34 21 28 29 25 21 24 22 20 31 20 38 61 36 54 21
internal_value=0.00113509 0.0602119 0.0607574 0.059491 0.0605888 -0.0420264 0.0607959 0.0592692 0.0590125 -0.0422917 0.0605815 -0.0418478 0.0608007 -0.0421151 -0.041741 0.0587044 -0.0420411 -0.0415134 -0.0420944 0.0596562 -0.0421674 -0.0425774 -0.0423085 -0.0418129 -0.0418313 -0.0417752 -0.0417065 -0.0418755 -0.0421941 -0.042422
internal_weight=257.962 108.903 61.9982 46.9046 53.4298 149.06 41.9624 38.0042 22.8482 59.9829 31.5422 89.0767 19.3117 37.0684 62.1568 15.4556 30.9889 14.9271 26.9199 15.156 19.344 22.9145 11.0182 47.2296 11.6449 40.1009 23.8012 16.2997 19.6387 10.8461
internal_count=901 294 167 127 144 607 113 103 62 240 85 367 52 150 258 42 126 63 109 41 78 90 44 195 48 166 99 67 79 43
is_linear=0
shrinkage=0.05


Tree=29
num_leaves=31
num_cat=0
split_feature=95 95 96 104 9 75 106 104 95 106 95 95 96 0 57 0 96 91 95 96 102 96 9 9 96 15 9 0 23 58
split_gain=67.9272 143.442 0.0416145 0.00340067 0.00229607 0.00211033 0.00132717 0.000618743 0.000480889 0.0004477 0.000363689 0.000295558 0.000267615 0.000161806 0.000139728 0.00012077 7.17238e-05 5.59925e-05 5.36011e-05 4.81336e-05 3.9977e-05 2.26134e-05 1.80067e-05 1.53917e-05 1.44778e-05 1.07983e-05 8.8012e-06 7.00387e-06 1.10602e-05 8.35059e-06
threshold=1.0000000180025095e-35 -1.0000000180025095e-35 1.5000000000000002 0.0019468421052631615 1.0539340109821143 2.2750000000000004 0.016395833333333328 0.0048090977443609115 1.5000000000000002 0.0089186988304093603 -1.4999999999999998 -2.4999999999999996 2.5000000000000004 0.23520704577120893 1.5400000000000003 0.21392091228403615 3.5000000000000004 0.70349728150932977 -3.4999999999999996 4.5000000000000009 250.50000000000003 3.5000000000000004 1.5098911805969955 1.9286590616904506 4.5000000000000009 3.4000000000000004 1.3862935943458303 0.25867392230803338 4.1000000000000005 3.4500000000000006
decision_type=2 2 2 2 2 2 2 2 2 2 2 2 2 2 2 2 2 2 2 2 2 2 2 2 2 2 2 2 2 2
left_child=1 10 7 -4 -5 -6 9 -3 24 -7 11 18 13 -10 -14 -13 -16 -18 -1 26 22 -17 -12 -24 25 -2 -19 28 -27 -29
right_child=8 2 3 4 5 6 -8 -9 12 -11 20 15 14 -15 16 21 17 19 -20 -21 -22 -23 23 -25 -26 27 -28 29 -30 -31
leaf_value=-0.039367592990763811 -0.038864323692091599 0.063715897983548569 0.067625892858720116 0.067410307287467178 0.067207101952547907 0.066269448184651109 0.066675926135732408 0.064325737831044255 -0.039029744237723485 0.065775654520604229 -0.039152077435253042 -0.03932952308865019 -0.038713709025971293 -0.039403555518179305 -0.038864280168078462 -0.039700229817066439 -0.039197287540044264 -0.039042871035689528 -0.039170076264283961 -0.038907143758848871 -0.039027333561775887 -0.039564917894908992 -0.039291124346504717 -0.039170012965530604 -0.038885806033421622 -0.038708073096325846 -0.039148356308040172 -0.038764338833897356 -0.038800695260741133 -0.038854500462303376
leaf_weight=6.0283138751983643 4.9421872943639782 9.3548928797245043 10.493470966815947 7.8726680576801291 7.8728828430175772 8.996975272893911 13.120908260345457 7.4889493286609641 4.6711094826459867 9.3716428875923139 11.00425229966641 4.0687569379806545 4.1262498050928142 7.6128379702568054 5.3079996854066875 7.2665582299232465 6.1001425683498409 3.9297611564397794 7.9839770346879977 5.8886331170797348 4.1115369200706473 5.3691335171461105 6.5586702376604062 4.3721309304237366 5.5040800869464865 5.9171681404113787 3.9802282303571701 4.6972222626209241 7.0790792107582092 5.6657359749078751
leaf_count=31 27 25 28 21 21 24 35 20 25 25 58 21 23 39 29 36 32 21 42 32 22 27 34 23 30 33 21 26 39 31
internal_value=-0.00113343 0.0205845 0.0661737 0.0668117 0.0666308 0.0664749 0.0662919 0.063987 -0.0389517 0.0660175 -0.0393078 -0.0394244 -0.0390655 -0.0392614 -0.0389834 -0.0395664 -0.0390276 -0.0390711 -0.0392551 -0.0390154 -0.0391704 -0.0396427 -0.0391972 -0.0392427 -0.0388116 -0.0387972 -0.039096 -0.038783 -0.0387585 -0.0388136
internal_weight=206.758 131.336 74.5724 57.7285 47.2351 39.3624 31.4895 16.8438 75.4224 18.3686 56.7633 30.7167 41.617 12.2839 29.333 16.7044 25.2068 19.8988 14.0123 13.7986 26.0466 12.6357 21.9351 10.9308 33.8055 28.3014 7.90999 23.3592 12.9962 10.363
internal_count=901 493 199 154 126 105 84 45 408 49 294 157 222 64 158 84 135 106 73 74 137 63 115 57 186 156 42 129 72 57
is_linear=0
shrinkage=0.05


Tree=30
num_leaves=31
num_cat=0
split_feature=96 105 56 11 73 91 94 94 10 99 10 55 13 11 9 9 111 20 1 111 10 83 74 3 106 96 11 64 9 100
split_gain=11.2519 8.19354 2.49519 2.78075 2.18692 2.74138 1.77872 1.6954 1.6308 1.59488 1.50579 1.4752 1.4515 1.44067 1.24591 2.81672 1.5887 2.91988 1.85109 1.31825 1.77211 1.24131 1.19484 1.20215 1.79085 1.13363 1.60023 1.09518 0.97875 0.741823
threshold=1.0000000180025095e-35 0.0073756127450980502 5.2500000000000009 0.23459391645714117 3.2750000000000004 0.81169156551509503 1.5365546218487396 1.213529411764706 0.26888952179909875 9.5000000000000018 0.69061368919520694 3.5500000000000003 3.4750000000000005 0.74238974273568414 1.9085358037923268 1.7501952153266347 0.105 3.7750000000000004 0.3678720399264846 0.14000000000000004 0.43296055259587224 1.0488293866433598 3.0500000000000003 1.5469357995627753 0.015231758241758252 2.5000000000000004 0.47944341512616379 3.9250000000000003 1.3899480796231261 3.5000000000000004
decision_type=2 2 2 2 2 2 2 2 2 2 2 2 2 2 2 2 2 2 2 2 2 2 2 2 2 2 2 2 2 2
left_child=-1 4 3 -3 -2 8 7 -5 12 10 13 -8 -6 22 15 16 18 19 21 -18 -21 -13 23 24 -10 -11 -27 -16 -4 -30
right_child=1 2 28 6 5 -7 11 -9 9 25 -12 14 -14 -15 27 -17 17 -19 -20 20 -22 -23 -24 -25 -26 26 -28 -29 29 -31
