tree
version=v4
num_class=3
num_tree_per_iteration=3
label_index=0
max_feature_idx=50
objective=multiclass num_class:3
feature_names=season_id round_id true_prob_draw prob_ratio_draw_away prob_ratio_home_draw bookmaker_margin market_efficiency uncertainty_index odds_draw recent_form_home recent_form_away avg_home_odds max_home_odds min_home_odds implied_prob_home avg_away_odds max_away_odds min_away_odds implied_prob_away avg_draw_odds max_draw_odds min_draw_odds implied_prob_draw market_margin bookmaker_count prob_home prob_away prob_draw total_prob true_prob_home true_prob_away odds_spread home_big_club away_big_club big_club_match big_club_clash home_team_frequency away_team_frequency month day_of_week hour is_weekend is_evening is_midweek is_winter is_spring is_christmas season_month season_progress season_encoded form_differential
feature_infos=[-1.7777326383158225:0.56138925420499608] [-1.7790947671790938:0.56016617975918503] [-1.7337840715890769:1.3897967014438128] [-1.2504028136919654:1.9408441971397827] [-0.55307467559206791:1.2710547914240369] [-1.6729945803458093:2.4160008477309161] [-2.3662989510348096:1.6688961289549111] [-1.8330022827255108:0.99241071842237238] [-1.8492828314407688:3.6179615998440431] [-2.5252028048002302:2.5955998214383369] [-2.5397400352087898:2.448814673521289] [-0.75808005680845769:3.3430366885400726] [-0.67556217416528053:3.2235711132116944] [-0.80238334428150293:3.3237500372574824] [-1.5184418177804295:1.7656027759086712] [-0.38803991743934252:1.0048038278216695] [-0.2087646717869408:0.36502457538700211] [-0.71326224888959855:1.9539007149840195] [-1.3912500408781272:1.950557519687492] [-0.5368128526581829:0.8984141553992212] [-0.44097956136262351:0.70934474408991222] [-0.95140263839123718:2.2843038124944681] [-1.7475726576174244:1.365082949350191] [-1.6153298247002572:2.3457844516166118] [-1.9170209572069969:0.4438422905848719] [-1.51844181778043:1.7656027759086708] [-1.3917362458800924:1.9508824424043476] [-1.7475726576174235:1.3650829493501908] [-1.6729945803458268:2.4160008477308978] [-1.5135483160184695:1.7671245253099157] [-1.3913295643070822:1.9732691240600471] [-0.49492971334808827:0.86621910559915416] [-0.58292504542101176:1.712055448362499] [-0.5706202126245643:1.7489741476378922] [-0.89998389679635582:1.1089087299812239] none [-4.7365956507100098:0.57462330833047492] [-4.4279295612735661:0.61067940694851619] [0.1846288666934538:1.0015707547175861] [-2.8910870368163826:0.82496313904015017] [-1.850600615290628:2.0609554057557915] none none none none none none [-1.3817760312573837:-0.32698516770212888] [-1.3817760312573837:-0.32698516770212871] none [-2.4424997358560168:2.7213734312551763]
tree_sizes=563 552 558 567 573 470 566 573 571 466 573 573 575 671 572 568 674 563 567 672 572 568 673 571 681 569 572 567 674 667 675 565 674 568 564 674 572 568 665 675 569 574 574 563 673 570 678 669 569 677 568 571 679 668 573 679 573 574 679 572 676 674 669

Tree=0
num_leaves=4
num_cat=0
split_feature=33 32 50
split_gain=5.86237 4.55478 2.20168
threshold=1.0000000180025095e-35 1.0000000180025095e-35 -0.048669770011462339
decision_type=2 2 2
left_child=1 2 -1
right_child=-2 -3 -4
leaf_value=-0.80534803603007221 -0.85151549316197794 -0.7802959275088831 -0.83887931974304852
leaf_weight=9.979199945926668 10.348799943923948 9.979199945926668 9.6095999479293805
leaf_count=27 28 27 26
internal_value=-0.819127 -0.807791 -0.821797
internal_weight=39.9168 29.568 19.5888
internal_count=108 80 53
is_linear=0
shrinkage=1


Tree=1
num_leaves=4
num_cat=0
split_feature=33 8 8
split_gain=12.5596 2.6288 0.700146
threshold=1.0000000180025095e-35 -0.06933576098205034 0.80148283118584762
decision_type=2 2 2
left_child=1 -1 -3
right_child=-2 2 -4
leaf_value=-1.0613538999638121 -1.0105437421092931 -1.1034036857744487 -1.0809771333421092
leaf_weight=13.24959996342659 9.5125333070754987 7.1343999803066254 6.7946666479110718
leaf_count=39 28 21 20
internal_value=-1.05999 -1.0773 -1.09246
internal_weight=36.6912 27.1787 13.9291
internal_count=108 80 41
is_linear=0
shrinkage=1


Tree=2
num_leaves=4
num_cat=0
split_feature=40 34 50
split_gain=4.45221 4.30415 3.60614
threshold=-0.76405727611106666 -1.0000000180025095e-35 -0.03335636124145664
decision_type=2 2 2
left_child=-1 2 -2
right_child=1 -3 -4
leaf_value=-1.5108788554333716 -1.5674099849921779 -1.5821793792012353 -1.5095502742451505
leaf_weight=6.5450666546821621 5.0346666574478176 9.8175999820232374 5.7898666560649863
leaf_count=26 20 39 23
internal_value=-1.54681 -1.55821 -1.53646
internal_weight=27.1872 20.6421 10.8245
internal_count=108 82 43
is_linear=0
shrinkage=1


Tree=3
num_leaves=4
num_cat=0
split_feature=32 9 14
split_gain=5.37217 4.39532 3.00349
threshold=1.0000000180025095e-35 0.33196123150456297 0.33305131791368653
decision_type=2 2 2
left_child=1 2 -1
right_child=-2 -3 -4
leaf_value=-0.015923638842881487 0.029343034725279344 -0.037845300715283553 0.024820180325068272
leaf_weight=9.2259715199470573 12.240650385618208 9.569611191749571 8.873590409755705
leaf_count=25 33 26 24
internal_value=0.00176263 -0.0104388 0.00405165
internal_weight=39.9098 27.6692 18.0996
internal_count=108 75 49
is_linear=0
shrinkage=0.05


Tree=4
num_leaves=4
num_cat=0
split_feature=33 8 50
split_gain=11.1315 2.5261 0.731011
threshold=1.0000000180025095e-35 -0.06933576098205034 -0.11365489550623858
decision_type=2 2 2
left_child=1 -1 -3
right_child=-2 2 -4
leaf_value=-0.001484874901792453 0.045295849859832045 -0.020271505288130556 -0.043340340975812908
leaf_weight=13.189359217882156 9.722881078720091 6.6887457668781263 7.0575454533100146
leaf_count=39 28 20 21
internal_value=-0.000563191 -0.0171168 -0.0321154
internal_weight=36.6585 26.9357 13.7463
internal_count=108 80 41
is_linear=0
shrinkage=0.05


Tree=5
num_leaves=3
num_cat=0
split_feature=10 34
split_gain=4.26124 2.63937
threshold=-0.44778276157202218 -1.0000000180025095e-35
decision_type=2 2
left_child=-1 -2
right_child=1 -3
leaf_value=0.024845039676703842 0.0026021699357996844 -0.036247118324460606
leaf_weight=9.6481692194938677 8.8701930493116397 8.6211333423852903
leaf_count=38 35 35
internal_value=-0.00183129 -0.0165459
internal_weight=27.1395 17.4913
internal_count=108 70
is_linear=0
shrinkage=0.05


Tree=6
num_leaves=4
num_cat=0
split_feature=32 9 13
split_gain=4.92321 4.11825 2.7881
threshold=1.0000000180025095e-35 0.33196123150456297 -0.56754860292072573
decision_type=2 2 2
left_child=1 2 -1
right_child=-2 -3 -4
leaf_value=0.023916984508339276 0.028016747370908587 -0.036683871171742218 -0.015339385934270425
leaf_weight=8.895962983369829 12.27741292119026 9.5080775618553144 9.2012411653995532
leaf_count=24 33 26 25
internal_value=0.00167499 -0.0100405 0.0039577
internal_weight=39.8827 27.6053 18.0972
internal_count=108 75 49
is_linear=0
shrinkage=0.05


Tree=7
num_leaves=4
num_cat=0
split_feature=33 8 50
split_gain=10.1939 2.41034 0.719867
threshold=1.0000000180025095e-35 -0.06933576098205034 -0.11365489550623858
decision_type=2 2 2
left_child=1 -1 -3
right_child=-2 2 -4
leaf_value=-0.0012936128410400722 0.04294358840830817 -0.019519211715701364 -0.042545874414736312
leaf_weight=13.163429111242294 9.856127589941023 6.6251712143421155 6.9596408009529132
leaf_count=39 28 20 21
internal_value=-0.000524337 -0.0165413 -0.031316
internal_weight=36.6044 26.7482 13.5848
internal_count=108 80 41
is_linear=0
shrinkage=0.05


Tree=8
num_leaves=4
num_cat=0
split_feature=40 10 18
split_gain=4.10563 1.97282 2.57924
threshold=-0.76405727611106666 -0.44778276157202218 -0.95359051316643895
decision_type=2 2 2
left_child=-1 -2 -3
right_child=1 2 -4
leaf_value=0.03230865612242325 0.0093325209458660786 0.0021124370320574179 -0.041938594115114657
leaf_weight=6.6673393845558193 6.7103461027145448 5.6588192135095623 8.0498977452516467
leaf_count=26 26 23 33
internal_value=-0.00175772 -0.0128812 -0.0237548
internal_weight=27.0864 20.4191 13.7087
internal_count=108 82 56
is_linear=0
shrinkage=0.05


Tree=9
num_leaves=3
num_cat=0
split_feature=32 4
split_gain=4.54965 4.57536
threshold=1.0000000180025095e-35 -0.18834996511435256
decision_type=2 2
left_child=1 -1
right_child=-2 -3
leaf_value=-0.031035749206391239 0.026872239168005976 0.0097737016371478806
leaf_weight=13.139821350574493 12.300332069396971 14.389813721179962
leaf_count=36 33 39
internal_value=0.00159114 -0.00970454
internal_weight=39.83 27.5296
internal_count=108 75
is_linear=0
shrinkage=0.05


Tree=10
num_leaves=4
num_cat=0
split_feature=33 8 50
split_gain=9.41271 2.30071 0.714059
threshold=1.0000000180025095e-35 -0.06933576098205034 -0.11365489550623858
decision_type=2 2 2
left_child=1 -1 -3
right_child=-2 2 -4
leaf_value=-0.0011535445059228816 0.040963430356070897 -0.018785974427752903 -0.041852993139910866
leaf_weight=13.141018867492676 9.9621112346649152 6.560312092304228 6.8666439056396502
leaf_count=39 28 20 21
internal_value=-0.00048475 -0.0160264 -0.0305826
internal_weight=36.5301 26.568 13.427
internal_count=108 80 41
is_linear=0
shrinkage=0.05


Tree=11
num_leaves=4
num_cat=0
split_feature=40 34 50
split_gain=3.80918 3.61681 2.92276
threshold=-0.76405727611106666 -1.0000000180025095e-35 -0.03335636124145664
decision_type=2 2 2
left_child=-1 2 -2
right_child=1 -3 -4
leaf_value=0.03074264482998193 -0.021978425466012298 -0.03587539184637635 0.029597124600527682
leaf_weight=6.7818119674921062 4.9580297321081188 9.1285667568445188 6.1594738960266104
leaf_count=26 20 39 23
internal_value=-0.00168963 -0.0125534 0.00659618
internal_weight=27.0279 20.2461 11.1175
internal_count=108 82 43
is_linear=0
shrinkage=0.05


Tree=12
num_leaves=4
num_cat=0
split_feature=33 32 50
split_gain=4.23499 3.33439 1.78888
threshold=1.0000000180025095e-35 1.0000000180025095e-35 -0.048669770011462339
decision_type=2 2 2
left_child=1 2 -1
right_child=-2 -3 -4
leaf_value=0.013741792304169678 -0.026453586650507278 0.034361272803252511 -0.016506115544146892
leaf_weight=10.022350877523424 10.097049742937086 10.103392302989961 9.5414841771125776
leaf_count=27 28 27 26
internal_value=0.0015163 0.0110357 -0.00101042
internal_weight=39.7643 29.6672 19.5638
internal_count=108 80 53
is_linear=0
shrinkage=0.05


Tree=13
num_leaves=5
num_cat=0
split_feature=9 50 38 14
split_gain=3.22836 3.10042 2.70544 1.30662
threshold=0.30133927939923483 0.7030447348804606 0.59309981070552009 0.33305131791368653
decision_type=2 2 2 2
left_child=2 -2 3 -1
right_child=1 -3 -4 -5
leaf_value=0.014733289900016598 0.042286882623934499 -0.0043119752764556006 -0.036586265543602836 -0.015264404481021503
leaf_weight=7.5069402754306811 6.8679131269454938 7.4324726164340973 7.599908620119094 7.0290285646915436
leaf_count=22 20 22 23 21
internal_value=-0.000449285 0.0180676 -0.0124117 0.000227573
internal_weight=36.4363 14.3004 22.1359 14.536
internal_count=108 42 66 43
is_linear=0
shrinkage=0.05


Tree=14
num_leaves=4
num_cat=0
split_feature=10 5 11
split_gain=3.53836 1.85178 0.465449
threshold=-0.44778276157202218 -0.75897092250956066 -0.63433487685577361
decision_type=2 2 2
left_child=-1 -2 -3
right_child=1 2 -4
leaf_value=0.022020755062697243 -0.034807624811963339 0.0096343923478535241 -0.012150078265508315
leaf_weight=9.9667165577411669 7.1767005026340511 4.8469768762588528 4.9623219519853548
leaf_count=38 30 20 20
internal_value=-0.00162968 -0.0155068 -0.00138592
internal_weight=26.9527 16.986 9.8093
internal_count=108 70 40
is_linear=0
shrinkage=0.05


Tree=15
num_leaves=4
num_cat=0
split_feature=16 1 1
split_gain=3.90524 3.19722 2.5902
threshold=-0.11720255787620519 -1.7785494340601691 -1.7786221451426922
decision_type=2 2 2
left_child=2 -2 -1
right_child=1 -3 -4
leaf_value=-0.032600161496187975 0.039306675668361407 -0.0018743420637462359 0.00077840399188219942
leaf_weight=9.819644898176195 8.9082897305488604 10.008610993623732 14.241660088300703
leaf_count=27 24 27 39
internal_value=0.000520251 0.0175185 -0.0128437
internal_weight=42.9782 18.9169 24.0613
internal_count=117 51 66
is_linear=0
shrinkage=0.05


Tree=16
num_leaves=5
num_cat=0
split_feature=9 38 50 19
split_gain=4.94017 3.89168 3.06567 0.626249
threshold=0.30133927939923483 0.32078584803080928 0.59794433216407261 -0.32903953802447566
decision_type=2 2 2 2
left_child=1 -1 -2 -3
right_child=2 3 -4 -5
leaf_value=0.0086893141037420081 0.039379550779856172 -0.022447305027768358 -0.0044109854650431681 -0.043352978626884281
leaf_weight=9.1299497783184069 8.6529803276062029 7.0453487932682037 7.4273554086685172 7.2878547310829145
leaf_count=27 25 21 22 22
internal_value=-0.00219449 -0.0168249 0.0191531 -0.033077
internal_weight=39.5435 23.4632 16.0803 14.3332
internal_count=117 70 47 43
is_linear=0
shrinkage=0.05


Tree=17
num_leaves=4
num_cat=0
split_feature=21 9 10
split_gain=3.31805 4.7236 2.84372
threshold=0.46968465422748457 -0.30495387591918205 0.2796677455488884
decision_type=2 2 2
left_child=1 -1 -3
right_child=-2 2 -4
leaf_value=0.046570796442329379 -0.027950760103616315 0.012307717988904145 -0.032558581427902064
leaf_weight=6.7421055585146012 6.9435326606035224 9.9639894962310773 5.4708719849586478
leaf_count=27 28 39 23
internal_value=0.00221213 0.011656 -0.0035951
internal_weight=29.1205 22.177 15.4349
internal_count=117 89 62
is_linear=0
shrinkage=0.05


Tree=18
num_leaves=4
num_cat=0
split_feature=14 1 1
split_gain=3.58815 2.95013 2.43368
threshold=0.33305131791368653 -1.7785494340601691 -1.7786221451426922
decision_type=2 2 2
left_child=2 -2 -1
right_child=1 -3 -4
leaf_value=-0.031578490893824945 0.037636432333947499 -0.0018893680524826352 0.0008379522690870365
leaf_weight=9.7598716914653796 8.9390392601490039 10.004273593425749 14.234113633632658
leaf_count=27 24 27 39
internal_value=0.000495077 0.0167622 -0.0123479
internal_weight=42.9373 18.9433 23.994
internal_count=117 51 66
is_linear=0
shrinkage=0.05


Tree=19
num_leaves=5
num_cat=0
split_feature=9 38 50 1
split_gain=4.5591 3.70706 2.80602 0.555473
threshold=0.30133927939923483 0.32078584803080928 0.59794433216407261 -1.7785494340601691
decision_type=2 2 2 2
left_child=1 -1 -2 -3
right_child=2 3 -4 -5
leaf_value=0.0085754517862179618 0.037495055525122729 -0.022297810141351366 -0.0043147101839762425 -0.042106818375583666
leaf_weight=9.1347003579139727 8.7437968850135821 7.0226220786571503 7.4172850847244254 7.1341584026813489
leaf_count=27 25 21 22 22
internal_value=-0.00209887 -0.0162571 0.0183061 -0.0322803
internal_weight=39.4526 23.2915 16.1611 14.1568
internal_count=117 70 47 43
is_linear=0
shrinkage=0.05


Tree=20
num_leaves=4
num_cat=0
split_feature=36 28 34
split_gain=3.29213 3.11745 3.92488
threshold=0.44816571406760625 -1.1117046697229254 -1.0000000180025095e-35
decision_type=2 2 2
left_child=1 -1 -3
right_child=-2 2 -4
leaf_value=-0.041848067195012523 0.028269635125494404 0.020971619638211852 -0.032262276948498925
leaf_weight=5.2743008881807372 8.5148305147886294 10.090770229697229 5.2712644934654174
leaf_count=22 35 38 22
internal_value=0.00211136 -0.00868189 0.00270516
internal_weight=29.1512 20.6363 15.362
internal_count=117 82 60
is_linear=0
shrinkage=0.05


Tree=21
num_leaves=4
num_cat=0
split_feature=14 1 1
split_gain=3.32462 2.78079 2.28852
threshold=0.33305131791368653 -1.7785494340601691 -1.7786221451426922
decision_type=2 2 2
left_child=2 -2 -1
right_child=1 -3 -4
leaf_value=-0.030641055137170733 0.036353503222225914 -0.0020071760608281054 0.00085394875126778072
leaf_weight=9.699909448623659 8.9566810131073016 9.9976142942905408 14.228309810161589
leaf_count=27 24 27 39
internal_value=0.000477457 0.0161198 -0.0119133
internal_weight=42.8825 18.9543 23.9282
internal_count=117 51 66
is_linear=0
shrinkage=0.05


Tree=22
num_leaves=5
num_cat=0
split_feature=9 38 50 19
split_gain=4.2452 3.54214 2.59138 0.592324
threshold=0.30133927939923483 0.32078584803080928 0.59794433216407261 -0.32903953802447566
decision_type=2 2 2 2
left_child=1 -1 -2 -3
right_child=2 3 -4 -5
leaf_value=0.0084510528544481638 0.035921804227076956 -0.021180900296077498 -0.0042050327936204532 -0.041758410444902583
leaf_weight=9.1352641582489031 8.8129453659057635 6.9213780462741852 7.4034373164176932 7.0687510967254621
leaf_count=27 25 21 22 22
internal_value=-0.00201142 -0.0157653 0.0176023 -0.031578
internal_weight=39.3418 23.1254 16.2164 13.9901
internal_count=117 70 47 43
is_linear=0
shrinkage=0.05


Tree=23
num_leaves=4
num_cat=0
split_feature=36 5 34
split_gain=3.04271 2.95422 3.66769
threshold=0.44816571406760625 -1.1117046697229076 -1.0000000180025095e-35
decision_type=2 2 2
left_child=1 -1 -3
right_child=-2 2 -4
leaf_value=-0.041430101608006094 0.026875322702614203 0.019797521541391548 -0.031849062918653158
leaf_weight=5.1079252809286162 8.6538127362728137 10.232445061206819 5.1766266673803267
leaf_count=22 35 38 22
internal_value=0.00201086 -0.00847666 0.00244702
internal_weight=29.1708 20.517 15.4091
internal_count=117 82 60
is_linear=0
shrinkage=0.05


Tree=24
num_leaves=5
num_cat=0
split_feature=14 24 33 6
split_gain=3.06859 2.64757 1.98487 0.776349
threshold=0.33305131791368653 -0.26441668375268862 1.0000000180025095e-35 1.0000000180025095e-35
decision_type=2 2 2 2
left_child=2 -2 3 -1
right_child=1 -3 -4 -5
leaf_value=0.008293550255456493 -0.0021963084045125056 0.035233553734527301 -0.033056013709844151 -0.013454894106427638
leaf_weight=8.8112124502658897 10.005627721548082 8.9508392512798292 7.3636528253555289 7.6798759400844565
leaf_count=24 27 24 21 21
internal_value=0.000460761 0.0154773 -0.0114723 -0.00183467
internal_weight=42.8112 18.9565 23.8547 16.4911
internal_count=117 51 66 45
is_linear=0
shrinkage=0.05


Tree=25
num_leaves=4
num_cat=0
split_feature=33 9 11
split_gain=3.97762 2.50586 0.799293
threshold=1.0000000180025095e-35 0.12304018468241161 -0.35553148783173
decision_type=2 2 2
left_child=1 2 -1
right_child=-2 -3 -4
leaf_value=-0.035885771460945015 0.023262945359074014 0.0044331184220669359 -0.012921547272004886
leaf_weight=8.462611645460127 11.196958929300306 12.697300940752028 6.8613371849060085
leaf_count=27 31 38 21
internal_value=-0.00192726 -0.011993 -0.0256035
internal_weight=39.2182 28.0212 15.3239
internal_count=117 86 48
is_linear=0
shrinkage=0.05


Tree=26
num_leaves=4
num_cat=0
split_feature=10 9 10
split_gain=2.85032 2.2696 0.837051
threshold=-0.44778276157202218 -1.0000000180025095e-35 0.44209540692384924
decision_type=2 2 2
left_child=-1 -2 -3
right_child=1 2 -4
leaf_value=0.022749335125434093 0.0085726427419838165 -0.012061975980740767 -0.041249165837990667
leaf_weight=10.505171418190004 8.842328622937206 5.021570742130276 4.8088221102952957
leaf_count=39 36 21 21
internal_value=0.00191439 -0.00980724 -0.0263397
internal_weight=29.1779 18.6727 9.83039
internal_count=117 78 42
is_linear=0
shrinkage=0.05


Tree=27
num_leaves=4
num_cat=0
split_feature=14 1 1
split_gain=2.81382 2.53897 2.17583
threshold=0.33305131791368653 -1.7785494340601691 -1.7786221451426922
decision_type=2 2 2
left_child=2 -2 -1
right_child=1 -3 -4
leaf_value=-0.029416230094242303 0.034120192856799174 -0.0025336629641887552 0.001424601496940711
leaf_weight=9.5895222425460833 8.9667197465896624 9.9862188100814802 14.168636977672575
leaf_count=27 24 27 39
internal_value=0.000438798 0.0148074 -0.0110237
internal_weight=42.7111 18.9529 23.7582
internal_count=117 51 66
is_linear=0
shrinkage=0.05


Tree=28
num_leaves=5
num_cat=0
split_feature=9 38 50 19
split_gain=3.71985 3.3703 2.32642 0.551062
threshold=0.30133927939923483 0.32078584803080928 0.59794433216407261 -0.32903953802447566
decision_type=2 2 2 2
left_child=1 -1 -2 -3
right_child=2 3 -4 -5
leaf_value=0.0087266660791464647 0.033623104544815187 -0.020505963269481828 -0.0043378086106048361 -0.040557729432616943
leaf_weight=9.0808992683887499 8.8935070633888262 6.8406407833099365 7.3895679712295523 6.8649067282676679
leaf_count=27 25 21 22 22
internal_value=-0.00185516 -0.0148971 0.0163957 -0.0305496
internal_weight=39.0695 22.7864 16.2831 13.7055
internal_count=117 70 47 43
is_linear=0
shrinkage=0.05


Tree=29
num_leaves=5
num_cat=0
split_feature=36 5 7 22
split_gain=2.84952 2.7178 1.97841 5.43742
threshold=0.44816571406760625 -1.1117046697229076 0.85257821395455913 -0.37963374888658558
decision_type=2 2 2 2
left_child=1 -1 3 -3
right_child=-2 2 -4 -5
leaf_value=-0.040935768799429888 0.025685398284814667 -0.022873520702848548 -0.023564209083700067 0.04947982171050086
leaf_weight=4.8825828731060072 8.7659159004688281 5.044117748737337 5.133492887020112 5.3516422510147024
leaf_count=22 35 20 20 20
internal_value=0.00184177 -0.00839794 0.00183234 0.0143733
internal_weight=29.1778 20.4118 15.5293 10.3958
internal_count=117 82 60 40
is_linear=0
shrinkage=0.05


Tree=30
num_leaves=5
num_cat=0
split_feature=21 33 10 11
split_gain=3.25461 2.94527 4.18043 1.05751
threshold=0.46968465422748457 1.0000000180025095e-35 -0.32242738009357957 -0.35553148783173
decision_type=2 2 2 2
left_child=1 2 -1 -4
right_child=-2 -3 3 -5
leaf_value=-0.02801952856602026 0.022336015604262443 -0.035457882984017468 0.027633317710286556 0.0017521631604270121
leaf_weight=9.1743686497211439 10.336472511291502 8.3635313808917982 7.7289706170558885 8.0658419132232719
leaf_count=25 28 24 21 22
internal_value=-0.00217612 -0.00977733 -0.00117552 0.0144167
internal_weight=43.6692 33.3327 24.9692 15.7948
internal_count=120 92 68 43
is_linear=0
shrinkage=0.05


Tree=31
num_leaves=4
num_cat=0
split_feature=9 50 9
split_gain=4.54807 3.30935 1.73571
threshold=0.12304018468241161 1.083228516137188 -0.27974544179877253
decision_type=2 2 2
left_child=2 -2 -1
right_child=1 -3 -4
leaf_value=-0.0010620473862888817 0.036494068395794443 -0.0049925642789818408 -0.033147189857455989
leaf_weight=12.44784587621689 13.65628555417061 7.4179945886135092 6.3732294738292685
leaf_count=39 39 22 20
internal_value=0.00593713 0.0218911 -0.0119268
internal_weight=39.8954 21.0743 18.8211
internal_count=120 61 59
is_linear=0
shrinkage=0.05


Tree=32
num_leaves=5
num_cat=0
split_feature=50 50 50 6
split_gain=1.98576 2.76594 3.09319 0.843619
threshold=1.083228516137188 0.36653455906851562 -0.03335636124145664 0.60385460509623756
decision_type=2 2 2 2
left_child=1 2 3 -1
right_child=-2 -3 -4 -5
leaf_value=-0.0054479125332706673 0.020338076987874668 -0.043009394578388031 0.025397633446375835 -0.032166331582595464
leaf_weight=6.6681685447692924 6.2702395319938651 5.3339541852474204 6.5757469683885601 5.3046090006828308
leaf_count=26 24 21 26 23
internal_value=-0.00470387 -0.0112785 -0.00215376 -0.0172857
internal_weight=30.1527 23.8825 18.5485 11.9728
internal_count=120 96 75 49
is_linear=0
shrinkage=0.05


Tree=33
num_leaves=4
num_cat=0
split_feature=32 17 31
split_gain=3.26539 4.274 1.75243
threshold=1.0000000180025095e-35 -0.08453875095990579 -0.41156936316141851
decision_type=2 2 2
left_child=1 2 -1
right_child=-2 -3 -4
leaf_value=-0.00630477509030479 0.018164499225647064 0.013315557484240759 -0.037792400940658048
leaf_weight=7.1172616481781033 13.699202179908751 11.072113901376726 11.65439051389694
leaf_count=20 37 30 33
internal_value=-0.0020451 -0.0113219 -0.0258539
internal_weight=43.543 29.8438 18.7717
internal_count=120 83 53
is_linear=0
shrinkage=0.05


Tree=34
num_leaves=4
num_cat=0
split_feature=9 50 5
split_gain=4.23242 3.04045 1.64676
threshold=0.12304018468241161 1.083228516137188 -0.75897092250956066
decision_type=2 2 2
left_child=2 -2 -1
right_child=1 -3 -4
leaf_value=-0.032581571829940363 0.03486094186898217 -0.0048699775231266472 -0.0011606162023552458
leaf_weight=6.2637133896350887 13.76505282521248 7.4060454666614524 12.475003272294996
leaf_count=20 39 22 39
internal_value=0.0056436 0.0209623 -0.0116636
internal_weight=39.9098 21.1711 18.7387
internal_count=120 61 59
is_linear=0
shrinkage=0.05


Tree=35
num_leaves=5
num_cat=0
split_feature=10 5 50 50
split_gain=1.80133 2.2793 1.90815 1.84347
threshold=-0.44778276157202218 -1.0000000180025095e-35 0.21508943473025643 -0.48545130519426555
decision_type=2 2 2 2
left_child=1 -1 3 -2
right_child=2 -3 -4 -5
leaf_value=0.0330497218454767 -0.021345652823525796 -0.010889440106625754 -0.041354559620914499 0.015978062395599273
leaf_weight=5.7955252975225449 7.4098929017782238 6.0144111067056674 4.8256105482578269 5.9767924994230262
leaf_count=21 32 22 21 24
internal_value=-0.00453616 0.010673 -0.0143986 -0.00468162
internal_weight=30.0222 11.8099 18.2123 13.3867
internal_count=120 43 77 56
is_linear=0
shrinkage=0.05


Tree=36
num_leaves=4
num_cat=0
split_feature=32 4 38
split_gain=3.03943 4.01627 2.05203
threshold=1.0000000180025095e-35 -0.18834996511435256 0.59309981070552009
decision_type=2 2 2
left_child=1 2 -1
right_child=-2 -3 -4
leaf_value=-0.042689762424746806 0.017569531723126652 0.0096676632834924118 -0.0071049583117428344
leaf_weight=9.3895323276519793 13.689434468746184 13.188605815172197 7.125912368297576
leaf_count=27 37 36 20
internal_value=-0.00192301 -0.0109064 -0.027336
internal_weight=43.3935 29.7041 16.5154
internal_count=120 83 47
is_linear=0
shrinkage=0.05


Tree=37
num_leaves=4
num_cat=0
split_feature=9 50 9
split_gain=3.93672 2.76572 1.63839
threshold=0.12304018468241161 1.083228516137188 -0.27974544179877253
decision_type=2 2 2
left_child=2 -2 -1
right_child=1 -3 -4
leaf_value=-0.00086922899018013417 0.033247091329041155 -0.0046359595468129129 -0.032255841467924845
leaf_weight=12.399820357561113 13.864289045333864 7.3838133513927451 6.2553550899028769
leaf_count=39 39 22 20
internal_value=0.00536713 0.0200826 -0.0113936
internal_weight=39.9033 21.2481 18.6552
internal_count=120 61 59
is_linear=0
shrinkage=0.05


Tree=38
num_leaves=5
num_cat=0
split_feature=9 10 5 40
split_gain=1.69739 1.72959 3.17658 0.9611
threshold=-0.894808801065198 0.391484982170967 0.81086149639561766 -0.32943994043924235
decision_type=2 2 2 2
left_child=-1 2 3 -2
right_child=1 -3 -4 -5
leaf_value=-0.031935548603546818 0.04182803992706946 -0.020065445701597354 -0.016247749891365272 0.011814494077570434
leaf_weight=4.7066109329462078 5.203803211450583 7.1323497146368018 7.3618860989809027 5.4721979349851599
leaf_count=19 19 32 28 22
internal_value=-0.00437529 0.000778232 0.00902002 0.026444
internal_weight=29.8768 25.1702 18.0379 10.676
internal_count=120 101 69 41
is_linear=0
shrinkage=0.05


Tree=39
num_leaves=5
num_cat=0
split_feature=21 50 38 21
split_gain=2.96322 3.46256 2.12176 1.15273
threshold=0.46968465422748457 -0.78569213616909439 0.59309981070552009 -0.29551619564413451
decision_type=2 2 2 2
left_child=1 -1 3 -3
right_child=-2 2 -4 -5
leaf_value=0.020975667267533606 0.0216305329454471 -0.015696907955434072 -0.00042921830420807245 -0.043272346834859782
leaf_weight=7.4112453162670127 10.282235205173491 7.4287617802619907 10.384173601865767 7.7369508445262953
leaf_count=20 28 21 29 22
internal_value=-0.00180364 -0.00911394 -0.017842 -0.0297648
internal_weight=43.2434 32.9611 25.5499 15.1657
internal_count=120 92 72 43
is_linear=0
shrinkage=0.05


Tree=40
num_leaves=4
num_cat=0
split_feature=9 24 5
split_gain=3.70631 2.61702 1.55428
threshold=0.12304018468241161 -0.26441668375268862 -0.75897092250956066
decision_type=2 2 2
left_child=2 -2 -1
right_child=1 -3 -4
leaf_value=-0.031772953343242392 0.040135616402309726 0.0045674396986033995 -0.0010442736641821239
leaf_weight=6.1502586007118252 8.8465031683444995 12.449387192726133 12.436008274555205
leaf_count=20 25 36 39
internal_value=0.00510311 0.0193428 -0.0112125
internal_weight=39.8822 21.2959 18.5863
internal_count=120 61 59
is_linear=0
shrinkage=0.05


Tree=41
num_leaves=4
num_cat=0
split_feature=36 34 14
split_gain=1.64914 1.93882 1.66967
threshold=0.44816571406760625 -1.0000000180025095e-35 0.26326121864194468
decision_type=2 2 2
left_child=1 2 -1
right_child=-2 -3 -4
leaf_value=0.011989293492823135 0.013885286638973496 -0.033871127693255773 -0.023511790972561983
leaf_weight=8.8256652206182498 8.8383039385080355 6.7732264995574942 5.3014514446258536
leaf_count=32 36 30 22
internal_value=-0.00422102 -0.0118778 -0.00133312
internal_weight=29.7386 20.9003 14.1271
internal_count=120 84 54
is_linear=0
shrinkage=0.05


Tree=42
num_leaves=4
num_cat=0
split_feature=32 15 31
split_gain=2.8231 3.64989 1.61108
threshold=1.0000000180025095e-35 -0.11830399726347644 -0.41156936316141851
decision_type=2 2 2
left_child=1 2 -1
right_child=-2 -3 -4
leaf_value=-0.0052798851518123593 0.017089416540253428 0.012335633156788376 -0.035694681162636056
leaf_weight=7.0598132014274624 13.651837587356566 11.025092452764513 11.360029488801954
leaf_count=20 37 30 33
internal_value=-0.00170463 -0.0104183 -0.0240375
internal_weight=43.0968 29.4449 18.4198
internal_count=120 83 53
is_linear=0
shrinkage=0.05


Tree=43
num_leaves=4
num_cat=0
split_feature=9 50 9
split_gain=3.4153 2.5437 1.56099
threshold=0.12304018468241161 1.083228516137188 -0.27974544179877253
decision_type=2 2 2
left_child=2 -2 -1
right_child=1 -3 -4
leaf_value=-0.00063760728100077473 0.030998187189866418 -0.0052430170768408644 -0.03148442746742957
leaf_weight=12.334648221731188 13.98595377802849 7.4053536355495444 6.1442432999610892
leaf_count=39 39 22 20
internal_value=0.00485075 0.018452 -0.0108942
internal_weight=39.8702 21.3913 18.4789
internal_count=120 61 59
is_linear=0
shrinkage=0.05


Tree=44
num_leaves=5
num_cat=0
split_feature=50 50 50 8
split_gain=1.56566 2.6038 2.79256 0.844587
threshold=1.083228516137188 0.36653455906851562 -0.03335636124145664 -0.14030198333757685
decision_type=2 2 2 2
left_child=1 2 3 -1
right_child=-2 -3 -4 -5
leaf_value=7.1518937926359086e-05 0.017738046194987988 -0.042130676907179365 0.024622193222185961 -0.027393009522658288
leaf_weight=4.7430962920188966 6.448492005467414 4.9848601669073096 6.5980432331562069 6.8302689194679251
leaf_count=20 24 21 26 29
internal_value=-0.00405124 -0.0101191 -0.00133749 -0.0161373
internal_weight=29.6048 23.1563 18.1714 11.5734
internal_count=120 96 75 49
is_linear=0
shrinkage=0.05


Tree=45
num_leaves=4
num_cat=0
split_feature=37 11 38
split_gain=7.5867 3.45466 1.37334
threshold=1.0000000180025095e-35 -0.16750616526699588 0.32078584803080928
decision_type=2 2 2
left_child=-1 2 -2
right_child=1 -3 -4
leaf_value=0.045636245482205698 -0.014200677091888695 -0.031944952381755154 0.011429424551901442
leaf_weight=7.6963483095169059 8.2850216329097766 11.285795688629149 14.158323526382445
leaf_count=21 23 33 39
internal_value=0.000841917 -0.0093793 0.001968
internal_weight=41.4255 33.7291 22.4433
internal_count=116 95 62
is_linear=0
shrinkage=0.05


Tree=46
num_leaves=5
num_cat=0
split_feature=4 33 26 20
split_gain=6.79789 2.52836 2.33299 0.685716
threshold=-0.42693251298078644 1.0000000180025095e-35 -0.95397048889939329 -0.33690260039310821
decision_type=2 2 2 2
left_child=-1 2 -2 -4
right_child=1 -3 3 -5
leaf_value=0.039612414795514771 0.0023398711585122215 0.013040726095290764 -0.019736812366128523 -0.042126886132977076
leaf_weight=8.7582342326641065 7.811412155628207 8.2593643665313738 6.3120672404766092 7.4623226225376103
leaf_count=25 25 23 19 24
internal_value=0.000880133 -0.0104861 -0.0194881 -0.0318667
internal_weight=38.6034 29.8452 21.5858 13.7744
internal_count=116 91 68 43
is_linear=0
shrinkage=0.05


Tree=47
num_leaves=5
num_cat=0
split_feature=36 9 3 3
split_gain=3.88395 3.63783 2.47809 0.127147
threshold=0.44816571406760625 0.065289592957741616 -0.14738439481121898 -0.11658336064089979
decision_type=2 2 2 2
left_child=1 2 -1 -3
right_child=-2 3 -4 -5
leaf_value=0.03037208498311228 0.027941888664262688 -0.042057320811807256 -0.016551475882207026 -0.030448091743578855
leaf_weight=5.3059117347002056 7.6859986931085578 4.9655518680810928 5.9902663230896023 4.4922451525926572
leaf_count=19 30 21 26 20
internal_value=-0.00242099 -0.0136655 0.00548892 -0.0365432
internal_weight=28.44 20.754 11.2962 9.4578
internal_count=116 86 45 41
is_linear=0
shrinkage=0.05


Tree=48
num_leaves=4
num_cat=0
split_feature=37 4 47
split_gain=6.98487 3.07956 1.2682
threshold=1.0000000180025095e-35 -0.35622493114358983 -1.2059775539981743
decision_type=2 2 2
left_child=-1 -2 -3
right_child=1 2 -4
leaf_value=0.043695922974903323 -0.030551486668588514 -0.013947710465694025 0.010693113718318853
leaf_weight=7.71872255206108 11.13351649045944 8.2684689462184888 14.171408772468569
leaf_count=21 33 23 39
internal_value=0.000807454 -0.00905286 0.00161366
internal_weight=41.2921 33.5734 22.4399
internal_count=116 95 62
is_linear=0
shrinkage=0.05


Tree=49
num_leaves=5
num_cat=0
split_feature=36 4 5 9
split_gain=6.19979 3.12685 1.4377 0.735518
threshold=1.0000000180025095e-35 -0.38074518881009461 1.0000000180025095e-35 0.15759935093642477
decision_type=2 2 2 2
left_child=-1 -2 3 -3
right_child=1 2 -4 -5
leaf_value=0.04425181596645672 0.021158992465122071 -0.038844957017123039 -0.0022646159491737121 -0.01637416451423504
leaf_weight=6.7716607451438895 6.9577941596508053 6.7875238358974475 10.095805794000624 7.8571478724479675
leaf_count=19 20 23 31 23
internal_value=0.000824014 -0.00845341 -0.0167813 -0.0267889
internal_weight=38.4699 31.6983 24.7405 14.6447
internal_count=116 97 77 46
is_linear=0
shrinkage=0.05


Tree=50
num_leaves=4
num_cat=0
split_feature=36 21 11
split_gain=3.65098 1.89975 1.63795
threshold=0.44816571406760625 0.46968465422748457 -0.35248492783194435
decision_type=2 2 2
left_child=1 2 -1
right_child=-2 -3 -4
leaf_value=-0.019212416982018376 0.026893563210093188 -0.040977538629926438 0.013255268405593499
leaf_weight=8.858771279454233 7.7724579125642768 4.772687464952468 6.9180824458599117
leaf_count=38 30 22 26
internal_value=-0.00229649 -0.0133371 -0.00497548
internal_weight=28.322 20.5495 15.7769
internal_count=116 86 64
is_linear=0
shrinkage=0.05


Tree=51
num_leaves=4
num_cat=0
split_feature=37 4 10
split_gain=6.45799 2.76488 1.72136
threshold=1.0000000180025095e-35 -0.35622493114358983 0.19080878976890667
decision_type=2 2 2
left_child=-1 -2 -3
right_child=1 2 -4
leaf_value=0.041952258475153555 -0.02934846807967377 0.012973621442782794 -0.015136087002460727
leaf_weight=7.7221543490886679 10.97396284341812 13.093708962202074 9.3248897790908796
leaf_count=21 33 36 26
internal_value=0.000744826 -0.00878455 0.00128155
internal_weight=41.1147 33.3926 22.4186
internal_count=116 95 62
is_linear=0
shrinkage=0.05


Tree=52
num_leaves=5
num_cat=0
split_feature=36 4 6 10
split_gain=5.62491 2.83574 1.38135 3.10376
threshold=1.0000000180025095e-35 -0.38074518881009461 -1.0000000180025095e-35 0.19080878976890667
decision_type=2 2 2 2
left_child=-1 -2 -3 -4
right_child=1 2 3 -5
leaf_value=0.041946870455591895 0.019949871947992158 -0.001900111523780889 -0.047933107424295046 -0.0015316518783431035
leaf_weight=6.8239074349403372 6.9976408183574703 10.050340160727504 7.635870069265362 6.8249647319316864
leaf_count=19 20 31 25 21
internal_value=0.000789988 -0.00812341 -0.016138 -0.0260334
internal_weight=38.3327 31.5088 24.5112 14.4608
internal_count=116 97 77 46
is_linear=0
shrinkage=0.05


Tree=53
num_leaves=5
num_cat=0
split_feature=36 9 11 11
split_gain=3.38246 3.4551 2.55581 0.132047
threshold=0.44816571406760625 0.065289592957741616 -0.35248492783194435 -0.36783807011776642
decision_type=2 2 2 2
left_child=1 2 -1 -3
right_child=-2 3 -4 -5
leaf_value=-0.016435374267680342 0.02565456382676426 -0.029503090054823801 0.031425857570962286 -0.041564100223826561
leaf_weight=6.0527068823576 7.8776014894247046 4.3225862085819244 5.1734952777624157 4.777572348713873
leaf_count=27 30 20 18 21
internal_value=-0.00215947 -0.012939 0.00562105 -0.0358351
internal_weight=28.204 20.3264 11.2262 9.10016
internal_count=116 86 45 41
is_linear=0
shrinkage=0.05


Tree=54
num_leaves=4
num_cat=0
split_feature=37 4 10
split_gain=5.97891 2.47037 1.55874
threshold=1.0000000180025095e-35 -0.35622493114358983 0.19080878976890667
decision_type=2 2 2
left_child=-1 -2 -3
right_child=1 2 -4
leaf_value=0.040341129228807754 -0.028123281640349634 0.012089402310899498 -0.014674248673943943
leaf_weight=7.7238275110721579 10.814088344573973 13.10117030143738 9.3036456406116468
leaf_count=21 33 36 26
internal_value=0.000716161 -0.00849716 0.000975742
internal_weight=40.9427 33.2189 22.4048
internal_count=116 95 62
is_linear=0
shrinkage=0.05


Tree=55
num_leaves=5
num_cat=0
split_feature=4 33 18 20
split_gain=5.17662 2.1654 2.20853 0.671952
threshold=-0.42693251298078644 1.0000000180025095e-35 -0.95359051316643895 -0.33690260039310821
decision_type=2 2 2 2
left_child=-1 2 -2 -4
right_child=1 -3 3 -5
leaf_value=0.034082960485683315 0.0033490464017776086 0.012268209011180194 -0.018142215930060292 -0.040691979287704981
leaf_weight=8.9152615368366224 7.6961179822683361 8.2478240728378314 6.1246122419834146 7.1725824177265141
leaf_count=25 25 23 19 24
internal_value=0.000729591 -0.00943944 -0.0179679 -0.0303057
internal_weight=38.1564 29.2411 20.9933 13.2972
internal_count=116 91 68 43
is_linear=0
shrinkage=0.05


Tree=56
num_leaves=4
num_cat=0
split_feature=39 50 5
split_gain=4.20779 2.91956 1.37514
threshold=0.51529229105210583 -0.78569213616909439 -1.0000000180025095e-35
decision_type=2 2 2
left_child=1 -1 -3
right_child=-2 2 -4
leaf_value=0.01848955140148207 0.027816058975080118 -0.0053612499112841152 -0.037167236078071222
leaf_weight=4.9866472184658095 8.3095725476741809 5.2995051294565245 9.4730913341045291
leaf_count=22 33 22 39
internal_value=-0.00203643 -0.0145906 -0.0257572
internal_weight=28.0688 19.7592 14.7726
internal_count=116 83 61
is_linear=0
shrinkage=0.05


Tree=57
num_leaves=4
num_cat=0
split_feature=37 4 10
split_gain=5.51585 2.24819 1.43222
threshold=1.0000000180025095e-35 -0.35622493114358983 0.19080878976890667
decision_type=2 2 2
left_child=-1 -2 -3
right_child=1 2 -4
leaf_value=0.038760037493019893 -0.027094186479283855 0.011441027125689869 -0.014222716793436608
leaf_weight=7.7124010324478141 10.663793265819548 13.109502196311952 9.2880539894103986
leaf_count=21 33 36 26
internal_value=0.000684042 -0.00819815 0.000798516
internal_weight=40.7738 33.0613 22.3976
internal_count=116 95 62
is_linear=0
shrinkage=0.05


Tree=58
num_leaves=5
num_cat=0
split_feature=36 11 23 10
split_gain=4.8632 2.27385 1.31271 2.93354
threshold=1.0000000180025095e-35 -0.10204629500133114 1.0000000180025095e-35 0.19080878976890667
decision_type=2 2 2 2
left_child=-1 2 3 -2
right_child=1 -3 -4 -5
leaf_value=0.038773666186035921 -0.046788132926915957 0.017204368612063627 -0.0011531069139044197 -0.001144699944089961
leaf_weight=6.8614330589771262 7.3297625929117221 7.0675228536129024 9.9553639739751798 6.7732406854629517
leaf_count=19 25 20 31 21
internal_value=0.000670127 -0.00772947 -0.0150542 -0.024867
internal_weight=37.9873 31.1259 24.0584 14.103
internal_count=116 97 77 46
is_linear=0
shrinkage=0.05


Tree=59
num_leaves=4
num_cat=0
split_feature=39 50 23
split_gain=3.82636 2.7554 1.32945
threshold=0.51529229105210583 -0.78569213616909439 -1.0000000180025095e-35
decision_type=2 2 2
left_child=1 -1 -3
right_child=-2 2 -4
leaf_value=0.017791609447065395 0.026193723737025311 -0.0051363034161439804 -0.036614043330085139
leaf_weight=5.0337234586477324 8.4532383680343646 5.2756851166486785 9.2103899866342456
leaf_count=22 33 22 39
internal_value=-0.0019071 -0.0140764 -0.0251502
internal_weight=27.973 19.5198 14.4861
internal_count=116 83 61
is_linear=0
shrinkage=0.05


Tree=60
num_leaves=5
num_cat=0
split_feature=33 10 32 10
split_gain=2.01356 1.5195 2.04606 1.93882
threshold=1.0000000180025095e-35 -0.76316311033844675 1.0000000180025095e-35 0.44209540692384924
decision_type=2 2 2 2
left_child=1 -1 3 -3
right_child=-2 2 -4 -5
leaf_value=-0.011129676888067278 -0.017350603523392755 0.017642223651949125 0.036914032596402406 -0.014823941985843339
leaf_weight=7.502117693424224 9.3349872529506666 12.824487298727041 7.3095355033874503 7.1691534221172324
leaf_count=21 28 36 20 20
internal_value=0.00326998 0.00880055 0.0142768 0.00600078
internal_weight=44.1403 34.8053 27.3032 19.9936
internal_count=125 97 76 56
is_linear=0
shrinkage=0.05


Tree=61
num_leaves=5
num_cat=0
split_feature=33 9 24 8
split_gain=3.71536 2.64333 1.35834 0.945092
threshold=1.0000000180025095e-35 0.12304018468241161 -0.26441668375268862 0.17810207541161072
decision_type=2 2 2 2
left_child=1 2 -1 -3
right_child=-2 3 -4 -5
leaf_value=-0.015496056470926792 0.021906172292527927 0.01615776040342062 -0.044834276338475032 -0.010145314835134768
leaf_weight=10.506801769137384 9.9771490991115552 6.875796437263487 6.3175733089447048 6.7851309329271317
leaf_count=34 28 20 23 20
internal_value=-0.00457798 -0.0132456 -0.0265126 0.00309351
internal_weight=40.4625 30.4853 16.8244 13.6609
internal_count=125 97 57 40
is_linear=0
shrinkage=0.05


Tree=62
num_leaves=5
num_cat=0
split_feature=21 7 10 7
split_gain=2.41855 3.20718 3.58376 1.24478
threshold=0.46968465422748457 0.85257821395455913 -0.44778276157202218 0.045504572163138059
decision_type=2 2 2 2
left_child=1 2 -1 -4
right_child=-2 -3 3 -5
leaf_value=0.051780042562510079 -0.025358070246777265 -0.017544016775564976 0.021702012811559607 -0.013941046570000663
leaf_weight=6.0964211374521282 6.6234850138425818 7.7557119131088248 4.662837356328966 5.1604627519845963
leaf_count=21 32 31 19 22
internal_value=0.00134983 0.00882169 0.0216664 0.00297769
internal_weight=30.2989 23.6754 15.9197 9.8233
internal_count=125 93 62 41
is_linear=0
shrinkage=0.05


end of trees

feature_importances:
form_differential=27
recent_form_home=23
recent_form_away=17
away_big_club=13
prob_ratio_home_draw=10
home_team_frequency=10
round_id=9
bookmaker_margin=9
home_big_club=9
avg_home_odds=8
month=8
odds_draw=7
implied_prob_home=7
min_draw_odds=6
big_club_match=6
away_team_frequency=5
hour=4
market_efficiency=3
uncertainty_index=3
avg_draw_odds=3
bookmaker_count=3
prob_ratio_draw_away=2
implied_prob_away=2
max_draw_odds=2
market_margin=2
odds_spread=2
day_of_week=2
min_home_odds=1
avg_away_odds=1
max_away_odds=1
min_away_odds=1
implied_prob_draw=1
prob_away=1
total_prob=1
season_month=1

parameters:
[boosting: gbdt]
[objective: multiclass]
[metric: multi_logloss]
[tree_learner: serial]
[device_type: cpu]
[data_sample_strategy: bagging]
[data: ]
[valid: ]
[num_iterations: 1000]
[learning_rate: 0.05]
[num_leaves: 31]
[num_threads: 0]
[seed: 42]
[deterministic: 0]
[force_col_wise: 0]
[force_row_wise: 1]
[histogram_pool_size: -1]
[max_depth: -1]
[min_data_in_leaf: 20]
[min_sum_hessian_in_leaf: 0.001]
[bagging_fraction: 0.8]
[pos_bagging_fraction: 1]
[neg_bagging_fraction: 1]
[bagging_freq: 5]
[bagging_seed: 400]
[bagging_by_query: 0]
[feature_fraction: 0.8]
[feature_fraction_bynode: 1]
[feature_fraction_seed: 30056]
[extra_trees: 0]
[extra_seed: 12879]
[early_stopping_round: 0]
[early_stopping_min_delta: 0]
[first_metric_only: 0]
[max_delta_step: 0]
[lambda_l1: 0]
[lambda_l2: 0]
[linear_lambda: 0]
[min_gain_to_split: 0]
[drop_rate: 0.1]
[max_drop: 50]
[skip_drop: 0.5]
[xgboost_dart_mode: 0]
[uniform_drop: 0]
[drop_seed: 17869]
[top_rate: 0.2]
[other_rate: 0.1]
[min_data_per_group: 100]
[max_cat_threshold: 32]
[cat_l2: 10]
[cat_smooth: 10]
[max_cat_to_onehot: 4]
[top_k: 20]
[monotone_constraints: ]
[monotone_constraints_method: basic]
[monotone_penalty: 0]
[feature_contri: ]
[forcedsplits_filename: ]
[refit_decay_rate: 0.9]
[cegb_tradeoff: 1]
[cegb_penalty_split: 0]
[cegb_penalty_feature_lazy: ]
[cegb_penalty_feature_coupled: ]
[path_smooth: 0]
[interaction_constraints: ]
[verbosity: -1]
[saved_feature_importance_type: 0]
[use_quantized_grad: 0]
[num_grad_quant_bins: 4]
[quant_train_renew_leaf: 0]
[stochastic_rounding: 1]
[linear_tree: 0]
[max_bin: 255]
[max_bin_by_feature: ]
[min_data_in_bin: 3]
[bin_construct_sample_cnt: 200000]
[data_random_seed: 175]
[is_enable_sparse: 1]
[enable_bundle: 1]
[use_missing: 1]
[zero_as_missing: 0]
[feature_pre_filter: 1]
[pre_partition: 0]
[two_round: 0]
[header: 0]
[label_column: ]
[weight_column: ]
[group_column: ]
[ignore_column: ]
[categorical_feature: ]
[forcedbins_filename: ]
[precise_float_parser: 0]
[parser_config_file: ]
[objective_seed: 16083]
[num_class: 3]
[is_unbalance: 0]
[scale_pos_weight: 1]
[sigmoid: 1]
[boost_from_average: 1]
[reg_sqrt: 0]
[alpha: 0.9]
[fair_c: 1]
[poisson_max_delta_step: 0.7]
[tweedie_variance_power: 1.5]
[lambdarank_truncation_level: 30]
[lambdarank_norm: 1]
[label_gain: ]
[lambdarank_position_bias_regularization: 0]
[eval_at: ]
[multi_error_top_k: 1]
[auc_mu_weights: ]
[num_machines: 1]
[local_listen_port: 12400]
[time_out: 120]
[machine_list_filename: ]
[machines: ]
[gpu_platform_id: -1]
[gpu_device_id: -1]
[gpu_use_dp: 0]
[num_gpu: 1]

end of parameters

pandas_categorical:[]
